</s> 0.004003 0.004419 -0.003830 -0.003278 0.001367 0.003021 0.000941 0.000211 -0.003604 0.002218 -0.004356 0.001250 -0.000751 -0.000957 -0.003316 -0.001882 0.002579 0.003025 0.002969 0.001597 0.001545 -0.003803 -0.004096 0.004970 0.003801 0.003090 -0.000604 0.004016 -0.000495 0.000735 -0.000149 -0.002983 0.001312 -0.001337 -0.003825 0.004754 0.004379 -0.001095 -0.000226 0.000509 -0.003638 -0.004007 0.004555 0.000063 -0.002582 -0.003042 -0.003076 0.001697 0.000201 0.001331 -0.004214 -0.003808 -0.000130 0.001144 0.002550 -0.003170 0.004080 0.000927 0.001120 -0.000608 0.002986 -0.002288 -0.002097 0.002158 -0.000753 0.001031 0.001805 -0.004089 -0.001983 0.002914 0.004232 0.003932 -0.003047 -0.002108 -0.000909 0.002001 -0.003788 0.002998 0.002788 -0.001599 -0.001552 -0.002238 0.004229 0.003912 -0.001180 0.004215 0.004820 0.001815 0.004983 -0.003111 -0.001532 -0.002107 -0.002907 0.002815 0.001579 0.000425 -0.002194 0.001524 0.003059 0.000194
， -0.163012 -0.333598 0.552323 -0.366516 -0.141812 0.203470 -0.347914 -0.280020 -0.518819 0.152076 0.453607 -0.055781 -0.545236 -0.078403 -0.185281 0.395983 0.340632 0.243855 0.162048 0.492907 -0.065270 -0.309456 -0.088951 -0.043663 -0.223217 -0.312072 -0.346818 0.265371 0.541099 -0.370288 0.031479 -0.252526 -0.132229 -0.021672 -0.282839 -0.014161 0.056171 -0.009281 -0.060615 -0.164526 -0.120916 0.384225 0.359174 -0.256295 0.414179 0.453502 0.298363 -0.255384 -0.083737 -0.108570 0.135163 -0.029396 -0.159676 0.544645 0.574834 0.103383 0.343651 -0.050248 0.023026 -0.056280 0.110315 -0.227471 0.142286 0.404306 0.416141 -0.247946 -0.083476 -0.004559 0.403219 -0.032692 -0.141482 -0.284967 0.268266 -0.607178 0.171199 0.326277 -0.254808 0.065192 -0.098124 -0.332430 0.282658 0.004370 0.329952 -0.375168 -0.318828 0.354877 0.008010 -0.024764 -0.063554 0.007886 0.004557 0.262168 -0.308220 -0.304465 -0.237334 0.047158 0.460471 -0.218585 0.468804 -0.033402 
的 0.026604 -0.505980 -0.152660 -0.122814 0.478587 0.411566 0.565759 -0.515196 -0.401783 0.274942 -0.003891 0.020276 -0.295431 0.178186 -0.042257 0.245573 0.205510 -0.094343 0.123345 -0.071260 0.424210 -0.259764 0.139460 0.111069 -0.288185 0.031140 -0.099380 0.658812 -0.299004 0.005695 0.028743 0.221281 -0.267170 -0.369900 0.106875 -0.010062 0.039550 -0.194008 0.048706 0.112117 -0.166139 0.085271 -0.170699 0.255992 -0.320031 0.129035 -0.354070 0.281923 -0.215854 -0.084732 0.168036 -0.251477 0.040945 0.254631 -0.105926 -0.195516 -0.024397 0.012615 -0.311971 -0.169148 0.592296 0.119161 0.201292 -0.163501 0.457831 -0.077102 0.052930 -0.205114 0.118886 -0.137332 -0.267499 -0.231930 0.059411 -0.094219 -0.196111 0.505743 -0.287852 0.404495 0.014026 -0.060757 0.142564 0.104665 -0.173931 -0.150288 0.167232 0.464563 0.495577 0.067166 0.080883 -0.016596 0.077936 0.216345 -0.176982 0.381214 -0.063118 -0.102339 -0.012388 0.116810 -0.056911 0.201052 
。 -0.102676 -0.127558 0.025241 -0.256798 0.471083 0.064130 0.130545 0.413134 -0.297399 0.688887 0.029298 0.124659 -0.143499 0.132412 -0.036071 0.496388 0.361286 0.106840 0.378413 0.033329 0.024006 -0.328958 -0.001916 -0.064626 0.036127 0.295629 0.336541 0.464538 0.456372 0.093238 0.250269 0.242716 -0.137882 -0.259802 0.209182 -0.029277 0.133598 0.225734 -0.483864 -0.256232 -0.289743 0.515305 -0.381333 0.098350 0.437277 -0.373452 -0.030811 -0.104678 -0.370039 -0.198175 0.344178 -0.119417 -0.335362 0.264898 0.388384 -0.129538 0.034317 -0.033003 -0.392643 0.013577 0.140037 0.335830 0.389495 -0.352101 0.507566 -0.415643 -0.194318 -0.100858 0.176371 0.179110 0.084868 -0.595571 -0.043180 -0.476026 -0.197168 -0.414335 -0.491342 0.324356 -0.202364 -0.261197 -0.005846 -0.175871 -0.474790 -0.359292 -0.105865 0.127563 -0.056047 0.189597 0.070290 0.151911 -0.347050 0.085333 -0.484802 -0.203701 -0.448070 0.380945 -0.101439 0.115641 0.003616 0.009765 
我 -0.274135 -0.659965 -0.034153 -0.157772 0.048871 0.339863 -0.227960 -0.290252 -0.235983 -0.037295 -0.005664 0.035229 -0.522501 -0.285082 -0.023271 0.252134 0.224893 -0.222189 0.085981 0.187405 0.171334 -0.115193 -0.139611 0.106069 -0.492074 0.301132 -0.245216 0.373663 0.408406 -0.209128 0.306880 -0.209695 0.019535 -0.182260 -0.012190 -0.039587 0.026280 0.275475 0.193986 0.423002 -0.151910 -0.089123 0.308162 -0.142222 -0.057774 0.446219 0.307107 -0.024803 -0.025738 0.185551 0.696563 -0.057021 0.264761 0.476482 0.337449 0.287759 -0.061750 -0.029646 0.033970 -0.107536 0.397658 -0.082787 0.230076 0.175717 0.231324 0.155539 0.342167 0.047116 0.070521 0.242669 0.131255 -0.218982 0.273033 0.453007 -0.168441 0.286995 -0.515261 0.068563 -0.030327 -0.259700 0.066741 -0.383676 0.132455 -0.159617 -0.288106 0.296706 0.203114 -0.325913 -0.786837 0.320126 0.266424 0.091422 -0.154838 -0.004101 0.304388 -0.409944 0.114260 -0.032429 0.493928 0.151401 
t 0.846885 -0.790530 -0.480402 0.129562 -0.232614 0.263696 -0.347256 0.341130 -0.157681 -0.673925 0.687858 -0.072257 -0.045462 -0.262798 -0.067993 0.272912 0.101389 0.187312 -0.408928 -0.468983 0.018055 0.140863 0.062147 -0.324768 0.047316 0.326266 -0.076855 0.187267 -0.061003 0.386787 0.724442 -0.123479 0.535520 0.477431 -0.353238 -0.082281 0.163460 0.149863 -0.055127 -0.091118 0.562378 -0.758576 0.379523 -0.358269 0.027735 -0.259634 -0.027067 -0.432324 0.341047 0.093438 -0.184374 -0.042428 -0.347622 -0.598681 0.185408 0.131293 -0.469793 -0.030717 -0.000989 -0.263770 -0.057890 0.014913 0.307051 0.320045 0.221400 0.047025 -0.329904 0.334227 -0.005705 -0.934759 0.153697 -0.022000 -0.320882 0.328979 0.147527 0.025512 0.737357 0.108092 -0.655484 0.349170 0.270495 -0.170448 -0.032218 0.587825 0.656905 -0.070812 -0.381141 -0.028445 0.681549 0.234528 -0.373629 0.655994 -0.563576 -0.395748 -0.184621 0.401510 -0.167006 0.013846 0.352220 -0.505280 
一 -0.117807 -0.063036 -0.314753 -0.362385 -0.036591 0.059572 0.253889 -0.020468 -0.259390 0.025209 -0.002335 0.144625 0.239581 0.334470 0.192736 0.477079 0.038343 0.258387 0.362337 0.212509 0.236010 -0.182627 0.210624 0.042278 0.090794 -0.098513 -0.132730 0.220574 0.099366 -0.073419 -0.248070 0.082394 -0.264524 -0.226596 -0.002466 -0.004775 -0.195381 -0.052392 0.060838 -0.068118 0.041810 0.266665 -0.304035 0.144709 0.274913 0.270837 0.246455 0.206615 -0.420790 -0.058907 0.106117 -0.398473 -0.215823 0.019637 0.038000 -0.164055 0.297546 -0.117916 -0.246440 -0.167404 0.202260 -0.190331 0.030136 -0.042449 0.571698 -0.296568 0.204569 0.192059 0.207446 0.420032 -0.386604 -0.150469 0.105540 -0.209219 0.048234 -0.088392 -0.346490 0.034645 0.076267 -0.082715 -0.097438 0.093670 0.023536 -0.256317 -0.342816 -0.143804 0.064087 0.009729 -0.283954 0.247064 -0.123426 0.187586 0.065557 -0.272817 -0.041404 0.094323 0.353340 -0.004264 0.091682 0.384169 
不 0.001908 -0.507184 0.248089 -0.054277 -0.287632 0.257250 0.574963 -0.330192 0.162140 0.034893 -0.027995 0.222053 0.033897 0.175872 0.053695 0.328343 0.201589 0.567485 0.342147 0.461375 0.007345 -0.202013 -0.063530 0.565873 0.172020 -0.182090 -0.326883 0.280439 0.087918 0.073110 -0.228149 0.005460 -0.215866 -0.120455 -0.071298 0.091138 0.034799 -0.533087 0.007958 -0.242478 -0.263472 0.396249 -0.422263 0.197300 0.447379 0.231838 -0.186932 0.007673 -0.171046 0.127352 0.028972 -0.269410 -0.030723 0.258168 -0.348015 -0.090434 0.263510 0.236318 -0.292171 0.198877 0.132367 -0.388249 -0.117044 -0.374101 0.572318 -0.290007 -0.199795 0.230905 0.316234 0.190663 -0.507065 -0.246097 -0.194792 0.004717 -0.098960 0.133552 -0.737395 0.097877 0.050405 -0.109272 0.083579 0.408427 -0.041922 -0.400345 -0.100025 0.537488 0.024151 0.062718 0.117163 -0.065751 0.338033 0.173442 -0.021176 -0.162702 -0.048896 0.104867 0.293944 0.325001 -0.230205 0.148541 
了 0.310735 -0.664166 -0.137802 -0.279695 0.037187 -0.198493 0.225290 0.019104 0.262644 0.125635 -0.054796 -0.160266 -0.483717 0.269798 -0.167700 0.449656 0.025011 0.008421 0.413936 -0.103138 0.153421 0.146902 0.093614 0.343471 0.025198 0.121465 0.255530 -0.109898 0.220893 -0.274618 -0.251660 -0.220746 0.111569 0.122732 -0.110417 -0.354911 0.153200 0.097430 -0.275530 -0.412117 -0.061376 0.402235 -0.499956 -0.020762 0.214023 -0.136211 -0.006167 -0.289053 0.009359 0.260802 0.205058 0.162382 -0.412127 -0.074170 -0.288653 0.205925 0.641294 -0.117707 0.003692 -0.002893 0.513650 0.125734 0.044641 -0.238840 0.088562 -0.348808 -0.123117 0.346736 0.203557 0.259905 -0.198944 0.222758 -0.106593 -0.466906 -0.331776 -0.034319 -0.410548 -0.174623 -0.201952 -0.086262 0.203557 0.316153 0.050401 -0.471065 -0.064113 0.438052 0.167380 0.110192 0.359029 -0.489292 -0.314559 -0.011739 -0.464260 -0.085585 0.011914 0.225371 0.427915 0.033281 0.025383 0.112331 
是 -0.018349 -0.593961 0.396150 -0.344337 -0.231823 0.548150 0.488037 -0.446677 -0.010965 -0.242969 0.090786 0.159910 -0.248609 -0.053399 0.251030 0.249308 -0.026844 0.408006 -0.142292 0.218609 -0.299602 -0.289325 -0.149081 0.140633 -0.025774 -0.248341 -0.139666 0.511940 -0.107335 -0.060252 0.263337 0.255240 -0.128413 -0.259987 -0.022318 -0.221092 -0.061560 -0.044516 -0.186970 0.151614 -0.478812 0.436766 -0.021545 -0.093001 0.557297 0.397592 0.388669 0.067901 0.044850 -0.041793 -0.217942 -0.266920 -0.024952 0.461868 0.160284 -0.488077 0.165252 0.208599 -0.256645 0.569979 0.392194 -0.510254 -0.204158 -0.169870 0.625666 -0.399097 -0.341333 -0.236384 -0.053063 0.054593 -0.645060 -0.367120 -0.151039 -0.237535 0.108153 0.563055 -0.227932 0.243328 0.089169 -0.196356 -0.010504 -0.040416 -0.158910 -0.177437 -0.148091 0.514488 0.120172 -0.382216 -0.220296 0.226509 0.248026 -0.013085 -0.107205 -0.013825 0.256016 0.437807 0.160773 0.157048 0.117595 0.137552 
你 -0.037210 -0.387667 -0.202241 -0.100316 0.100055 0.291084 0.166161 -0.499704 -0.238593 0.284194 0.095778 0.041120 -0.267535 -0.485943 -0.261504 0.749051 0.124997 0.021939 0.029936 0.472308 -0.027607 -0.193154 -0.218559 -0.086322 -0.438730 0.042534 -0.388477 0.286650 -0.091367 0.030959 0.298044 0.152679 0.471360 0.100909 0.065988 0.371748 -0.245304 -0.486641 0.386837 0.146386 -0.222541 0.294985 0.644501 -0.319413 0.607775 0.066729 -0.056470 -0.221896 0.445868 0.171631 -0.143509 -0.357941 -0.095961 0.453048 0.178523 -0.157840 -0.118866 0.162202 -0.215786 0.307069 0.052361 -0.277802 0.015327 0.391878 0.444296 0.047994 -0.206913 0.153265 -0.143867 -0.391649 -0.171834 -0.266864 0.125088 0.089076 -0.080165 0.650774 -0.343596 -0.097748 -0.015997 -0.513952 0.252879 -0.217752 0.404250 -0.642731 -0.256285 -0.079501 0.060734 -0.053067 -0.115363 -0.158339 0.110727 -0.027346 0.193050 0.189809 0.004046 0.069309 0.156905 -0.324152 0.401997 0.214447 
哈 -0.091261 -0.170678 0.561481 -0.059803 1.091960 0.456225 0.065147 -0.405865 -0.852928 0.651443 -0.904281 -0.307782 0.559378 -0.490741 0.553291 -0.577848 0.295027 -0.535943 -0.153224 0.845101 0.072283 -0.093400 0.387179 -0.306409 -0.483482 0.412514 0.164131 -0.556003 -0.837252 -0.304729 0.637646 0.071287 0.217446 -0.221699 0.915152 0.362765 0.815376 -0.095661 -0.532661 0.245258 -0.050840 0.275127 0.157178 -0.352399 -0.101835 0.238250 -0.728972 -0.207761 0.945641 -0.125903 -0.970442 0.407320 0.179181 -0.060476 0.274756 0.349460 -0.258266 0.422995 0.031651 0.379568 -0.081086 -0.050660 0.026980 -0.555516 -1.082301 -0.088586 -0.655727 -0.672950 -0.501199 -0.529091 0.656447 -0.943759 -0.643476 0.832140 -0.091212 0.798200 -0.227716 0.513009 -0.588473 -0.003009 -0.358253 -0.479936 0.659992 -0.021233 0.399753 1.106496 0.329872 -0.832629 -0.148943 0.233756 0.523078 -0.899185 0.494979 1.080524 0.292435 -0.265350 -0.047565 0.226260 0.011079 0.172307 
人 0.110334 -0.262721 -0.553519 -0.262165 0.054088 0.051578 0.133517 -0.291974 0.131450 0.100772 -0.048789 0.026882 0.100950 0.430908 0.046493 -0.044795 0.163628 0.374611 0.217065 0.115523 0.105333 -0.111736 0.122602 -0.045702 0.392839 -0.034841 -0.397119 -0.002778 -0.291097 -0.094855 -0.118818 0.048766 -0.149249 0.063988 -0.132150 0.355117 -0.160701 -0.101164 -0.222047 -0.068687 -0.076824 0.012668 0.005276 0.098464 -0.097933 0.355882 0.034725 0.044415 -0.478011 -0.049989 -0.156323 -0.033914 0.231157 -0.001133 0.069270 -0.354595 0.132956 0.158037 -0.068502 0.035299 0.084038 -0.638589 -0.129490 -0.210474 0.058248 -0.126991 -0.221498 0.171444 -0.010673 0.108508 -0.451773 -0.062855 -0.011620 0.011354 0.164528 0.191562 -0.272075 0.206469 -0.011873 -0.016447 0.091086 -0.013860 0.313071 -0.249783 -0.126870 -0.061867 -0.052327 -0.042982 0.091869 0.263692 0.204152 -0.007551 0.094830 0.133235 -0.054480 -0.238131 0.232329 -0.054932 0.068810 -0.039554 
. 0.081619 -0.020109 -0.575417 0.226799 0.012962 -0.060924 -0.496115 0.504273 -0.251667 -0.671135 -0.212805 -0.027873 0.060096 0.037650 -0.072371 -0.027088 0.006794 0.662012 -0.320759 0.190324 -0.209084 0.104160 -0.091213 -0.515738 -0.303527 0.266753 0.061984 -0.038393 0.183087 0.144694 0.355253 0.246663 0.593184 0.276248 -0.420693 -0.195139 -0.058431 0.428029 0.040928 -0.222288 0.558774 -0.712975 0.202565 0.138101 -0.101435 -0.275500 -0.246180 -0.281916 -0.279678 -0.258298 0.028565 0.180281 -0.376982 -0.714716 -0.070727 0.179093 -0.565996 -0.321097 0.058843 -0.075905 -0.420160 -0.048639 0.109244 0.086246 -0.078099 -0.168229 0.022600 0.408403 0.032549 -0.479263 0.242964 -0.114006 0.083400 0.670387 -0.279369 -0.421747 0.044419 0.092167 -0.857586 0.043735 -0.035836 -0.128226 -0.189795 0.696063 0.250360 -0.299129 -0.361872 0.102332 0.927394 0.537875 -0.542804 0.543757 0.167814 0.084414 0.048136 0.289318 -0.221315 -0.179200 0.068173 -0.132416 
有 0.573034 -0.403103 0.404261 0.100201 -0.236463 0.153157 0.185265 -0.092538 -0.267667 -0.033194 0.327523 0.371682 0.141555 0.279191 0.573441 -0.073664 0.023183 0.298678 0.072705 0.264137 -0.387838 -0.052395 -0.036719 -0.039782 0.307507 -0.143845 0.149318 -0.206634 -0.054891 0.242990 -0.237565 -0.120608 -0.450014 0.126804 -0.015616 0.147982 0.110088 -0.504629 -0.301996 -0.177094 -0.096563 0.238053 -0.259119 0.089289 0.225352 0.396578 -0.186252 0.257274 0.137097 -0.018940 -0.073495 -0.203061 0.400951 0.379183 -0.258482 -0.346088 0.285528 0.013244 -0.214597 0.005326 0.520690 -0.088555 -0.172941 -0.179194 0.104444 -0.321489 0.010187 -0.040490 -0.099004 0.158262 -0.482477 0.145350 0.013151 -0.501062 0.083884 -0.014665 -0.276065 0.159816 0.183741 -0.087706 0.142276 -0.203997 -0.158645 0.048781 -0.052540 0.407071 0.032457 -0.174494 0.426353 -0.034870 0.180996 -0.119301 -0.247033 -0.148680 0.064333 0.035541 0.170255 0.353227 -0.203130 -0.330175 
: 0.521924 -0.344984 -0.426671 0.082579 0.282728 0.190415 -0.066150 0.327639 -0.016150 -0.556229 -0.158871 -0.169453 0.232599 -0.152774 -0.122594 -0.277760 0.122976 -0.258337 -0.182147 -0.432909 0.130305 0.062522 0.210538 -0.923798 0.048680 0.403983 -0.159149 0.029834 -0.115748 0.287144 0.215296 -0.053868 0.226055 0.380277 -0.008822 0.004581 0.090573 0.317968 -0.169955 0.122259 0.623776 -0.795847 0.131944 -0.353827 -0.474022 -0.382902 -0.298418 0.096174 0.020356 -0.160340 -0.345989 -0.014080 0.127606 -0.684684 -0.195665 0.436907 -0.361520 0.260650 0.043966 -0.188382 -0.474852 0.224151 0.364789 -0.311253 -0.006000 -0.124561 -0.373296 0.013445 0.089561 -0.576064 0.178914 -0.256323 -0.271049 0.529032 0.009730 0.000261 0.542666 0.480424 -0.643926 0.469420 -0.125860 -0.214344 -0.173600 0.751835 0.461104 -0.361734 0.035135 0.015412 0.507195 0.396000 0.073241 0.376618 -0.388803 0.335997 -0.084073 0.435342 -0.442610 0.160315 0.483474 -0.402792 
好 0.107861 -0.129477 0.340896 -0.180957 -0.352088 0.167083 0.307488 0.134929 0.081635 -0.176931 0.454503 -0.134299 0.187932 0.109931 -0.156425 0.086312 0.242617 0.083210 0.212980 0.187824 0.264240 0.064487 -0.059454 0.196501 -0.142411 -0.370204 -0.146459 0.161227 0.492500 -0.481188 0.134343 -0.164570 0.098049 0.046970 -0.264761 -0.015994 0.041379 -0.098912 0.014404 -0.351504 0.052329 0.244832 -0.540008 -0.068855 0.271558 -0.034238 -0.018922 -0.113044 0.093637 -0.186522 0.193165 0.170440 -0.376689 -0.194414 -0.099350 0.151278 0.428335 0.336003 0.135909 0.093630 -0.138370 -0.427905 -0.125507 0.092672 0.397495 0.009108 -0.268894 0.085732 0.481183 0.030079 -0.143627 -0.037527 -0.239241 -0.233044 0.030994 -0.119656 0.201397 -0.257401 -0.196638 0.000408 0.467289 0.652514 0.138359 0.001753 -0.022759 0.253594 -0.099601 -0.054010 0.107839 -0.017881 -0.445903 0.320415 0.389449 -0.544320 -0.104874 0.350900 0.355541 0.196954 -0.066250 0.267765 
在 0.221778 -0.545025 0.177862 0.053529 0.109700 -0.033628 -0.018136 -0.006976 -0.342416 0.226765 0.011820 0.363086 -0.459345 -0.255427 0.145089 0.237380 -0.159220 -0.190498 0.024123 0.220483 0.425482 -0.163997 -0.056427 0.112361 0.156634 0.304330 -0.028429 0.042869 0.286301 0.160469 -0.082646 -0.178428 -0.034968 -0.190812 -0.028273 -0.038126 0.426055 0.184157 -0.158246 -0.169575 -0.140779 0.019921 -0.340126 0.060962 -0.036321 0.054405 -0.075469 0.303695 -0.211400 -0.058338 0.422120 -0.031812 0.006563 0.266816 -0.095022 -0.000990 0.095553 -0.364437 -0.020336 -0.210100 0.334640 0.241323 0.294618 0.022561 0.239312 0.095940 -0.071579 -0.184268 0.129100 0.141940 -0.196803 -0.022602 -0.012087 -0.124769 -0.499006 -0.289360 -0.368724 -0.032200 -0.306961 -0.292469 -0.044210 -0.277784 -0.050751 -0.372724 -0.138575 0.077133 -0.016057 -0.086165 0.185847 0.084735 -0.258973 -0.081022 -0.330008 -0.079644 0.004329 0.283902 0.069407 0.357273 0.286567 -0.200325 
n 0.064081 -0.947434 -0.900589 0.164630 -0.215649 -0.581755 -0.451716 0.501379 0.409444 -0.140849 0.394605 -0.525790 -0.385427 -0.282738 0.267105 0.399692 0.517747 -0.098890 0.190034 0.031066 -0.294582 0.481799 -0.015651 -0.396983 0.562027 0.756170 0.223161 -0.297333 -0.059160 0.450973 -0.023655 -0.214298 0.174893 0.739836 -0.245376 -0.541296 0.785661 1.061381 -0.264536 0.278761 0.172576 -0.626970 1.232944 -0.298903 -0.331501 -0.396512 -0.119404 -0.588583 0.532950 -0.121567 -0.323905 0.067171 -0.117034 -0.705098 -0.059163 0.433536 -0.325493 -0.608449 0.516163 -0.237832 0.059309 0.699918 0.113847 -0.360289 -0.429410 -0.363380 -0.094282 0.041580 -0.634208 -0.295797 0.797208 -0.024446 0.165150 0.196086 0.358773 0.077157 0.634083 0.263398 -0.685735 0.790214 0.060387 -0.552719 -0.718764 0.780736 0.538122 -0.664552 -0.065325 -0.166175 0.463243 -0.001344 0.017978 -0.196130 -0.236863 0.481822 0.509457 -0.066539 -0.179374 0.065693 -0.086080 -0.901464 
@ 0.342644 -0.786210 -0.188083 -0.140462 0.596297 -0.202498 0.078189 0.058711 0.021746 0.129899 -0.214268 0.085803 -0.025246 -0.237418 -0.154663 -0.151061 0.287146 -0.270291 0.070567 0.273501 -0.654058 0.632029 -0.385194 -0.450842 0.104759 0.363018 0.163026 -0.460791 -0.039845 -0.058349 0.515318 -0.023001 0.177281 0.445805 0.178312 0.111318 0.292595 0.281451 -0.582974 -0.030888 0.075771 -0.401354 0.415297 0.143215 -0.243003 -0.265776 -0.417457 0.080999 0.229583 -0.378157 0.146138 0.331097 0.373146 -0.038593 -0.153183 -0.446915 -0.296924 -0.174320 -0.102498 0.165042 -0.072648 -0.239962 0.106009 0.053474 -1.088033 0.191250 -0.290908 0.059332 -0.802207 -0.242936 0.186005 -0.313476 0.272792 0.636153 -0.187816 0.104225 0.027150 0.071394 -0.593513 0.079517 0.124149 -0.275023 -0.225702 -0.269743 -0.163210 0.208819 -0.172629 0.141905 0.655162 -0.472073 -0.073466 -0.436357 1.065085 0.869186 0.278496 -0.033434 0.097708 0.059468 -0.095858 -0.089609 
] -0.074205 -0.753386 -0.376818 -0.530691 0.720408 0.064225 0.222682 -0.043212 -0.308280 0.394035 0.268915 -0.139293 -0.374466 -0.134045 0.229238 -0.005063 0.068875 -0.472072 0.076022 0.546731 1.041154 0.804011 0.090798 -0.061091 0.112272 0.651903 0.698797 -0.418035 -0.538579 -0.255517 0.457185 -0.451077 0.635285 0.215631 0.810014 -0.109045 0.604713 0.787006 -0.208985 0.268240 0.258126 0.137822 -0.193179 -0.202197 0.070954 -0.331139 0.150175 0.434905 0.680748 -0.228234 0.036282 0.464046 -0.318099 -0.906239 0.388746 -0.369705 -0.033201 -0.282542 0.355239 0.267917 0.731770 0.575679 0.575833 0.019239 -0.590990 0.555685 -0.004630 -0.247221 -0.248001 -0.382020 0.240615 -0.875892 0.324518 0.806655 -0.085507 -0.129379 0.534460 -0.393581 -0.868502 0.225876 0.277730 -0.356815 0.416701 -0.063998 0.039428 -0.069924 -0.695968 -0.718645 -0.799107 -0.328289 -0.326796 -0.415835 0.550674 0.268771 -0.266034 -0.335415 -0.040289 -0.752116 -0.153623 0.025435 
[ 0.130258 -1.062862 -0.556140 -0.376388 0.763663 0.218326 0.599664 -0.027930 -0.303641 0.556416 0.253853 0.272292 -0.660701 -0.552583 0.424931 -0.116730 0.104445 -0.963721 0.031693 0.480291 1.279368 0.647603 -0.228119 -0.535827 0.000852 -0.016397 0.183739 -0.349141 -0.506619 -0.271336 -0.109860 -0.601477 0.606052 0.518434 1.043238 -0.290434 0.655399 0.646389 -0.236995 0.228133 -0.006238 0.452767 -0.078710 -0.454557 -0.066346 -0.083367 -0.152839 0.562108 0.825415 -0.212104 0.019228 0.645138 0.074411 -0.520961 -0.064300 -0.292429 -0.167370 0.120073 0.508279 -0.412798 0.537577 0.196201 0.589373 -0.102419 -0.872828 0.221850 -0.426993 -0.465140 0.219514 0.033236 0.040101 -0.721689 0.049606 0.729095 -0.346679 -0.030188 0.633534 0.104317 -0.402695 0.175780 0.352029 -0.058144 0.615084 -0.377419 0.087750 0.084333 -0.809617 -0.422855 -0.532409 -0.346042 -0.190694 -0.413907 0.022900 0.964062 -0.248956 -0.227912 -0.491997 -0.472119 0.124147 0.450749 
个 -0.242525 -0.297111 0.022237 -0.215064 -0.017411 -0.275518 0.095805 -0.232429 -0.090053 0.029331 -0.205585 -0.008489 -0.404391 0.145395 0.178376 0.152768 -0.176651 0.466572 0.180839 0.255895 0.194656 0.029023 0.221433 0.465865 0.042737 -0.451604 -0.289044 0.059726 -0.049125 0.181910 -0.276496 -0.001229 -0.115287 -0.230796 0.230713 0.043882 0.049933 -0.365827 0.202310 -0.014042 -0.088742 0.375676 -0.282742 0.094836 0.047910 0.169821 -0.003847 0.211954 -0.421414 0.152963 -0.056466 -0.190339 0.053966 0.198290 -0.011331 -0.123481 0.060641 -0.118534 -0.084194 -0.014157 0.210180 -0.257860 -0.237618 -0.109729 0.143612 0.391764 -0.139783 -0.407327 0.281896 0.450283 -0.601631 0.112964 0.065663 -0.349659 -0.191430 0.403272 -0.497836 -0.188354 0.077427 -0.147005 -0.093347 -0.361196 0.256937 -0.382319 -0.195615 -0.006617 -0.101810 -0.331492 -0.270047 0.178992 0.138028 0.118833 0.196561 -0.074603 0.050222 -0.052507 0.388556 0.029980 0.014828 0.204340 
！ -0.043741 -0.386905 -0.006643 0.007865 0.045302 -0.111205 0.148765 0.099704 0.055403 0.136498 0.498276 -0.271425 -0.541614 0.095335 0.090858 0.095501 0.128847 0.334940 -0.119530 0.076787 0.116636 0.533653 -0.047028 0.086128 0.017102 0.200507 -0.096896 -0.164950 -0.038728 0.159708 0.183035 -0.303064 0.310080 0.551693 0.147431 -0.015066 0.394594 0.394021 0.140431 -0.103761 0.244260 -0.117857 -0.132523 0.110911 -0.163652 -0.103035 0.095258 -0.195712 0.277161 0.117082 0.294387 0.556985 -0.122560 -0.683639 0.200684 0.259705 0.051617 -0.052484 0.342270 -0.005536 0.178123 0.089817 -0.039783 0.108560 0.000727 0.442949 -0.324740 -0.002281 0.239836 -0.402766 -0.020195 0.037244 -0.084002 0.263369 -0.040192 -0.197299 0.175732 -0.121991 -0.439368 0.149663 0.716325 -0.104867 0.041490 0.294340 0.379423 0.120441 -0.487798 -0.400980 0.070781 -0.057578 -0.128158 0.117692 -0.120900 -0.315818 -0.439884 -0.170283 0.158351 -0.428159 -0.389421 -0.221578 
心 -0.104200 -0.386570 -0.187150 -0.390054 0.329385 0.068422 0.377406 0.002469 -0.085937 0.362538 0.077206 -0.119614 -0.141658 0.220695 -0.257318 0.268563 0.392079 0.162109 0.168043 0.540270 0.039128 0.240044 -0.162650 0.287432 -0.037662 0.208399 -0.445182 -0.007389 -0.292451 -0.245219 -0.015624 0.049786 0.280437 0.144858 0.204835 -0.123155 0.016658 0.323883 -0.025411 -0.154844 -0.287687 0.306370 -0.377667 0.055079 0.161077 0.032632 -0.055652 -0.356915 -0.102729 0.242106 0.363213 0.542181 0.125783 -0.413706 -0.010633 0.237214 -0.049178 0.035287 0.133251 0.256957 0.115805 -0.284966 0.119493 -0.279283 0.033284 -0.108263 -0.367452 0.148679 0.166308 0.154879 -0.042566 -0.361045 -0.162426 0.350730 -0.320639 0.020053 -0.445817 0.442076 -0.286425 -0.026675 0.479613 -0.113415 -0.092487 -0.194239 0.149990 0.299660 -0.144830 -0.156617 0.015005 0.186295 0.034822 -0.056029 -0.666418 0.218380 -0.272337 -0.186233 0.291178 -0.245526 -0.164361 0.190370 
： 0.270123 -0.124273 -0.068049 -0.116774 0.175085 -0.508924 -0.220386 0.487553 0.544485 0.413902 0.145472 -0.392061 -0.191603 0.380279 -0.007117 0.445119 0.319955 0.672767 0.224715 -0.799216 -0.537901 0.397795 0.210431 0.073732 0.281235 0.282323 -0.202141 0.006859 -0.129340 0.262582 0.434081 -0.122669 0.019030 0.468906 -0.009049 -0.091004 0.389202 0.108699 -0.587634 -0.129122 0.291285 -0.597332 0.064238 0.509695 -0.669618 -0.305811 -0.109367 -0.749557 -0.248925 -0.269976 0.194750 -0.102822 -0.750210 -0.356613 0.532540 -0.434572 -0.565450 0.117954 -0.597830 -0.234169 0.255779 -0.101862 -0.382149 0.049030 -0.101297 0.208935 -0.285214 0.219253 -0.294680 -0.524125 0.074403 0.222552 -0.400782 -0.328925 0.076279 0.032553 0.339222 -0.051768 -0.211296 0.510639 0.002815 -0.338026 -0.147560 -0.219752 0.134888 0.170806 -0.183393 0.355779 0.987951 -0.293566 -0.084715 0.401395 0.388248 0.306984 -0.182222 0.390423 0.252646 0.169552 0.068451 -0.248097 
h 0.183781 -0.431049 -0.264509 0.487074 -0.185198 -0.283521 -0.444285 0.711782 0.108443 -0.291673 0.635129 0.140152 -0.109571 -0.313813 0.090307 0.252456 0.115780 -0.013402 -0.328279 -0.479391 -0.508319 0.548028 -0.432174 -0.836146 0.176381 0.572281 0.049799 -0.055047 0.126258 0.447447 0.402136 0.119574 0.220973 0.525923 -0.190874 0.001270 0.144445 0.517370 -0.172169 0.034431 0.411667 -0.742339 0.780349 0.300601 -0.385621 -0.299538 -0.064795 -0.260353 0.335294 -0.266742 0.231365 0.077649 -0.149185 -0.464544 0.213891 -0.100864 -0.703442 -0.069599 0.181122 -0.062807 -0.303907 0.267729 0.126015 0.199863 -0.157596 0.209872 -0.075203 0.303394 -0.584743 -0.645466 0.160027 0.236457 -0.013803 0.335765 -0.039198 -0.280983 0.399920 0.152662 -0.714250 -0.007232 0.252177 -0.206387 -0.328644 0.373275 0.041680 -0.313557 -0.442865 0.158809 0.896751 -0.108110 -0.530632 0.183445 -0.072662 0.165368 -0.156531 0.034671 -0.324477 0.021749 0.047789 -0.486936 
p 0.314867 -0.317336 -0.119235 0.242987 -0.122245 -0.432177 -0.269746 0.570708 0.421716 -0.405523 0.507356 -0.072333 -0.362167 -0.506763 0.313926 0.170561 0.052115 -0.272359 -0.445272 -0.106370 -0.364674 0.385233 -0.183948 -0.809157 -0.001056 0.408319 0.114645 -0.163257 -0.014430 0.191215 0.275176 -0.147728 0.118403 0.648141 -0.649445 -0.052528 0.064850 0.460815 -0.142059 -0.260205 0.378923 -0.673513 0.675633 0.112347 -0.286337 -0.329946 0.127845 -0.061523 0.596423 -0.389841 -0.199242 0.206773 -0.024314 -0.228181 0.011953 0.281586 -0.333630 -0.070156 0.357393 -0.206317 -0.569906 0.176534 0.298122 0.164476 -0.235792 0.394477 -0.273895 -0.081861 -0.242108 -0.845591 0.386027 0.102392 0.099861 0.401048 0.486218 -0.055734 0.919469 0.083092 -0.464760 0.457485 0.089134 -0.079456 0.058542 0.811847 0.017423 -0.215070 -0.296306 0.036658 0.405849 -0.215748 -0.303768 0.334968 0.426397 0.122710 0.064381 0.080454 -0.364574 -0.205583 0.232614 -0.474118 
来 0.247473 -0.323310 0.047049 -0.390885 -0.150135 0.413131 0.098632 -0.022784 -0.260272 -0.042158 0.457000 0.391034 -0.414395 -0.135934 -0.089430 0.413872 0.217740 -0.615111 -0.065844 0.533603 0.241472 -0.394120 -0.472669 -0.346497 -0.087484 0.030006 0.252525 -0.094785 0.176765 -0.318939 -0.366742 -0.183910 -0.227653 -0.128450 -0.138082 0.156342 -0.154015 0.305204 0.065993 -0.064089 -0.370211 0.218089 0.055175 -0.192469 0.338394 0.155911 0.240110 0.205910 0.299415 -0.231898 0.167132 -0.021416 0.076107 0.236288 -0.114885 0.346215 0.326621 -0.245461 0.495475 -0.368719 -0.034125 0.058054 0.322688 0.093998 -0.385924 -0.165686 0.233351 0.139755 0.144295 0.047322 0.192832 -0.165804 0.151895 -0.139549 -0.174385 0.104000 -0.142727 0.048550 0.055735 -0.328472 -0.192458 0.175213 -0.125785 -0.194667 -0.193578 0.043579 0.314455 -0.111077 -0.505377 -0.064181 -0.084740 -0.215102 -0.652374 -0.301625 -0.076318 0.002113 -0.249661 0.089185 -0.048673 -0.070792 
c 0.558230 -0.766975 -0.062439 0.369153 -0.464414 0.166305 -0.063526 0.466563 -0.290969 -0.571609 0.771432 0.512995 0.134811 -0.387170 0.191278 0.490821 -0.017324 0.148388 -0.419463 0.019711 -0.252779 0.302656 -0.507581 -0.494183 0.017009 0.275435 0.441534 0.053073 -0.009124 0.255774 0.303579 -0.035592 0.552130 0.770276 -0.282969 0.271906 0.022654 0.102284 -0.334915 -0.147816 0.189954 -0.286566 0.249430 0.101578 0.591747 -0.387076 0.102448 -0.558543 0.862922 -0.143359 0.146156 0.313938 -0.120574 -0.538140 -0.195631 -0.041934 -0.699102 -0.060746 0.388212 0.123131 -0.301640 -0.123871 0.166618 0.017562 0.050284 -0.057550 0.113385 0.435765 -0.011014 -0.654168 0.328892 -0.029496 -0.194412 0.575618 0.053818 0.041432 0.701084 -0.083020 -0.752907 0.289230 0.584907 0.040748 0.005017 0.745499 0.282644 -0.470083 -0.776543 -0.052443 0.634923 0.253517 -0.454586 0.406136 -0.007225 -0.332790 0.043225 0.412062 -0.197076 -0.115692 0.227230 -0.461404 
小 0.376025 -0.374923 -0.034471 -0.193355 0.109287 -0.132536 0.738243 -0.296090 0.276319 0.140988 -0.387896 0.543387 -0.216948 -0.154287 -0.194548 -0.125086 0.050178 -0.513038 0.157244 0.356915 0.074460 -0.182832 -0.235633 0.079162 0.479800 0.476683 -0.014600 -0.087708 -0.303182 0.101643 -0.521563 0.283743 0.286497 0.270143 0.154118 0.112119 0.178580 -0.029820 -0.475222 -0.068602 -0.490666 -0.001234 -0.198527 0.070966 -0.094915 -0.233623 -0.204365 -0.104648 -0.124275 0.034400 0.533695 0.317765 0.605393 0.345571 -0.819490 -0.232335 -0.456768 -0.094875 0.262656 0.152125 0.180186 -0.180606 0.191195 -0.652292 0.019395 -0.095893 -0.119555 -0.185033 -0.098714 0.205478 0.093888 -0.069806 -0.064945 0.376228 -0.503423 0.283093 -0.070282 0.480195 -0.211939 0.135756 0.245203 -0.366371 -0.310004 -0.079885 0.173450 -0.083238 0.059775 0.279567 0.290790 0.058647 0.257457 -0.272335 -0.188828 0.533490 0.374523 0.074188 -0.118622 0.222163 0.116244 -0.409581 
天 0.167990 0.008469 -0.113668 -0.173231 0.056689 0.195923 0.220018 -0.083302 -0.318594 -0.125491 0.007200 0.479913 -0.394605 0.077671 0.162952 0.268452 -0.269327 -0.001525 -0.067630 -0.065294 0.051114 -0.540016 -0.091500 0.421238 -0.395673 0.095665 0.104183 0.433532 0.257128 -0.086515 0.095520 0.202022 0.056824 -0.001351 -0.375966 -0.083664 0.013651 0.049674 -0.093863 -0.027116 -0.097770 0.009450 -0.101342 0.231445 0.443058 0.241529 0.084092 -0.119622 -0.209379 0.075006 0.554720 0.072804 -0.398941 0.560257 -0.162669 -0.066641 -0.103575 -0.037145 -0.289023 -0.399771 0.425595 -0.317208 0.111683 -0.029580 0.349199 -0.180087 0.208152 -0.060085 0.078614 -0.120178 -0.149271 0.244273 -0.080962 0.290084 -0.266604 -0.054658 -0.262138 -0.029108 0.344801 -0.322696 -0.022434 -0.134022 0.093500 0.023887 0.064663 0.202779 0.013814 0.144295 0.166551 0.170812 -0.371649 0.280360 0.217919 -0.092960 0.408816 0.285488 0.030043 0.301452 -0.015609 0.374313 
大 0.097815 -0.282095 -0.314831 0.274292 0.365965 0.121927 0.334877 -0.200266 -0.172257 0.065146 0.107152 0.491826 -0.446842 0.220396 0.517432 0.349635 -0.222778 0.288414 -0.393897 -0.323726 0.385183 0.025011 -0.141185 0.242139 -0.312841 -0.351611 0.121733 0.026977 -0.504153 0.334517 -0.050373 0.081357 -0.127908 0.366072 0.489847 0.098851 0.048849 -0.214559 0.420839 0.433563 -0.058477 0.234507 -0.118132 0.255590 -0.168035 0.302493 -0.219491 0.182124 0.080284 -0.005250 -0.005720 0.065830 0.242980 -0.358466 -0.066940 -0.114900 -0.183020 0.225158 -0.169260 -0.825807 0.449256 -0.275509 -0.257913 -0.205932 0.088739 0.228962 -0.201336 -0.215412 0.240809 0.017467 -0.685589 0.148944 -0.019499 0.250485 -0.429355 0.017095 -0.186784 0.057472 0.009231 -0.381220 0.215966 -0.084732 0.185928 -0.027006 0.374057 -0.164379 0.109123 -0.590044 0.055615 0.459784 0.307308 0.132259 -0.416418 0.310253 -0.095019 0.045469 -0.373415 -0.358867 -0.396909 0.522803 
爱 -0.154243 0.112726 0.568594 -0.554796 -0.235643 -0.158386 0.582960 -0.092495 0.685279 -0.008537 -0.283872 -0.174904 0.480899 -0.127129 -0.056199 -0.511498 0.043526 -0.044794 0.428170 0.617724 0.042163 0.159821 0.350233 0.200586 0.671177 0.088240 0.140000 -0.162073 -0.161492 -0.101618 -0.308157 0.476594 0.074647 -0.199516 -0.081229 0.308879 -0.194009 -0.413392 -0.625625 0.023189 0.022291 0.268926 -0.149863 -0.511463 0.698443 -0.524466 0.209150 -0.062825 0.313237 0.087206 -0.792914 -0.364770 0.300480 0.243436 -0.537738 0.021624 0.146212 0.405311 -0.023981 0.518765 -0.217960 -0.422964 0.407519 -0.434745 0.315846 -0.172231 -0.686888 -0.117853 -0.133915 -0.029497 -0.225989 -0.699330 0.105155 0.200361 0.511330 0.607167 0.128256 0.107224 -0.044950 0.575080 -0.346724 0.221829 0.080736 -0.310567 -0.062643 0.200051 -0.086193 0.213208 -0.894265 -0.258300 0.434827 -0.200365 0.200063 -0.246492 0.221471 -0.247220 0.004473 0.197562 -0.153991 -0.061590 
这 -0.040505 0.012569 -0.347330 -0.207127 -0.044971 0.188999 0.218902 -0.308028 0.057930 -0.048961 -0.102943 0.127251 -0.415866 0.291499 -0.091247 0.027464 -0.238432 0.318679 -0.064765 0.368027 0.195643 -0.202679 -0.037170 0.263709 0.166850 0.071072 0.116086 0.086734 0.100954 -0.099665 -0.112827 -0.150138 0.162087 -0.113465 -0.268340 0.268422 -0.147791 0.095147 0.144428 -0.213927 -0.163301 0.269572 -0.257643 0.066495 0.431060 0.037932 0.048413 0.153565 -0.185284 0.079042 -0.040511 0.009775 -0.175828 -0.140333 -0.035092 0.195854 0.577924 -0.381705 0.116206 0.163928 0.138100 -0.120395 -0.103024 0.011129 0.199140 -0.024234 -0.058433 0.126561 0.222404 -0.005452 -0.608425 -0.019238 0.209722 -0.091904 -0.119856 -0.077860 -0.476234 -0.136693 -0.062382 -0.213557 0.170123 0.020550 0.098689 -0.140473 -0.065329 -0.101332 0.082425 -0.210046 -0.163525 0.087663 -0.011863 -0.156107 0.153854 -0.459849 -0.067988 0.142427 0.207835 -0.273106 -0.079640 -0.034828 
要 0.125454 0.090606 -0.108833 -0.361556 0.328148 0.103875 0.197612 0.116748 0.374496 0.440553 0.069033 0.018453 -0.145450 0.214931 -0.157600 0.408867 -0.057540 -0.072212 0.128212 -0.174828 0.044095 0.003237 -0.075807 0.557746 -0.047213 0.629536 -0.049310 0.225750 -0.035492 -0.302100 0.343167 -0.357422 0.023842 -0.068131 -0.046871 0.020920 -0.043525 0.388641 0.354667 -0.099669 -0.431363 0.141582 -0.627143 0.311527 0.095533 -0.026954 0.366021 0.235780 -0.478820 -0.115396 0.535174 0.227439 -0.025785 -0.236965 0.156839 0.042823 0.242698 0.039073 -0.008133 -0.166800 0.418897 -0.171105 -0.058389 -0.013769 0.323328 0.422215 0.009199 -0.062371 0.262191 0.126198 -0.410434 0.053044 0.162095 0.378473 -0.386013 -0.518262 -0.506422 -0.009132 0.084825 -0.296892 0.126273 -0.283686 -0.122032 -0.171271 0.018198 -0.207391 0.319585 -0.240544 -0.431728 -0.141870 -0.174521 -0.112184 -0.051642 -0.353515 -0.063384 -0.004801 0.484935 -0.498725 0.150213 0.502408 
； -0.020914 -0.895703 0.735589 -0.726707 -0.210520 -0.277830 0.486239 -0.245381 -0.012740 0.268932 0.143246 -0.295878 -0.022376 0.386019 -0.021334 0.238097 0.480348 0.175409 0.314078 0.446806 -0.497697 0.095119 0.135154 0.074761 0.330388 -0.773776 -1.212244 -0.375710 0.179546 -0.206640 -0.176654 -0.200614 -0.672063 0.068299 -0.316663 -0.066328 0.050329 -0.028200 0.359349 -0.416646 0.025237 0.339139 0.072361 -0.675544 -0.297730 0.641702 0.306292 0.316210 -0.606218 -0.272463 0.334136 -0.331180 0.179415 0.223060 -0.296130 0.255513 0.495998 -0.193403 -0.104353 0.119596 -0.072570 -0.425170 -0.354679 0.409820 -0.197917 -0.032792 -0.132123 -0.242676 -0.090771 0.396890 -0.197531 -0.294096 0.162355 -0.276102 0.072060 0.189398 -0.230867 -0.019280 -0.041151 -0.098344 -0.043112 0.320319 -0.255401 -0.392251 -0.361368 0.491718 0.075323 0.000714 0.367462 0.016262 0.719942 0.347214 0.311839 0.326684 0.002296 0.458653 0.818820 0.212095 0.115726 -0.070613 
、 0.187888 -0.267831 0.726172 -0.031052 0.149297 0.039538 0.427791 0.393388 -0.405822 0.316480 0.094908 0.158307 0.641698 0.414957 0.410474 0.137028 0.332113 -0.197952 0.028440 0.332271 -0.399983 0.028799 0.129740 -0.556564 0.472680 -0.191907 -1.011072 -0.282013 -0.136488 0.008979 0.044227 -0.064471 -0.910229 -0.182125 0.279732 0.182723 0.417298 -0.166434 -0.077159 -0.163162 -0.120213 0.180396 -0.031486 0.162392 -0.632383 0.723792 0.133960 0.415324 -0.262252 -0.565237 0.178780 -0.248798 0.365879 0.046082 0.333197 -0.106890 -0.125262 0.303798 -0.325342 -0.439280 0.079254 -0.184237 -0.244288 0.002434 0.059497 0.293172 -0.164311 -0.561343 -0.312727 0.251597 -0.318962 -0.201360 -0.139052 -0.333557 -0.046209 -0.167918 0.015647 0.569099 -0.260958 -0.220134 -0.101089 -0.028234 -0.470156 -0.133687 -0.044581 0.512179 0.393924 -0.253230 0.422178 -0.019116 0.223471 0.067507 0.080208 0.555892 0.000546 0.173514 0.384596 0.448473 0.089075 0.003339 
新 -0.434719 -0.985678 0.308208 -0.489685 0.245137 0.017371 -0.463183 -0.625513 -0.189460 0.798279 0.372926 -0.048200 -0.958470 -0.465026 -0.066390 0.502265 0.666723 -0.222861 0.829929 -0.059867 -0.537180 -0.260435 0.156186 -0.273421 -0.108315 -0.231703 0.015810 -0.055209 0.666878 0.147510 -0.066708 -0.310193 -1.162318 -0.221862 -0.238108 0.093325 0.382946 0.349353 0.163556 0.141562 -0.404671 0.038452 0.968678 -0.129319 -0.018767 0.455682 0.411205 -0.080685 0.014563 -1.036434 -0.222523 -0.485799 -0.130610 0.445888 0.230576 0.559257 0.294308 -0.418020 0.359799 -0.224932 0.049409 0.799072 -0.773658 -0.102010 -0.371327 -0.326484 0.570014 -0.301835 0.234025 -0.078180 0.743108 -0.276125 0.911289 0.012322 0.248328 0.091144 -0.059137 0.081928 -0.056481 0.068164 -0.276346 -0.074844 0.120133 0.085640 -0.546889 0.682385 0.278912 -0.614473 -0.174121 -0.277440 0.744474 0.009175 0.709919 0.416209 0.223735 0.243451 0.002083 -0.212492 0.117279 -0.188325 
到 -0.357505 -0.337678 -0.148449 -0.145877 -0.161480 -0.167179 0.328922 0.076253 -0.019701 -0.293568 -0.104827 -0.011214 -0.500942 0.137389 0.190559 0.482389 0.081911 0.293601 -0.018922 0.506018 0.236428 -0.128395 -0.089768 0.568307 -0.419066 -0.217801 -0.181381 0.523886 0.385892 0.121464 -0.029391 0.396040 0.065761 -0.165362 -0.152562 -0.607805 0.133200 -0.014661 0.165348 -0.032859 -0.211625 0.241932 0.162792 -0.141478 0.521002 -0.027673 -0.112344 0.091218 -0.081469 0.292671 0.446213 0.050252 -0.308220 0.393204 0.040972 -0.280408 0.010575 -0.289256 -0.392643 0.046051 0.134688 0.219155 0.256934 0.112199 0.728139 -0.365950 -0.249092 0.045159 0.164302 0.265827 -0.196840 0.035525 -0.326252 -0.620276 0.120197 -0.028247 -0.383188 -0.180476 0.139977 -0.388324 -0.067237 0.104051 -0.315427 -0.186568 -0.079423 0.051401 0.004727 0.179991 -0.123147 -0.065560 -0.419662 0.212498 -0.386123 -0.210096 -0.207562 0.242262 0.153755 0.294026 -0.148485 0.239500 
发 -0.322521 0.120863 0.782579 0.071639 -0.805626 0.055295 -0.192327 0.143036 0.332656 0.158424 0.527099 0.209716 -0.392929 0.162729 0.402368 0.342472 0.033519 0.329142 -0.006305 -0.497967 -0.155838 -0.084525 0.074434 -0.020656 0.582292 -0.081540 -0.303854 -0.042825 0.261164 0.173065 -0.066679 -0.496972 -0.528706 0.223763 -0.516010 0.243484 0.217093 0.029646 -0.020793 0.184599 0.118824 -0.269561 0.384364 0.277368 -0.303482 0.320245 0.685582 -0.452146 0.189461 0.091851 -0.130902 -0.230002 -0.349775 0.048064 0.307002 0.126604 0.259981 0.044767 0.098620 -0.224636 0.074751 0.015697 -0.190940 -0.003263 0.278084 0.207168 0.142088 0.050314 -0.000516 -0.248020 -0.272424 0.732620 -0.133485 -0.349911 0.389160 0.142904 -0.017210 -0.274964 0.154840 -0.030181 -0.116424 -0.118858 0.172788 0.038816 -0.130461 0.128893 -0.142038 -0.054213 -0.279875 -0.073159 -0.145036 0.113572 -0.016197 -0.821351 0.447668 0.303743 0.095233 0.403522 0.093304 -0.642418 
# -0.078982 -0.570348 0.358076 0.123414 -0.081098 -0.201327 0.211796 0.086790 0.046059 0.615931 0.194646 0.340406 -0.630876 0.069132 0.331029 0.377613 0.235120 0.428392 0.577140 -0.446261 0.198404 0.341351 0.198815 -0.421083 0.765187 -0.255391 -0.356614 -0.039826 -0.001257 0.210521 -0.629375 -0.485783 -0.651728 0.326989 0.236258 0.139712 0.367676 -0.284401 -0.402464 0.000463 -0.155867 -0.048740 0.447311 0.420411 -0.646487 0.361923 0.266968 0.050609 -0.172954 -0.272360 0.169291 -0.179267 0.319346 0.113532 -0.233202 -0.434810 -0.163823 -0.006575 0.216391 -1.051423 0.597349 -0.019533 -0.276974 -0.386819 -0.016233 0.387815 0.230804 -0.131235 0.464573 0.286191 -0.494642 0.564962 0.131025 -0.349205 -0.173251 0.408161 -0.230465 0.171839 -0.085769 0.047875 0.025559 -0.143518 0.155932 -0.466343 -0.086150 0.049898 -0.213250 -0.143415 -0.036772 -0.251628 0.041709 0.373712 -0.146751 0.212691 0.195329 0.294452 0.139129 -0.190267 0.371370 -0.604792 
地 0.138576 0.009388 -0.110551 -0.092646 -0.220822 0.126704 0.081074 0.027317 0.065510 -0.210513 0.000670 -0.409295 -0.724700 -0.302565 0.008387 0.321341 0.195545 0.108633 -0.124734 -0.444313 0.184920 -0.267422 -0.081756 -0.222263 -0.185278 0.284225 -0.461188 0.343913 -0.107101 0.139249 -0.040262 -0.620144 0.378181 0.445294 -0.207190 -0.422983 0.385652 0.591635 0.141128 -0.097305 -0.029284 -0.712678 -0.077236 0.134160 -0.402024 -0.093105 0.063003 -0.380429 -0.065738 0.061605 0.253850 0.329740 -0.472099 -0.220662 -0.067652 0.332263 -0.324014 -0.120214 0.444750 0.270810 -0.096928 0.143798 -0.133985 -0.488065 0.177868 0.005935 0.060509 -0.308923 0.490556 -0.382414 0.518721 0.215308 -0.584788 0.208379 -0.003579 0.205692 0.414506 0.180459 -0.114207 0.566985 0.195319 -0.674230 0.069305 0.763651 0.389107 0.136578 -0.234186 -0.117027 0.212107 0.286046 -0.175686 0.322080 0.026275 -0.036658 0.432619 0.590690 0.146969 0.324809 0.498285 -0.451183 
微 -0.174413 -0.492847 0.356099 0.162647 -0.309848 -0.180043 -0.535947 0.077866 -0.278449 0.418743 0.766609 0.644306 -0.521905 -0.005446 0.163603 0.303378 -0.004884 0.237787 0.079836 -0.765250 -0.516154 0.151988 -0.499056 -0.377253 0.187656 -0.617110 -0.169162 -0.246743 0.518244 0.160898 -0.290835 -0.628705 -0.944949 0.324924 -0.172153 0.307746 0.018257 0.287370 0.584823 0.043664 -0.206005 -0.196560 0.598319 0.216989 -0.222014 0.656140 0.693068 0.236806 -0.303785 -0.480106 0.396276 -0.233112 0.113141 0.076840 0.515594 -0.088984 -0.034583 -0.311376 0.139666 -0.501873 -0.222041 -0.008832 -0.857570 0.174825 -0.413317 0.350432 0.789254 0.088338 0.131142 0.325652 0.218682 0.636689 0.329591 -0.194253 -0.158910 -0.192115 -0.199847 -0.427869 0.239109 -0.421061 0.133009 -0.213834 0.220255 0.131485 -0.637294 -0.384870 -0.329410 -0.414699 -0.165055 0.301816 0.324209 0.215163 0.094181 -0.072424 0.095419 0.420038 0.176161 -0.284048 0.201081 -0.391911 
会 -0.065638 -0.316918 0.507057 -0.311816 -0.059179 0.046477 0.129745 -0.144788 0.031279 0.342637 -0.173004 -0.036797 -0.289641 0.109369 0.164811 0.246923 0.104824 0.148407 0.039767 0.439050 -0.338850 -0.490543 0.089318 0.173565 0.041883 0.027971 -0.626123 -0.165592 0.207866 -0.045648 0.169834 0.060122 -0.191730 0.092794 0.014363 0.002200 0.269162 -0.147211 0.129904 -0.181846 -0.209577 0.227858 -0.007540 -0.114415 -0.011322 0.494573 0.394356 -0.276850 -0.246811 0.181880 0.048280 0.061252 0.225613 0.449174 0.348862 0.256398 0.364870 0.109322 -0.203400 -0.208165 -0.107841 -0.536569 -0.219559 0.098665 0.248482 0.059765 -0.456471 -0.209953 0.067179 0.118408 -0.170462 0.038661 -0.213728 -0.134190 0.059158 0.145754 -0.671544 0.112215 0.205815 -0.343921 -0.148124 -0.079661 -0.012057 -0.321911 -0.009262 0.578535 0.320244 -0.226836 -0.115997 0.226394 0.313551 -0.112387 -0.346272 -0.211695 0.130809 0.133481 0.302534 -0.021366 0.059457 0.133209 
就 0.257815 -0.522293 0.122095 -0.335100 -0.120385 0.015763 0.334458 -0.154869 0.218818 -0.335383 -0.001441 0.118964 -0.604575 0.530481 -0.106905 0.415863 0.006656 0.423695 -0.450818 -0.068902 -0.021909 -0.384013 -0.127364 0.174344 -0.281030 0.127202 -0.039629 0.086091 -0.120440 0.075314 -0.125832 0.249938 -0.111167 -0.064272 -0.373806 0.005956 -0.232876 -0.093209 0.177103 0.033302 -0.062209 -0.047844 -0.176362 0.190110 -0.304527 0.149616 0.270538 -0.048245 -0.308368 0.162605 0.317776 -0.345763 -0.068582 0.157751 0.040836 0.170455 0.003387 -0.215514 -0.369781 -0.104055 0.327917 -0.143112 0.135715 -0.185245 0.223407 0.263573 -0.007500 0.076119 -0.023256 -0.349562 -0.167580 -0.101658 -0.025039 -0.138739 -0.308175 0.504002 -0.272663 -0.137589 0.011732 -0.077183 -0.214524 0.000811 -0.340400 0.022000 -0.143530 0.279859 0.368092 -0.036223 -0.084260 0.315407 0.411814 0.435318 -0.242437 0.062456 0.049054 0.401177 -0.069220 0.108175 0.090623 -0.245547 
么 0.202344 -0.418178 -0.527962 -0.265690 0.289007 0.103318 0.275550 -0.237664 0.407139 0.137084 -0.226091 -0.295358 -1.103351 0.019730 -0.475678 0.244794 0.248716 0.023751 -0.067860 0.189324 0.008251 -0.151856 -0.428936 0.052834 -0.479272 0.171373 -0.196144 0.056912 0.123890 -0.521612 0.477421 0.184411 0.251402 -0.143605 -0.424488 0.192833 -0.541641 -0.628450 -0.180640 -0.538726 -0.526317 -0.011798 -0.294177 0.102711 0.453834 0.151799 -0.093347 0.079567 -0.271941 0.468087 0.285935 0.404030 0.319485 0.565520 0.094342 -0.185396 0.725565 0.308795 -0.269137 0.755665 -0.733734 -0.608286 0.289978 -0.329479 -0.017911 -0.065422 -0.522375 0.455746 -0.103687 0.012329 -0.529749 0.275317 -0.298870 -0.330998 0.067032 0.217311 -1.260582 -0.083447 0.280283 -0.750718 -0.159649 0.356084 0.620988 -0.907150 -0.306797 0.491229 0.067731 0.258657 -0.312013 -0.238673 -0.327853 -0.143351 -0.535226 -0.304934 -0.682180 -0.043343 0.119836 -0.023873 0.230601 0.106746 
时 0.316606 -0.858057 -0.146430 -0.744401 -0.053926 -0.005179 0.463587 -0.364821 0.035227 -0.497925 -0.394005 0.004805 -0.593826 0.024348 -0.036038 0.226465 -0.335978 -0.067990 0.326601 -0.003556 0.354205 -0.015751 0.048705 0.588867 0.318786 0.138047 0.230529 0.424620 -0.107963 0.048802 -0.546585 0.140807 -0.130987 -0.001475 -0.212199 -0.365238 0.181815 -0.087061 -0.642865 -0.182767 -0.118328 -0.107753 -0.342697 0.506725 0.144240 -0.056228 0.340538 -0.026930 -0.340145 0.603399 0.231218 0.036922 -0.119438 0.432145 -0.213504 -0.466845 0.343607 0.243632 -0.633693 0.584753 0.253623 -0.112404 0.374131 -0.726369 0.605079 -0.319220 -0.141698 -0.139424 0.315393 0.257195 -0.099931 -0.153215 -0.149736 -0.449782 0.150034 0.502011 0.165849 0.059806 0.290061 0.568616 0.058516 -0.341253 0.244537 0.211752 -0.382492 0.423880 -0.334851 0.043719 -0.198585 -0.053093 0.255677 0.185479 0.033224 0.019365 0.225751 0.245855 0.276396 0.614544 0.149754 -0.169100 
？ 0.047682 -0.798079 -0.532729 -0.598622 0.437801 0.134657 0.636766 -0.526484 -0.202948 -0.120735 -0.664623 0.273183 -0.762599 0.034434 0.172686 0.406408 -0.036027 0.082006 0.197976 0.743386 -0.108101 -0.313993 -0.153683 0.454943 -0.367941 0.138140 0.072057 0.175551 -0.060274 -0.164501 0.154331 0.326164 -0.040027 0.055314 -0.072504 0.096684 0.326441 0.018777 -0.258659 -0.331200 -0.530427 0.052817 -0.397941 0.397423 0.332940 0.041341 -0.074033 0.034720 -0.044980 -0.090795 0.517203 0.530929 -0.036817 0.203501 -0.134349 -0.123234 0.308339 -0.065323 -0.311227 0.471185 -0.310279 -0.308708 -0.237418 -0.319266 0.095687 -0.361224 -0.105904 -0.082026 0.250067 0.224321 0.197179 -0.075927 -0.197025 0.117670 -0.014577 0.075110 -0.405227 -0.012188 -0.203693 -0.096575 0.166213 0.021156 0.171966 0.164857 -0.217776 0.283977 0.080349 -0.235401 0.264449 0.129383 0.189234 -0.102495 0.490928 0.331805 -0.037884 0.190052 0.300475 0.147207 -0.139245 0.275130 
博 -0.230664 -0.664585 0.404103 -0.026050 -0.021054 0.200307 -0.258855 -0.460433 -0.917963 0.794180 0.292863 0.649849 -0.447559 -0.310220 0.223235 0.041151 -0.274627 -0.375366 0.747653 -0.522452 -0.268597 -0.007398 0.047505 -0.476405 0.672674 -0.429247 -0.156204 -0.170778 0.836159 0.248217 -0.240043 -0.763971 -0.978468 0.232685 -0.032114 0.573877 0.774469 -0.138112 0.123819 -0.085349 0.233659 -0.271497 0.953757 0.235449 -0.181063 0.779528 0.237818 0.390564 0.035016 -0.560619 -0.019304 -0.354882 -0.245959 0.471378 0.541490 -0.425678 0.518861 -0.138610 -0.177412 -0.486397 0.089487 0.398073 -0.758746 0.544054 -0.314857 0.022159 0.652691 0.028596 -0.165963 0.081654 -0.028404 0.553630 0.469848 -0.365229 0.205078 -0.124297 -0.052055 -0.257771 0.008761 -0.457093 0.130847 -0.079095 0.578787 -0.275713 -0.584209 0.473695 -0.191860 -0.120311 0.374629 -0.560175 -0.063292 -0.292706 1.176328 0.068436 0.541787 0.383831 0.467746 0.319820 0.114494 -0.311502 
们 -0.320891 -0.045318 -0.340600 -0.229728 0.058234 0.599136 0.357714 -0.313518 0.146162 0.262101 0.044418 -0.329264 -0.467090 0.421486 -0.293903 0.123888 0.408405 0.551489 0.446965 0.044781 0.263816 -0.114091 0.147260 0.291050 -0.077789 0.114706 -0.274430 0.487892 -0.095536 -0.115926 0.121551 -0.213642 0.285992 0.039585 0.121244 -0.082306 0.125851 -0.278114 0.364196 0.071082 -0.026234 -0.106399 -0.133435 0.013981 -0.170601 0.111087 -0.189965 -0.185848 -0.323218 0.474714 0.197106 0.039771 -0.088615 -0.093265 -0.001513 -0.099328 0.209802 0.116123 0.025867 -0.017346 0.312368 -0.068287 -0.164378 0.004799 0.448279 -0.097710 -0.128714 0.391873 0.417322 -0.130735 -0.426184 0.372075 -0.343066 -0.326800 -0.091140 0.377314 -0.864170 0.102182 0.294751 -0.104277 0.201008 0.003850 -0.034363 -0.325929 0.376250 0.055875 0.142944 0.001949 -0.429265 -0.070108 -0.076349 0.124428 -0.692199 -0.706388 -0.367161 -0.293901 0.170127 -0.191461 -0.256218 -0.023635 
子 0.149550 -0.521684 -0.465148 -0.339714 0.485738 0.137033 0.367571 -0.193794 0.194939 0.293568 -0.166629 -0.035918 0.072755 0.176150 -0.135865 0.050046 0.249596 0.002378 0.287140 0.170099 -0.469903 0.031131 -0.149411 -0.302450 0.136325 0.402531 -0.183826 0.067659 -0.346620 -0.132283 -0.081833 -0.004645 0.078292 0.274936 0.029142 0.161468 -0.064153 0.286635 -0.268116 -0.109963 -0.173892 0.173919 0.037022 0.148889 -0.211327 0.057289 -0.204188 -0.045690 -0.220296 0.078277 -0.072451 0.267798 0.616369 0.051994 -0.115720 -0.152943 0.094866 0.050756 0.097434 0.067584 0.146070 -0.498908 -0.046568 -0.241962 -0.210002 -0.169257 -0.509107 0.126019 -0.078860 0.122790 -0.311265 -0.006807 -0.112871 0.038774 -0.050474 0.422045 -0.362056 0.607229 -0.003457 0.159456 0.275295 -0.373690 -0.257050 -0.102232 0.025643 0.135580 0.409577 -0.098140 0.206421 0.073174 0.194263 -0.239788 -0.174636 0.412104 0.233862 -0.204314 0.275751 -0.282255 0.129225 0.093666 
上 0.096289 -0.074273 0.331594 -0.161264 0.161449 0.000260 0.104367 -0.017328 0.210958 0.332439 -0.167096 0.095120 -0.362565 -0.101123 0.101865 -0.072838 -0.055445 -0.146491 0.220031 -0.372103 0.058699 -0.171438 0.240668 0.099540 -0.060723 0.313177 0.134907 0.130857 0.229102 0.193132 -0.063248 -0.187787 -0.339983 -0.288965 -0.205827 -0.099517 0.192626 -0.129396 0.013976 -0.152082 0.063379 -0.115757 -0.364663 0.300935 -0.299262 -0.051490 -0.200817 0.349102 -0.354107 -0.170029 0.125198 -0.403412 -0.256535 0.488855 -0.261559 0.003580 -0.142195 0.033452 -0.204959 -0.172627 0.326189 0.313406 0.014246 -0.424081 -0.031807 0.295192 -0.014517 -0.377304 0.000720 -0.254111 -0.022155 0.158668 -0.141147 0.091030 -0.281335 -0.034003 -0.330465 -0.014743 0.430204 0.019085 -0.415245 -0.297796 0.006304 0.007840 -0.208786 0.682826 0.015291 0.015677 -0.096751 -0.329438 -0.040619 0.163475 0.371328 0.039932 0.234588 0.337953 -0.144364 0.585210 0.090571 -0.069793 
看 0.069616 0.090244 0.162824 0.156663 0.039361 -0.002871 0.068307 -0.230640 -0.126438 0.420789 0.117721 -0.274527 -0.090350 -0.196651 -0.211024 -0.175325 -0.043138 -0.142698 -0.181629 0.066412 0.265519 -0.258682 -0.076799 0.450959 -0.415476 -0.199158 -0.133644 0.176643 0.337003 -0.240051 0.086277 0.094807 0.098564 -0.407488 -0.101148 -0.376884 0.047461 -0.151594 0.261984 -0.219817 -0.296965 0.469416 -0.083604 -0.346873 0.223758 0.236754 -0.134955 0.070550 0.010942 0.219779 0.129468 -0.032073 -0.170538 0.571300 0.038137 -0.147391 0.321905 -0.205841 -0.223476 0.396792 0.221983 0.037580 0.029008 0.216073 0.069291 -0.082269 0.014544 -0.151362 -0.203170 0.146778 0.092863 -0.163246 -0.083866 -0.433379 -0.103790 -0.031489 -0.275229 -0.199343 0.495368 -0.237488 0.161516 0.269282 -0.051569 -0.387443 -0.118669 0.672169 0.077204 0.091764 -0.004938 0.030338 -0.225217 -0.251110 0.152430 0.194468 0.205296 0.245483 0.127086 0.230598 0.047762 0.172294 
可 0.282558 0.098102 -0.157609 0.117621 0.038704 -0.062148 0.256624 0.156020 -0.164316 0.147102 0.604115 -0.098325 -0.091834 -0.160393 0.128969 -0.292096 -0.058141 -0.591548 -0.545554 -0.003869 0.852932 0.185116 -0.042505 0.049219 0.075388 -0.182111 -0.077780 -0.072074 -0.316611 -0.074471 -0.014821 -0.364273 0.308716 -0.004398 0.360498 -0.449293 0.296422 0.291819 0.300235 0.029397 -0.160943 0.286766 -0.206374 -0.462240 0.120850 0.191920 -0.103037 0.757239 0.045230 -0.018821 0.224867 0.137843 0.102003 -0.020380 -0.089695 -0.381245 -0.157165 -0.274720 0.275304 -0.147892 0.812722 0.164920 0.468707 0.151272 -0.192045 0.349498 0.017512 -0.693745 -0.282878 0.079523 -0.207489 -0.307227 0.181902 0.054211 -0.256646 -0.148544 0.437461 -0.007512 0.148992 0.022744 0.257699 -0.125261 -0.206060 -0.207883 0.362197 -0.218083 -0.194254 0.048611 -0.265693 -0.164619 -0.380479 -0.329661 -0.117654 0.396935 -0.008930 -0.061523 -0.126239 -0.070282 -0.059589 0.069836 
都 0.013878 -0.185156 -0.052031 -0.083777 0.136991 0.316660 0.385850 -0.066581 -0.155427 0.037606 0.136984 -0.192630 -0.179370 0.240585 -0.268736 0.252153 0.155525 0.260345 0.117072 -0.007595 0.143154 0.162532 -0.044905 0.418971 0.025447 0.083995 -0.151094 0.392064 -0.037748 0.211432 0.210344 0.038385 0.110958 0.033660 0.317319 -0.050686 0.227060 0.117873 0.024787 -0.035242 -0.043059 0.012160 -0.377179 0.155363 0.138086 -0.064000 -0.178038 -0.106789 -0.048119 0.113166 0.358451 0.347274 -0.116216 -0.365217 0.057848 -0.187470 0.001957 0.067231 -0.113307 0.260701 0.230686 0.065490 -0.096943 -0.140626 0.374508 -0.091879 -0.201261 0.115067 0.311880 -0.082085 -0.072169 -0.102539 -0.288748 -0.087410 -0.087076 -0.154892 0.009534 0.133036 -0.287550 -0.041397 0.586130 -0.053466 -0.289607 0.030722 0.405122 0.153080 -0.158144 -0.195713 0.216782 -0.124233 -0.063928 0.170594 -0.141216 -0.173372 -0.507095 0.136284 0.321968 -0.030568 -0.345746 -0.032334 
能 -0.022486 -0.998919 -0.230488 -0.238885 0.175315 0.026627 0.529278 -0.003313 0.051675 0.002386 -0.129955 -0.208686 -0.387325 0.076979 -0.087665 0.507820 0.544966 0.132546 0.176121 0.050452 -0.095445 0.039240 -0.141550 -0.384950 -0.285433 -0.042974 -0.490469 0.396861 0.094920 0.046535 0.362488 0.205312 -0.120865 -0.027347 -0.026031 -0.258559 -0.154283 0.117717 0.307687 -0.201216 -0.220932 -0.200807 0.162091 -0.027767 -0.253043 0.084172 -0.252394 0.294531 -0.486812 -0.103845 0.294740 -0.109574 0.140866 0.142869 -0.046396 -0.235778 0.039228 0.000041 -0.222513 0.244163 -0.180643 -0.210669 -0.070846 -0.354762 0.229651 -0.175537 -0.287406 -0.024235 -0.013285 0.108220 -0.105188 -0.111992 -0.075249 -0.076012 -0.138463 0.310410 -0.530756 0.296530 -0.155107 -0.375210 -0.023452 -0.018482 -0.450376 -0.073661 -0.044524 0.364246 0.269097 0.046754 0.283082 0.086731 -0.116703 0.265097 0.041764 0.403364 -0.097209 0.416168 0.282709 0.121359 0.145649 0.004279 
生 0.174337 0.163961 0.115871 0.199372 -0.023630 0.101091 0.426185 0.009738 -0.147103 0.058826 0.032352 0.414557 -0.179931 -0.008598 0.258642 0.058195 -0.188819 -0.316373 -0.207454 0.129025 0.120940 -0.201109 -0.105575 0.173750 -0.081939 -0.032960 0.048485 0.128377 -0.262859 -0.300471 -0.253967 0.075976 -0.049448 -0.035953 -0.288900 -0.254874 0.018731 -0.343748 -0.178555 -0.284761 -0.221288 0.132120 -0.266651 0.401672 -0.156795 0.303102 0.011457 0.119160 0.003750 -0.008670 0.370502 0.277710 -0.098288 0.205895 -0.318570 -0.200309 -0.129335 0.101377 -0.019965 -0.221966 0.227947 -0.059873 0.105251 -0.096189 0.059755 -0.056639 0.223905 0.005568 -0.022698 -0.066001 -0.077281 0.385091 -0.375382 -0.114808 -0.134661 -0.032548 0.022898 0.235842 0.317899 -0.139388 0.024231 0.373949 -0.019336 0.197246 0.056279 0.310227 0.038500 0.084133 0.314469 -0.186654 -0.278820 0.219630 -0.396513 0.146133 0.147728 0.041727 -0.125423 0.236802 -0.013074 0.083463 
多 -0.098361 -0.208325 0.392270 -0.272322 -0.397873 0.490178 -0.026301 -0.263484 -0.164421 0.074833 0.052497 0.239847 -0.360023 0.110708 0.588236 0.187583 0.050092 0.393638 0.215369 0.178788 -0.300812 -0.572753 -0.052722 -0.067607 0.039675 -0.177680 0.183971 0.154910 0.205427 -0.119736 0.051276 -0.280508 -0.514346 -0.028251 -0.063568 0.147726 0.058437 -0.022215 -0.183505 -0.161695 -0.448303 0.023206 -0.243671 0.201511 0.595098 0.382237 0.682146 -0.014600 -0.166223 -0.154772 -0.371650 -0.132775 -0.066998 0.247042 0.417102 -0.031198 0.547027 0.087536 0.025012 0.357392 -0.094670 -0.230381 -0.472801 -0.509412 0.264187 -0.463700 0.173706 -0.084770 0.496087 0.126036 0.165651 0.035082 -0.068997 -0.290506 0.413338 0.239895 -0.432828 -0.056207 0.257586 0.007793 -0.241478 -0.071838 0.131424 0.198120 -0.301870 0.270443 0.024275 -0.547056 -0.560210 0.244134 0.258300 -0.052154 -0.094613 -0.783435 -0.001755 0.389759 0.194146 0.067765 0.102112 -0.222299 
自 0.118875 0.176216 0.844416 -0.575774 -0.150529 -0.094239 0.050273 0.015791 0.055638 -0.030912 0.442275 0.342439 0.591855 0.333271 0.047986 -0.166019 -0.089024 0.224793 0.004499 0.102171 0.189853 -0.170462 0.521919 0.477064 0.659338 0.275114 -0.208263 -0.109827 0.120477 0.008311 0.106232 0.293435 -0.387667 -0.326657 -0.567423 0.095633 0.105604 0.053226 -0.395522 0.206806 0.548817 0.287138 -0.450492 -0.062757 -0.269929 0.414094 0.359730 -0.085368 -0.413618 -0.131942 0.101225 -0.584496 -0.288264 0.152629 0.132707 0.108371 0.246710 0.458651 -0.596910 -0.252898 0.463862 -0.401939 0.507423 0.312772 0.884233 -0.009497 -0.470512 -0.028227 -0.108126 -0.257146 -0.855679 -0.548028 0.208183 0.190233 -0.096826 -0.609749 0.327215 0.199686 -0.288973 -0.115273 0.004896 0.131222 0.181122 -0.060935 -0.397881 0.631429 -0.014656 0.021142 0.230406 0.320879 0.328650 0.404992 -0.029174 -0.299024 0.160459 0.007262 0.158897 0.429391 0.064242 0.124513 
想 0.266592 -0.405538 0.060342 -0.597441 0.176266 0.270274 0.679776 -0.157790 -0.464677 0.010716 -0.011264 0.255391 0.265273 0.020627 -0.124902 0.097751 -0.048136 -0.635900 0.403088 0.759119 0.453894 -0.149812 0.287343 0.110849 0.256303 0.407186 -0.242620 -0.113696 0.097386 0.261485 -0.079937 0.065516 -0.131514 -0.263448 0.368776 0.224977 -0.200588 0.068189 0.606261 0.025226 0.007816 0.319869 -0.455044 -0.728250 0.590282 -0.036416 0.034578 0.685767 -0.126813 0.430635 0.188894 -0.283157 0.452869 0.103621 -0.182524 0.235762 0.715452 0.089975 -0.151724 0.203415 0.425467 0.110359 0.408098 0.059325 0.677374 0.003217 -0.223174 -0.180740 -0.031117 0.488444 -0.481846 -0.627607 0.478582 0.193676 -0.301113 -0.298475 -0.621456 0.259980 -0.291736 -0.553656 0.170693 -0.591326 -0.104022 -0.365047 -0.057187 0.211731 0.306210 -0.280411 -0.632162 0.158690 0.052511 -0.555115 -0.526785 -0.372686 0.032059 -0.141603 0.373373 0.216337 -0.158557 0.183235 
下 0.164917 -0.416355 -0.470890 0.074330 0.191183 -0.362517 0.026272 0.146446 0.030491 -0.123796 0.006921 0.196334 -0.317028 0.206126 0.229740 0.660713 -0.229553 0.228052 -0.187655 0.116333 0.005881 -0.092118 -0.068276 0.220016 -0.090111 -0.019326 0.223296 0.196107 0.009459 0.198569 -0.172618 0.255069 0.039150 0.166081 -0.165053 -0.014656 0.157319 -0.096405 -0.174255 -0.200813 -0.066879 0.201107 -0.117525 0.553751 0.073652 -0.128685 0.000047 -0.153781 0.008440 -0.000093 0.036152 -0.014421 -0.268992 -0.065661 0.172672 -0.000821 0.063420 -0.246335 -0.392203 -0.448980 0.159336 0.067831 -0.010076 0.156669 0.294729 0.142730 -0.195403 -0.079431 0.068400 -0.055842 -0.135687 0.067417 0.058951 -0.477226 -0.097206 0.043136 0.203489 -0.092315 -0.179458 0.139916 0.243353 0.253026 -0.234790 -0.066037 -0.110783 -0.374051 0.281064 0.015668 0.585261 0.006950 -0.127553 0.229340 0.253187 0.156177 -0.117488 0.176521 -0.060696 -0.092093 -0.093825 0.237383 
e -0.274490 -0.742853 -0.883084 0.401953 -0.325481 -0.335777 -0.095307 0.241852 0.109758 -0.245090 0.481642 -0.561073 0.181784 -0.424264 -0.120967 0.661024 0.421987 -0.329408 0.172070 -0.061604 0.051465 1.038070 -0.391802 -0.689093 0.512020 0.069853 -0.026730 0.042616 -0.393686 -0.031972 0.020785 -0.001155 0.535813 0.491450 -0.101441 -0.354191 -0.203051 0.453785 -0.516243 0.230498 0.177260 -0.338763 1.310315 -0.303485 0.215106 -0.367657 -0.001517 -0.205796 0.571080 -0.007480 -0.400105 0.086798 0.044594 -0.514948 -0.142869 -0.698340 -0.389924 -0.392565 0.498928 0.633693 -0.099977 0.328518 0.470334 0.187556 -0.426678 -0.406676 0.044543 0.738618 -0.848547 0.012474 0.338251 -0.167266 0.079140 -0.028968 0.602814 0.644843 0.886983 0.073737 -0.776389 0.464067 0.233100 0.325713 -0.296194 -0.265938 0.056117 -0.842618 -0.420370 0.239510 0.183106 -0.606044 -0.524231 -0.023758 0.017022 0.460154 0.077455 -0.324614 0.119946 -0.314137 0.159390 -0.428374 
o -0.380611 -0.519330 -0.549598 0.281128 0.027462 0.321658 0.037152 -0.176674 -0.279324 -0.144534 0.577687 -0.645945 0.319927 -0.551015 -0.339323 0.373356 0.596311 -0.338255 0.244316 0.355512 0.159292 0.717007 -0.143262 -0.658647 0.065623 0.160221 0.431139 0.192263 -0.359681 -0.060067 0.110903 -0.035324 0.547364 0.163606 0.228809 -0.320211 0.136383 0.268175 -0.404005 0.385761 0.243531 0.006621 1.310284 -0.306320 0.180813 -0.279186 -0.256860 -0.143144 1.004451 -0.118084 -0.406042 -0.174666 -0.041066 -0.185409 -0.338242 -0.523315 -0.205062 -0.489216 0.618393 0.463837 0.542011 0.853841 0.542125 0.523159 -0.459451 -0.398870 0.526616 0.576869 -0.553820 -0.392699 0.623477 -0.585300 0.501674 0.034288 0.517901 0.740270 0.971660 0.025506 -0.642106 0.737916 0.310801 0.447629 -0.435420 -0.103914 0.112027 -0.504749 -0.098228 0.174690 -0.081346 -0.801156 -0.274195 -0.201095 0.667016 0.436124 0.154722 -0.408812 -0.070708 -0.549621 -0.070389 -0.359248 
得 -0.015939 -0.497097 -0.113918 -0.262324 0.097993 -0.061468 -0.199671 -0.472298 0.139629 0.008028 0.195126 0.015877 -1.038055 -0.049887 -0.110397 0.664517 0.119445 0.046385 -0.414919 0.032160 0.252104 -0.520118 -0.196929 0.392520 -0.349116 -0.032254 -0.050300 0.262458 0.217626 -0.160213 0.011826 0.262376 -0.258028 -0.156904 -0.547995 -0.437837 0.149116 -0.004495 0.158495 0.092250 -0.286235 0.128980 0.382695 0.156534 -0.286513 0.428385 0.398078 -0.122865 -0.145840 -0.010377 0.416389 -0.146686 -0.196582 0.428258 0.183355 0.015975 0.455711 -0.382659 -0.258713 -0.395332 0.181839 0.155519 0.295527 0.548885 0.441869 -0.170654 0.085552 0.099805 -0.069361 -0.156863 -0.426871 0.156034 0.134454 -0.576970 -0.074468 0.064485 -0.396478 -0.086793 0.022346 -0.485413 -0.022734 0.434047 0.014477 -0.371148 -0.376505 0.199898 0.480034 0.208809 0.199228 0.074883 0.023500 0.127524 -0.576949 -0.031438 0.008351 0.098548 -0.063476 -0.107608 0.214417 0.133475 
以 0.200670 -0.252493 -0.160934 -0.151137 0.138481 -0.347781 -0.011032 -0.143437 0.445779 0.338783 0.110034 0.282347 -0.258014 0.068517 -0.200514 0.300954 -0.206143 0.039274 0.432778 -0.249626 -0.139405 -0.194936 -0.083162 0.220783 0.128229 0.382118 0.140408 0.299977 0.635063 0.077239 -0.111339 -0.060373 -0.203120 -0.147783 -0.215924 0.042471 -0.176840 0.137920 0.165831 -0.325973 -0.286547 0.232792 -0.551787 0.361144 0.037593 -0.060040 -0.056777 0.382736 -0.733456 0.006564 0.554842 -0.330622 -0.014195 0.421208 0.134183 -0.046392 0.523065 -0.096120 -0.315712 -0.056829 0.517649 -0.072163 -0.125014 -0.012755 0.677194 0.187150 -0.207003 0.009572 0.176488 0.295018 -0.483131 0.117780 0.528210 -0.326748 -0.671478 -0.500232 -0.631420 -0.114492 0.216091 -0.436588 0.317757 -0.132475 -0.344127 -0.530528 -0.750055 0.021971 0.372614 0.054316 0.255049 -0.166512 0.015918 -0.108233 0.071247 -0.126488 -0.256654 0.136513 0.290022 -0.018741 0.205250 0.018866 
中 -0.129291 0.165065 -0.020656 -0.214758 0.163015 -0.192144 0.113939 -0.072118 0.006210 0.397858 0.118039 -0.231627 -0.096608 0.153667 -0.163168 0.253694 0.280579 -0.011103 0.229450 0.303472 -0.052237 0.082268 0.255423 -0.242771 0.346449 -0.049033 -0.556691 -0.123776 -0.311738 -0.081746 -0.287124 -0.177713 -0.207454 0.148829 -0.059645 -0.019589 0.089621 -0.073440 -0.029832 -0.335074 -0.103454 0.144937 0.227471 0.367475 -0.495138 0.485607 -0.071890 -0.104418 -0.494625 -0.071181 -0.020704 -0.051031 -0.087045 0.139665 0.126481 -0.071087 0.176139 0.194812 0.075836 -0.165401 0.271096 -0.204859 -0.065783 -0.003332 0.028023 0.229328 -0.206306 -0.164752 -0.237703 -0.200705 -0.377095 0.003118 0.244257 -0.227975 -0.105708 0.353983 -0.055420 0.615747 -0.130339 0.008457 0.277378 -0.103001 0.160805 -0.343620 -0.204081 0.358761 0.307307 0.079708 0.513103 -0.406458 0.034907 -0.078639 0.148210 0.433762 -0.054782 -0.224632 0.366714 -0.060953 -0.002513 -0.118915 
家 0.235619 -0.688721 -0.234413 -0.292282 0.250179 0.330375 0.577369 -0.292377 -0.271812 0.193831 -0.264302 0.544412 -0.091246 0.220844 0.206913 0.454455 0.005253 -0.015637 0.271377 0.096916 0.007914 -0.338232 -0.149185 0.391078 0.055004 0.198504 0.248401 0.128198 -0.080210 0.068463 0.104968 0.178180 -0.234311 -0.058014 0.502139 0.233966 0.277682 -0.152368 -0.201911 0.032646 -0.537341 0.295390 -0.502070 0.248034 0.371101 0.077155 0.005380 -0.049902 0.062821 0.051049 0.342418 0.153619 0.209973 0.119463 0.067148 -0.334983 0.061302 0.004309 -0.330885 0.032849 0.205151 -0.200689 -0.323906 -0.480611 0.163802 -0.292309 0.030167 -0.066714 0.179862 0.431614 0.165194 -0.002455 -0.270847 0.023386 -0.142783 -0.027224 -0.392487 0.068406 0.127670 -0.207450 0.095199 -0.094833 -0.240102 -0.215810 0.148308 0.162754 0.262895 -0.268942 -0.134958 0.133045 0.207038 -0.257809 -0.123862 0.030340 0.021509 0.223916 0.155825 0.132165 -0.251946 0.240362 
过 0.284374 0.067419 0.221157 -0.364148 -0.303345 0.092308 0.750292 -0.127027 0.483388 -0.302687 0.208512 -0.081616 0.039756 -0.045497 -0.376066 -0.349824 0.140961 -0.251498 -0.221062 0.221415 0.497843 -0.183830 -0.028137 0.160024 -0.036470 0.115819 -0.117364 0.456255 0.115263 -0.175441 -0.172433 -0.001994 0.247367 -0.340933 -0.676073 -0.148147 -0.334306 -0.190690 0.286725 -0.342314 -0.074870 0.089860 -0.526506 -0.318248 0.201930 -0.157494 -0.338135 0.638272 -0.611576 -0.181654 0.111578 -0.523490 -0.099413 0.502818 -0.654560 -0.211716 0.152580 0.079787 -0.041393 0.579185 0.140312 -0.176210 0.517327 -0.257890 0.426843 0.036024 -0.218706 -0.147302 0.010594 -0.272334 -0.553234 -0.663597 0.275567 -0.090928 -0.185584 0.192752 0.012012 0.136685 0.104864 0.071854 0.018120 0.054292 -0.188667 0.122276 -0.160839 0.311223 -0.103912 0.328674 -0.209606 -0.115256 -0.055079 0.240667 0.550948 -0.310194 0.133285 0.307298 0.082988 0.622655 0.080606 -0.163302 
最 0.110688 -0.146148 0.135318 -0.098633 0.053445 0.585018 0.260305 0.031707 -0.011146 0.147730 0.243907 -0.044050 0.143633 0.225098 0.026753 0.344880 0.474082 0.279332 0.322581 0.238854 -0.047137 -0.008984 0.165301 -0.218781 -0.210473 0.254608 -0.067276 0.165075 -0.098778 -0.078333 0.302480 -0.254365 -0.033240 -0.190041 -0.011654 0.161279 -0.122402 -0.179873 0.131558 -0.089894 -0.151665 0.054683 -0.135316 -0.087817 0.157697 0.067765 -0.122495 0.055208 0.109370 -0.320311 -0.031051 -0.297278 -0.052674 -0.158259 -0.240652 0.072147 -0.059613 -0.254728 0.248099 -0.044686 0.516344 0.128134 -0.158024 -0.087532 -0.031705 0.020894 0.281709 0.242616 0.155498 -0.364443 -0.173148 -0.066768 0.189886 0.183981 -0.155689 0.192491 -0.423355 0.100698 -0.225188 -0.046505 -0.044644 0.016915 -0.184477 -0.043616 0.208206 0.174209 0.234113 -0.235061 -0.096501 -0.210048 -0.137970 0.199757 0.263349 -0.213324 -0.004056 0.046874 0.203778 -0.208620 0.208104 -0.120997 
去 0.350477 -0.353168 0.066411 -0.163947 0.366107 -0.142214 0.189963 0.074246 0.138478 -0.012730 -0.069575 -0.391998 -0.066936 0.202329 -0.358501 -0.242286 0.110548 0.290543 0.444619 0.241317 -0.091040 0.498855 0.035250 0.172728 -0.160746 0.148041 0.352195 -0.040562 0.174015 0.243046 0.032960 -0.006263 -0.207870 -0.302882 0.498496 0.082907 -0.142781 -0.390022 -0.003065 -0.539626 -0.144142 0.197592 -0.576471 0.081869 0.282338 -0.339038 -0.440950 0.514257 -0.137708 0.360714 0.224296 0.101538 0.404967 0.168226 -0.099542 -0.277645 0.474716 0.094880 -0.190939 0.322353 0.068340 0.203634 0.078596 -0.437803 -0.206856 0.327926 -0.247790 -0.008166 0.145084 0.216364 -0.130129 -0.078766 0.007879 -0.346286 -0.079931 -0.036829 -0.700419 -0.027435 0.163245 -0.026558 0.070559 -0.241957 -0.240759 -0.316704 -0.157792 0.660502 -0.049522 -0.106893 -0.283206 -0.494470 0.000041 -0.217383 -0.315662 -0.197273 -0.690881 -0.161149 0.204903 -0.033214 -0.426164 -0.160458 
为 -0.437950 -0.035587 -0.102050 -0.088513 -0.025533 0.063888 0.178015 -0.329273 0.453266 0.289711 -0.036561 -0.337907 -0.426029 0.297810 -0.312819 0.124326 0.301272 0.572391 0.162838 -0.081089 0.170482 -0.202332 0.013788 0.637056 -0.160060 0.000798 0.015861 0.562108 0.365436 0.012830 0.087652 0.273820 0.041720 -0.405346 -0.279610 -0.104919 0.029330 -0.290364 0.445631 -0.044043 -0.255018 0.095317 0.093354 0.092503 -0.195390 -0.208558 -0.304901 0.107920 -0.525093 -0.102331 0.164480 -0.305031 -0.448534 0.180760 -0.039394 -0.320729 0.131591 -0.395664 -0.120751 0.077429 0.266926 0.309678 -0.273162 0.055519 0.253859 0.346064 0.024730 0.043987 0.155028 -0.254052 -0.170084 -0.046061 0.061271 -0.497034 -0.132548 0.166629 -0.466648 -0.454593 0.413942 -0.265090 -0.023322 0.364455 -0.473801 -0.149018 0.005129 0.169866 -0.003413 -0.059225 -0.204268 -0.200799 -0.094668 0.352809 0.477616 -0.365602 -0.222855 0.122888 0.055120 -0.033169 -0.430638 -0.193148 
动 0.266790 -0.280423 0.360598 0.310894 -0.563423 0.201551 -0.016148 -0.082850 -0.134403 0.057999 0.186064 0.621512 -0.595897 -0.531694 0.165035 0.221865 -0.188222 0.003467 -0.051255 -0.245534 0.548108 -0.556061 -0.033839 0.108133 0.067790 0.100257 -0.007696 0.553109 0.876651 0.187810 0.208942 -0.408688 0.131372 -0.062710 -0.158151 0.303661 0.264784 0.053543 0.210527 -0.045695 -0.320096 -0.232199 -0.364356 0.057008 0.272711 -0.144465 0.132024 -0.138026 0.060218 -0.153001 0.299018 -0.115796 -0.274220 0.210761 -0.005056 0.365981 -0.124608 -0.078695 0.280664 -0.375565 -0.028074 -0.230457 -0.204984 -0.420949 0.638894 0.431022 0.083456 -0.596060 0.713859 -0.095052 0.010259 0.239965 0.112276 0.278597 -0.457706 -0.151717 -0.151222 -0.284112 0.048482 -0.349179 0.193802 -0.356541 0.161891 0.223302 0.230033 0.047156 -0.273070 -0.371448 -0.367366 0.493555 -0.437703 0.270914 0.335900 -0.838749 0.376404 0.846634 -0.095931 0.518971 0.454540 -0.520688 
还 0.084875 -0.440842 -0.186403 -0.178888 0.274918 -0.271490 0.105675 -0.205852 -0.216553 -0.029300 -0.039926 -0.071450 -0.356881 0.184702 -0.248666 0.298238 0.059543 0.095389 0.014870 0.482665 0.448525 0.231307 -0.029607 0.728590 -0.109341 -0.335976 -0.060298 -0.015852 0.079641 -0.036251 -0.240501 0.346701 -0.065395 -0.231128 0.033414 -0.009538 -0.114532 -0.442459 -0.089905 -0.017720 -0.264774 0.433849 -0.282796 0.132694 0.415892 0.117232 -0.193275 0.096408 -0.177286 0.177862 0.205412 0.120176 0.197209 0.091096 -0.249515 -0.116308 0.331125 -0.267230 -0.303972 -0.065810 0.184684 -0.028269 0.199144 -0.094772 0.147163 0.099356 -0.082437 -0.105545 0.082745 0.437719 -0.647131 -0.174889 0.379871 -0.418985 -0.245617 0.054366 -0.435447 -0.198216 0.023018 -0.250628 0.113631 0.126101 0.130875 -0.590955 -0.046724 0.020068 -0.006065 0.018190 -0.048729 -0.022289 -0.102762 -0.031952 -0.097498 0.082104 -0.239192 -0.111274 0.209569 -0.006772 -0.269144 0.316854 
美 -0.253323 0.063245 0.341859 0.218986 0.034703 -0.066023 0.149111 -0.398730 0.105797 0.160735 0.171159 0.218124 -0.510310 -0.043136 -0.218949 -0.231603 -0.026282 -0.027204 -0.153276 0.044735 0.125980 0.183055 -0.057792 -0.183391 0.322830 0.012344 -0.297862 -0.200919 -0.112863 0.163551 -0.467782 -0.220482 -0.068472 0.101528 0.085046 0.320258 0.097506 0.053409 0.150195 0.213846 0.089436 -0.106585 0.287335 0.150502 -0.532564 0.256626 -0.124838 0.132151 -0.304809 -0.213156 0.021617 -0.120182 0.347426 -0.053845 -0.096056 0.333658 -0.177691 -0.032508 0.414204 -0.385871 0.094691 -0.020784 -0.016541 -0.229369 -0.181325 0.497114 -0.234835 -0.264148 -0.028742 -0.368279 -0.516311 -0.056878 0.431520 0.476100 -0.357919 0.244481 -0.105396 0.349670 -0.306439 -0.051543 0.054745 -0.063002 0.084305 -0.234183 0.156990 0.238996 0.071949 -0.213536 -0.022986 -0.057617 0.469247 0.017887 0.027323 0.212374 -0.049350 -0.110937 -0.299800 -0.088387 -0.151010 -0.275275 
址 0.563845 -0.198038 -0.033101 0.363330 -0.364368 -0.380756 -0.624481 0.741926 0.031218 -0.377822 0.599632 0.227188 0.025163 -0.272718 0.425886 0.325468 -0.279757 0.323887 -0.145835 -1.210249 0.457518 0.138572 0.237461 -0.543416 0.001075 -0.056259 0.400248 0.305375 0.464199 0.286908 0.295973 -0.517466 0.147380 0.402573 -0.126087 -0.085846 0.187558 0.132341 -0.221966 -0.042228 0.696430 -0.661097 -0.330426 0.105142 -0.341300 -0.557669 0.270531 -0.149502 0.018152 -0.470904 0.036812 -0.279390 -0.678720 -0.437329 0.293178 -0.122564 -0.773988 0.162943 0.061846 -0.972901 -0.130040 -0.078986 0.150403 0.148013 0.322996 0.524427 0.030607 -0.125678 0.612748 -0.517355 0.164734 0.264713 -0.205853 0.143205 -0.132514 -0.307694 1.006687 -0.372212 -0.406791 0.519035 -0.001786 -0.002897 0.300683 0.546683 0.106433 -0.522304 -0.671111 0.092881 0.232948 0.285003 -0.614403 1.113483 0.139750 -0.689013 -0.150604 0.637391 -0.332577 0.032074 0.730453 -0.123601 
情 -0.207830 -0.556344 0.242741 -0.321387 0.012206 0.245661 -0.040166 -0.243134 -0.190937 0.105592 0.122831 0.230138 0.051013 0.120503 -0.017915 0.330276 0.291228 0.204477 0.503076 0.393726 -0.445927 -0.260185 0.156762 0.251803 0.224014 0.032035 -0.038393 0.070836 0.553490 0.015622 -0.005155 0.129480 -0.415389 -0.082310 -0.291923 0.301414 0.428569 0.013416 -0.244166 0.127399 -0.011185 0.111287 0.325423 -0.093381 0.283154 0.177317 0.190460 -0.348509 0.167700 -0.425334 0.072484 -0.170456 -0.173308 -0.017256 -0.000370 0.381721 0.205951 -0.246777 -0.061928 -0.409709 0.039534 0.223132 -0.273471 0.419738 0.258865 -0.396442 0.147557 0.338672 0.196693 -0.061383 0.115871 -0.187955 0.124170 0.027032 0.222543 -0.225134 0.000735 -0.111889 -0.277062 0.078639 -0.084729 0.452802 -0.279751 0.030972 -0.018577 0.136420 0.300278 -0.112442 0.174811 -0.066198 0.267106 0.206681 0.217045 -0.303614 0.117900 0.071510 0.182400 -0.064812 -0.117553 0.163709 
啊 0.859036 -0.471753 -0.385426 -0.180804 -0.139155 0.709460 0.762595 0.102762 0.016907 -0.073383 0.423209 0.300166 -0.094899 -0.024500 0.219994 -0.233209 0.093007 -1.020576 -0.094875 0.446731 0.027897 0.057179 -0.774183 -0.570365 0.254681 0.844059 0.715296 -0.344703 -0.337710 -0.566708 0.056704 -0.589481 0.480651 0.568920 0.332164 0.659116 0.266534 0.348551 -0.437571 -0.155558 -0.500455 -0.122081 -0.309614 -0.005199 0.930164 -0.072701 -0.017079 0.089789 1.088735 -0.100518 0.078673 0.782329 0.606212 -0.414082 -0.083884 0.184980 0.333235 0.121580 0.716839 0.443561 0.117695 -0.583721 0.048624 -0.760923 -0.412791 -0.242628 -0.100916 0.128941 -0.136014 -0.301409 0.210720 -0.102260 -0.248560 0.583860 0.036860 0.148998 -0.005176 0.284477 -0.497688 0.189815 0.605282 -0.019543 -0.091045 0.236688 0.536372 0.071141 0.204078 -0.369968 -0.560080 -0.248798 -0.305492 -0.922495 0.119331 -0.246621 0.071719 -0.065125 0.124459 -0.197020 -0.082347 -0.060673 
说 0.128751 -0.573565 -0.104718 -0.196183 0.108042 -0.075410 0.058573 -0.505371 0.430399 0.225577 -0.087779 -0.166376 -0.489519 -0.147536 -0.348817 0.141330 -0.075991 -0.077320 0.018635 -0.175891 -0.204979 0.059223 -0.272026 0.422795 0.003934 0.185764 0.048961 0.320166 0.134136 -0.131296 -0.048021 0.260427 -0.115052 -0.320198 -0.332792 0.096918 -0.326442 -0.446924 0.035420 -0.251939 -0.561102 0.185892 0.166031 0.254153 0.203612 -0.005103 0.148648 0.056499 -0.277604 0.018588 0.038208 -0.122624 0.256900 0.448668 0.070778 -0.404395 0.235095 -0.218621 -0.211025 0.412859 0.073683 -0.117097 -0.179081 -0.074497 0.096530 0.271014 -0.068262 0.118726 -0.244792 -0.007460 -0.382919 -0.017370 0.232560 -0.312917 0.078011 0.456277 -0.505453 -0.003252 0.382274 -0.195150 0.058946 0.071853 -0.025926 -0.414261 -0.272030 0.633810 0.144069 -0.046374 -0.250086 -0.382267 0.110918 -0.065651 0.106263 -0.025135 0.090723 -0.050087 0.272742 -0.166091 0.125465 0.104225 
转 -0.175578 0.001628 0.346223 0.183482 -0.180409 -0.099095 0.018882 0.118819 -0.207010 0.302673 0.174316 0.162861 -0.327807 0.054712 -0.064192 0.091092 -0.244903 0.005801 -0.010075 -0.783973 0.291945 0.148983 0.070164 0.208066 0.395293 -0.005383 -0.176792 0.142693 0.281529 0.255317 -0.144290 -0.341064 0.081240 0.377367 -0.009883 0.205013 0.463818 0.249215 0.057854 0.296414 0.307739 -0.242528 0.021670 0.046187 -0.499725 -0.201964 -0.006676 -0.380190 0.083391 0.155229 0.372394 -0.026705 -0.463123 -0.313605 0.097940 0.178237 -0.319258 -0.113097 -0.006752 -0.386305 0.298367 0.210816 -0.141690 0.232159 0.089036 0.480517 0.034626 -0.161574 0.080750 -0.120393 0.023246 0.320551 -0.159928 0.034178 -0.290103 -0.019402 0.380717 -0.294201 -0.127721 0.132544 0.307135 -0.243482 -0.074473 0.022198 0.345696 -0.224112 -0.317732 0.095151 0.309055 0.015813 -0.155043 0.233561 0.175473 -0.094709 0.278492 0.373830 0.073909 0.346327 0.067538 -0.257361 
也 0.069381 -0.454452 -0.036555 -0.132246 0.261907 -0.043193 0.188703 -0.122369 0.222517 0.312146 -0.215459 -0.085662 -0.117533 0.084701 -0.093031 0.379902 -0.000499 -0.196372 0.291384 -0.092787 -0.090044 -0.061413 0.130764 0.082713 0.113872 0.407521 -0.172489 0.078166 0.130678 0.013191 0.093070 0.130720 -0.097451 -0.156795 0.236044 0.155294 0.161853 0.097361 -0.028166 0.003992 -0.012772 0.109221 -0.321742 0.025382 -0.192952 -0.138675 -0.087821 -0.029693 -0.064217 0.069069 0.072708 -0.121342 0.088515 -0.087247 0.039579 0.346659 0.303916 0.135654 -0.139981 -0.163047 0.218522 0.019001 0.059972 -0.050025 0.325449 -0.014943 -0.526717 0.060764 -0.022303 0.041111 -0.278698 0.027087 -0.158143 0.035290 -0.348722 0.042139 -0.481712 0.195536 -0.295072 -0.303497 0.041970 0.118426 -0.265630 -0.599988 -0.027977 0.295803 0.557059 -0.041649 0.096531 -0.215470 0.081139 -0.145556 -0.460136 0.027501 -0.240339 -0.067492 0.207639 0.131694 0.075899 0.242460 
s 0.077353 -0.854706 -0.559432 -0.492265 -0.248491 -0.310867 -0.289964 0.486629 0.653191 -0.854007 0.696319 -0.687086 -0.178394 -0.163749 -0.629289 0.540949 0.681385 0.143808 -0.118032 0.072797 -0.297617 0.654465 -0.410614 -0.448526 0.252945 0.765202 0.578205 0.057663 0.028076 0.295560 0.435937 0.273884 0.274196 0.369051 -0.531107 -0.333891 0.031600 0.994179 -0.455159 0.196202 0.464852 -0.861032 0.881605 -0.006575 -0.170550 -0.862677 0.149753 -0.263720 0.279011 -0.124342 0.061613 -0.141675 -0.327254 -0.389318 0.096474 -0.265667 -0.238074 -0.357701 0.191264 0.663159 -0.400125 0.481545 0.705909 -0.007590 -0.292289 0.036866 -0.172609 0.449265 -0.656515 -0.793792 0.760397 -0.714423 0.182769 0.079465 0.568117 0.265247 0.983623 -0.312660 -0.676437 0.873765 -0.114732 -0.215852 -0.789438 0.582888 -0.190052 -0.566253 -0.308496 0.236282 -0.032105 -0.216394 -0.116618 0.261909 0.421959 -0.082339 -0.091969 0.193209 -0.291611 0.016073 -0.365285 -0.939824 
和 0.386378 -0.258677 0.048528 -0.377214 -0.019878 0.072756 0.152317 -0.101178 0.120094 -0.074403 0.569081 0.024795 -0.357048 0.146216 -0.261091 0.482545 0.178447 0.149167 0.131659 -0.165740 0.009744 -0.024403 0.187780 -0.368923 0.298759 0.180179 -0.293708 -0.020335 -0.109824 0.062454 -0.115294 -0.269931 -0.480018 0.183664 -0.315982 0.106432 0.004678 -0.050636 -0.081644 -0.329875 0.156196 -0.319820 -0.009721 0.744638 -0.503265 0.472453 0.281014 0.071278 -0.503212 -0.137920 0.156712 -0.170704 -0.044928 0.280587 0.323072 -0.228824 0.287128 0.380534 -0.083174 -0.365359 0.282342 -0.406634 0.025480 -0.161805 0.483435 0.446035 -0.246257 -0.142696 0.040928 -0.494403 -0.511938 0.099733 0.183477 -0.227009 0.016229 0.158566 0.184181 0.276394 -0.055495 0.121235 0.284301 -0.214942 0.360693 -0.035606 -0.305598 0.587810 0.263544 -0.056734 0.275407 -0.171817 -0.044716 0.284055 0.210307 -0.029705 -0.055221 0.140200 0.302892 0.041913 0.059245 -0.241928 
很 0.028413 -0.674411 -0.144328 -0.840070 0.046417 -0.054581 0.166240 -0.261516 0.162192 -0.321852 -0.153257 -0.195605 -0.490262 0.044395 -0.070523 0.445944 0.022399 0.038465 0.279953 0.456115 -0.207670 -0.183580 -0.094305 0.069504 -0.296881 0.206024 0.207094 0.084859 0.161056 -0.056716 -0.422797 0.191383 -0.116367 0.011227 -0.299469 -0.288484 0.051010 0.323077 -0.142184 -0.190745 0.184088 0.077169 -0.333501 0.235918 0.103194 -0.167049 0.238840 -0.137930 -0.065624 0.120724 0.107438 -0.179170 -0.323831 0.280945 -0.085532 0.377909 0.534519 -0.097194 -0.117423 0.278276 0.029689 0.117317 0.204301 0.001037 0.341615 -0.407340 -0.151485 0.157754 0.304670 -0.008332 0.198631 -0.231674 -0.012181 -0.224737 0.088093 0.169663 -0.085178 -0.078451 0.005296 0.362493 -0.045307 0.002756 -0.035365 0.139126 -0.603301 0.394103 0.167561 0.131233 0.006296 -0.089830 0.269641 0.108349 0.060764 -0.110723 0.111911 0.016812 0.186083 0.239770 -0.035169 0.308351 
活 -0.206638 0.450015 1.156206 0.021785 -0.639029 -0.046620 0.432208 0.544371 0.200443 0.115105 0.410179 0.591574 -0.070390 -0.109856 0.161869 0.124012 -0.025352 0.031017 -0.247616 0.208377 0.113047 -0.022977 -0.215914 0.198512 0.324535 -0.146497 -0.010064 0.074041 0.330885 0.010965 -0.387885 0.151973 -0.176296 0.158356 -0.035232 0.221582 0.034262 -0.186502 -0.010876 0.043007 -0.343597 0.168320 -0.225430 0.231434 0.243370 -0.178855 0.587008 -0.074625 0.238428 -0.104293 0.483581 0.185055 0.217214 0.211058 -0.327985 0.076381 -0.330131 0.211483 0.307048 -0.489973 -0.124965 -0.307147 0.050890 -0.275222 0.500322 0.658258 0.042429 -0.500304 0.380400 0.048892 -0.080983 0.079735 -0.135145 0.064725 -0.195498 0.087085 0.078483 -0.278801 0.232895 -0.084631 0.066863 0.054728 -0.254307 0.105903 0.070338 -0.316970 -0.253075 -0.016408 -0.703784 0.211399 -0.214761 0.260552 -0.117992 -0.602659 0.127938 0.424881 -0.166208 0.096133 -0.171702 -0.250593 
i 0.075799 -0.490647 -0.633817 -0.070239 -0.449306 -0.097442 0.140888 0.177105 0.103525 -0.540208 0.701871 -0.113817 0.052184 -0.039370 -0.368006 0.150461 0.203737 -0.106865 0.129848 -0.091801 -0.003960 0.642652 -0.115126 -1.071835 0.814667 -0.072897 0.058597 -0.122621 -0.024547 0.281029 -0.454124 -0.071309 0.250029 0.762158 -0.393486 0.175431 -0.332618 0.273650 -0.359225 0.113347 0.948299 -0.519199 1.000297 -0.301885 -0.047473 -0.234609 -0.237922 0.076159 0.098009 0.005067 -0.348394 -0.385071 -0.042851 -0.312273 -0.439777 -0.251967 0.164269 0.022157 0.445738 0.011224 -0.150122 0.032906 0.635650 0.257896 -0.167609 -0.425344 -0.160448 0.818662 -0.491742 -0.491869 -0.420861 -0.323779 0.439097 -0.034102 0.408655 0.413142 0.661502 0.212963 -0.622914 0.478521 0.074217 0.189039 -0.139454 -0.125894 -0.082809 -0.607664 -0.332049 0.610398 0.482065 -0.437740 -0.162751 0.226520 -0.073229 -0.130996 -0.066111 -0.058922 -0.190044 -0.008162 -0.273677 -0.706251 
a 0.061402 -0.935009 -1.060140 -0.190237 -0.116998 -0.265158 -0.090374 -0.088733 0.344418 -0.323627 0.541790 -0.474767 -0.432628 -0.218942 -0.453696 0.383684 0.529709 0.419149 0.198476 -0.028072 0.156712 1.035462 -0.272199 -0.550908 0.714349 0.321911 0.502216 -0.456772 -0.394394 0.268868 0.084972 -0.289146 0.705475 0.845389 -0.121056 0.052351 0.106413 0.437276 -0.635258 0.181942 0.508924 -0.613909 0.886954 0.095935 -0.034942 -0.467503 -0.258508 -0.381141 0.266254 -0.198201 -0.377724 0.021852 -0.171936 -0.870457 -0.327300 -0.363571 -0.172136 -0.463353 0.650771 0.354781 0.059941 0.047999 0.268287 -0.297705 -0.782813 0.088212 -0.084232 0.560107 -0.683187 -0.653622 -0.041965 -0.543905 0.678604 0.534014 0.163224 0.546103 0.708234 -0.172729 -1.046752 0.850463 0.240000 -0.194652 0.058606 -0.076822 0.201955 -0.624487 -0.648631 -0.075673 0.265654 -0.275862 -0.140765 -0.037934 0.838853 0.123719 0.146438 -0.051446 -0.107056 -0.454777 -0.411008 -0.811500 
真 -0.133532 0.182707 0.067966 -0.288964 -0.027238 0.235339 0.587765 0.090044 -0.333484 0.055621 -0.157795 0.413828 0.334218 0.177272 0.190159 0.060924 -0.118190 0.190070 0.412275 0.566043 0.019613 -0.216572 0.331061 0.052532 0.403553 -0.090126 -0.106787 0.226798 -0.003072 -0.091029 0.042246 0.212034 0.196737 0.170124 0.079682 0.055828 0.160840 0.075422 -0.459455 -0.185490 0.052882 0.287532 0.047276 -0.168235 0.443902 -0.058569 0.103084 -0.260208 0.158918 0.112291 0.186777 0.310150 -0.259143 0.014777 -0.187216 -0.304388 0.071797 0.154466 -0.003629 -0.283990 0.224448 -0.415898 0.063334 0.346479 0.457111 -0.492509 -0.207715 0.222924 0.376558 0.066543 -0.180557 0.000812 -0.271820 0.025164 0.159018 -0.141245 0.116670 0.251989 -0.268175 -0.067439 0.334811 0.271447 0.032759 -0.114798 0.166878 0.135229 -0.111222 0.304152 0.340880 -0.130677 -0.395748 0.076138 -0.010138 -0.237260 0.100998 0.002231 0.272425 -0.167826 -0.168876 0.196225 
开 0.083616 -0.115495 0.348121 0.167603 -0.174300 0.434561 0.439387 0.105451 -0.238611 -0.039348 0.164964 0.393270 -0.059291 -0.274925 -0.001443 0.137546 0.166652 0.073290 -0.102077 0.209983 0.232514 -0.101693 -0.313906 -0.308110 -0.040785 -0.042931 -0.114546 0.189446 -0.036700 0.125824 -0.165165 -0.123426 0.227118 0.010968 0.113852 0.016690 -0.040514 -0.068642 -0.061832 -0.088893 -0.310347 0.053040 -0.315379 -0.023234 0.198047 -0.084736 -0.121795 0.156563 0.043943 -0.149674 0.385926 0.068609 0.207038 0.000465 -0.667778 -0.071414 -0.531752 -0.164352 0.539598 0.096439 0.041925 0.021964 0.193723 -0.462737 -0.057083 -0.008778 0.174505 -0.117423 0.289827 -0.044361 -0.057799 -0.072803 -0.233285 0.399723 -0.452471 0.138747 -0.206589 0.203224 -0.194696 -0.090350 -0.058354 -0.025038 -0.289922 0.040363 0.314663 0.136083 -0.255260 -0.022732 -0.027726 0.139449 -0.265147 0.262117 -0.345440 -0.075614 0.124739 0.468975 -0.197744 0.246676 0.118893 -0.360575 
起 -0.075042 -0.236704 0.384582 -0.445643 -0.186484 0.379581 0.133458 0.099762 -0.093096 0.051940 0.277117 -0.011026 -0.609577 0.188182 -0.106545 0.204620 0.303792 0.183973 -0.177681 0.234688 0.071610 -0.127060 -0.203598 -0.020584 0.067942 0.174972 -0.161567 0.007122 -0.043825 -0.166588 0.035226 0.101474 -0.020657 -0.034119 -0.047295 -0.144698 0.177344 0.033981 -0.189375 -0.008028 -0.139870 -0.106790 0.038154 0.114024 -0.193958 0.372161 0.427358 -0.122240 -0.119730 0.315080 0.524709 0.120957 0.063491 0.311760 0.123628 -0.136732 0.033381 -0.042405 0.069189 0.019919 0.229751 -0.180455 0.381728 -0.006427 -0.040388 0.106642 -0.047063 0.087199 -0.118428 -0.214139 -0.248390 0.097724 -0.301683 -0.160312 -0.127182 0.427659 -0.485117 0.127997 0.123694 -0.197307 -0.189463 -0.097790 -0.129760 -0.330087 -0.010481 0.390291 0.009984 0.100115 -0.420617 0.039360 -0.164385 0.058625 -0.728549 -0.369842 -0.090655 -0.016379 -0.075512 0.199598 -0.122835 -0.338206 
吧 0.162839 -0.352334 -0.080488 0.065433 0.133078 0.417005 0.156704 -0.174453 0.105581 0.199207 0.242090 0.256833 -0.497182 -0.193789 -0.012190 0.341814 0.123605 -0.025770 -0.078738 -0.199309 0.273703 -0.037535 -0.185578 -0.261473 -0.216373 0.161997 0.108189 -0.157544 -0.043805 -0.121283 0.197861 -0.366145 0.167589 0.024647 0.039773 0.014610 -0.050604 0.276942 0.293673 0.028864 -0.179476 -0.145529 0.067879 -0.078887 -0.102713 0.118654 0.252668 -0.003750 0.211880 -0.420965 0.103988 0.044328 -0.131262 -0.452499 -0.231247 0.299011 -0.062328 -0.303299 0.541763 -0.430566 0.179465 0.116041 -0.191550 0.037838 -0.408186 0.198996 0.300942 0.225054 0.198379 -0.390848 0.018992 0.118400 -0.003021 0.639008 -0.331762 -0.106549 -0.054971 -0.134558 -0.332405 -0.195277 -0.077340 0.360033 0.189862 -0.068669 0.199106 0.228696 0.048345 -0.446323 -0.215137 0.036707 -0.132352 0.135185 -0.015297 -0.054584 0.056685 0.267255 -0.266843 -0.444495 0.217785 0.000884 
年 -0.261460 0.093117 -0.253245 -0.360555 0.094116 0.019231 0.075174 -0.127967 0.165390 -0.143026 -0.361694 0.054264 -0.290191 -0.040442 0.250569 0.373853 0.237961 0.861509 0.048360 0.685410 0.333204 -0.475343 0.077739 -0.053645 -0.288877 -0.117394 0.001143 0.702488 -0.127138 -0.188086 0.036093 -0.020561 0.407331 -0.017652 -0.164588 -0.450487 -0.050372 0.602563 -0.320058 -0.073788 -0.459413 0.193641 0.204389 0.103282 0.352788 -0.085622 0.217383 -0.113916 -0.181969 -0.243865 -0.362021 0.134353 -0.491940 0.221119 0.263585 -0.457545 -0.074387 -0.315572 -0.133604 0.145310 0.026241 -0.358095 0.095927 -0.159844 0.484309 -0.577030 -0.144792 -0.097000 0.852425 0.018738 0.011258 -0.530793 -0.009698 -0.375510 0.124959 0.344103 0.175378 0.070366 -0.131328 0.316979 0.062330 -0.302872 0.129240 0.171903 -0.326239 -0.360372 -0.121184 -0.092740 -0.116647 0.474040 -0.170674 0.206358 0.652685 0.176847 0.086048 0.533377 0.111559 -0.546818 0.684182 -0.091396 
没 -0.039404 -0.278575 0.127703 -0.235239 -0.137595 0.424145 0.519076 -0.076067 -0.007707 -0.064234 0.216257 0.266315 -0.486773 0.226946 0.178979 0.482501 0.274566 -0.048026 -0.027109 0.613482 -0.157436 -0.510989 -0.176054 0.011801 -0.563699 -0.306282 -0.194509 0.378538 0.127444 -0.358690 -0.097709 0.070715 -0.385376 -0.214932 -0.420977 -0.148632 -0.279862 -0.257181 0.362781 -0.231729 -0.661365 0.395291 -0.066450 -0.000122 0.323839 0.370107 0.224044 0.231044 0.014799 -0.165818 0.283064 -0.005382 0.216717 0.489473 -0.142421 0.073746 0.152063 -0.214720 0.144513 -0.234028 0.239837 -0.136222 -0.092417 -0.033988 0.183385 -0.097665 0.146985 -0.128623 0.225941 0.128559 -0.257948 0.263034 -0.015393 -0.457447 0.034167 0.450045 -0.608958 0.226647 0.312487 -0.415518 0.080657 0.345753 -0.270923 0.078083 -0.046833 0.344173 0.521907 -0.095594 -0.261946 -0.039119 -0.214661 0.190361 -0.277083 -0.102818 0.146599 0.088860 0.051051 0.054414 0.117892 0.204722 
z 0.105133 -0.822217 -0.414836 0.199634 -0.177271 -0.887799 -0.619473 0.743112 0.195221 -0.816589 0.077318 -0.140721 -0.254003 -0.104647 0.137281 0.647645 0.220090 0.717557 -0.125273 -0.055302 -0.477831 0.627742 -0.257800 -0.386359 -0.309998 -0.068787 0.528682 -0.279977 0.386989 0.151107 0.357733 0.272863 0.478727 0.705660 -0.611662 -0.328958 0.005631 0.382275 -0.672652 -0.207898 0.521409 -0.659672 0.580175 0.144477 0.066691 -0.677542 0.093877 -0.750621 0.276560 -0.517330 0.077993 0.319939 -0.439329 -0.740237 -0.196000 0.166179 -0.750971 -0.573305 0.153845 -0.231227 -0.860638 0.005677 0.098155 0.145978 -0.474467 -0.109597 0.088361 0.512036 -0.119378 -0.458682 0.496306 0.047972 0.030088 0.352346 0.168630 -0.169640 0.642775 -0.421139 -1.211049 0.452369 -0.123606 0.428029 -0.148428 0.589566 0.010373 -0.643710 -0.638430 0.187256 1.113407 0.270866 -0.521215 0.850088 0.515704 0.115297 0.030714 0.493457 -0.229586 -0.322762 0.222286 -0.187553 
用 0.133411 -0.196564 0.249301 0.049259 -0.025028 0.160744 0.143071 0.141412 -0.108184 0.039175 0.082456 0.073620 0.066206 0.405214 0.305578 0.264502 0.290648 0.353478 -0.060932 -0.067659 -0.204847 -0.302985 -0.044646 -0.194482 -0.193257 -0.102187 -0.038983 0.047947 -0.197051 -0.117459 0.018377 -0.023043 -0.283721 0.006201 -0.030589 -0.013665 0.045925 0.081129 -0.050701 -0.027758 -0.223855 0.258110 -0.059538 0.043362 -0.068675 0.136566 -0.172079 -0.100605 0.049897 -0.216829 -0.144208 -0.133269 0.001078 -0.014025 -0.175270 -0.002170 -0.065359 -0.013587 0.036009 -0.127468 0.318642 -0.212715 -0.250382 -0.337239 -0.081472 -0.258719 0.015076 -0.101593 0.107742 -0.016885 -0.022924 0.091415 -0.141551 -0.248214 -0.180881 0.221707 -0.314538 0.197986 -0.132217 -0.182185 -0.023485 -0.045844 -0.256469 0.176501 0.143963 0.091778 0.255430 -0.202784 0.322569 0.261922 0.031464 0.062468 -0.056981 0.212606 0.285579 0.323250 0.120911 0.126814 0.045459 -0.067883 
快 -0.157463 0.447816 0.014880 -0.363831 0.249330 -0.142640 0.310211 0.188350 0.361322 0.281575 -0.067834 0.108845 -0.296654 0.032117 0.009764 0.257316 -0.112616 -0.316557 0.112729 -0.008794 -0.286993 -0.025405 -0.025771 -0.336004 -0.004593 0.412117 0.037085 -0.162034 -0.156624 0.040291 -0.358204 -0.041029 -0.144267 0.294532 0.093885 0.060768 -0.085926 0.520049 0.086372 -0.025795 0.041989 -0.145868 0.158675 0.459017 -0.342329 -0.001369 0.318829 -0.153296 0.120160 -0.092546 0.132962 0.271157 0.001085 -0.076316 -0.000065 0.352793 0.069889 0.196161 0.213896 -0.570412 -0.072010 -0.119090 -0.029920 -0.168600 -0.265185 0.119614 -0.033736 -0.007894 0.047046 -0.259139 0.121704 0.294585 -0.109428 0.299853 0.005247 0.040371 0.113166 0.295990 0.092164 0.098866 -0.043291 -0.173801 0.001421 0.170589 -0.137354 0.179804 0.451361 -0.010316 -0.151815 -0.243084 0.095757 -0.155202 0.034960 0.239206 0.170906 -0.080817 -0.085458 -0.275515 -0.113837 0.223290 
出 0.150811 -0.233316 0.136059 -0.159208 0.060144 0.071807 0.249331 -0.013468 -0.360115 0.114402 0.178843 0.226749 -0.199684 0.098580 0.016548 0.648576 -0.070083 -0.315162 -0.029559 0.165336 0.261236 -0.311724 0.056341 -0.028717 0.135993 0.033348 -0.176406 0.012657 0.028135 -0.007012 -0.013668 -0.094701 -0.226575 -0.112133 -0.172256 -0.059222 0.224365 0.107851 0.101420 -0.144234 0.054497 0.108143 -0.183606 0.007880 -0.041926 0.242077 0.181417 0.127236 -0.100748 -0.116318 0.141493 -0.152894 -0.388897 -0.033559 0.169793 0.062575 0.369203 -0.155875 -0.276079 -0.069098 0.093810 0.276850 0.187379 0.243624 0.407819 -0.083546 -0.045357 -0.119795 -0.096934 -0.079744 -0.196792 -0.050274 -0.134942 -0.290877 -0.184826 -0.299948 0.021178 -0.012739 -0.427025 -0.416511 0.066002 0.169762 -0.079778 -0.196744 -0.096235 0.242416 0.255051 0.018111 0.442281 -0.097751 -0.241479 0.115344 -0.190721 0.022903 0.044355 0.528238 0.190691 0.234167 0.154628 0.065165 
感 -0.092803 -0.487413 0.132365 -0.153456 -0.316392 0.412415 0.515469 0.086710 -0.053463 -0.242323 -0.330182 0.158734 -0.374343 0.501249 0.210495 0.118003 0.183387 0.005253 -0.022184 1.215913 0.138534 -0.323037 -0.080460 0.467289 -0.031596 0.043385 -0.301817 0.067821 0.093104 -0.403920 0.041336 0.185153 0.103143 -0.111426 0.133140 0.010286 0.487103 0.188311 -0.079697 0.114937 -0.512545 0.329112 -0.131981 -0.290379 0.616618 0.418521 0.051567 -0.285619 0.442223 0.464018 0.016747 0.490780 0.115362 -0.259588 -0.046532 0.608127 0.495469 0.038578 -0.084561 0.048350 0.107081 -0.411645 -0.083230 -0.526689 0.323596 -0.402595 -0.626565 -0.152199 0.131326 0.426294 -0.252400 0.101398 -0.621021 -0.194116 -0.242527 0.329403 -0.907876 0.132728 -0.338905 -0.592295 0.152157 0.093563 -0.401341 -0.104506 0.485781 0.249247 0.490277 -0.473233 -0.353193 0.393632 -0.131821 -0.431579 -0.729942 -0.191057 0.181769 0.291111 0.272166 0.413184 -0.236625 0.012230 
女 0.028918 -0.291961 -0.078381 0.074776 0.232027 -0.237324 0.143408 -0.063700 0.166620 0.354856 0.083963 -0.077813 0.335986 0.695212 0.028166 0.090630 0.246610 1.071201 0.289944 0.230851 -0.371761 0.063499 0.342391 0.423184 -0.105112 -0.034760 0.182184 0.166546 0.009765 0.068488 0.493697 0.187563 0.023373 -0.274196 0.055565 0.076469 -0.115265 -0.409612 -0.062135 -0.269899 -0.339350 0.454175 0.117987 0.058381 0.080188 -0.057462 -0.277882 -0.139389 -0.357748 -0.106140 -0.065208 -0.308947 -0.257363 0.028358 0.442936 -0.564983 -0.078486 -0.428371 -0.443250 -0.079616 0.703320 -0.192297 -0.474148 0.037519 -0.101386 0.374872 0.043487 0.084530 -0.257464 -0.178932 -0.435303 -0.220234 0.372073 -0.451666 -0.143472 0.375735 -0.516126 -0.064791 -0.101285 -0.072138 0.132660 -0.003104 -0.445219 -0.286595 -0.049712 0.225568 0.201106 -0.235010 0.255621 0.017856 -0.009519 0.140328 0.691948 0.103788 -0.177665 0.010507 0.261717 -0.463561 -0.148738 -0.220189 
力 0.030825 -0.311847 0.304805 -0.415568 -0.247041 0.258107 -0.001679 0.045802 -0.830980 -0.094546 0.259090 0.169590 -0.517399 0.118166 0.186574 0.368415 -0.101918 0.292105 0.044617 -0.167932 0.357706 -0.198271 0.083339 0.163942 0.106529 -0.419606 -0.282685 -0.146003 -0.102938 0.292991 -0.107177 -0.230233 -0.276069 0.352155 0.406236 -0.040037 0.424210 -0.020206 0.021865 0.178891 0.324295 -0.133508 -0.186915 -0.013465 0.072227 0.410599 0.329790 -0.139012 0.195965 0.531591 0.099444 0.303010 -0.071881 -0.080372 0.287478 -0.047517 0.196469 0.323577 -0.126738 -0.318792 0.169316 -0.200390 0.038644 -0.074839 0.267675 -0.139604 -0.128612 -0.217663 0.446757 0.239854 -0.056931 0.242923 -0.504477 -0.287303 0.040963 0.127425 -0.122322 -0.166964 -0.003520 -0.201641 0.061230 -0.553310 0.447995 0.057602 0.265289 0.225704 -0.260549 -0.207236 -0.116973 0.454491 -0.063188 0.046261 -0.918455 -0.393180 0.203027 0.242076 0.207298 0.292022 -0.267454 -0.005824 
那 0.468248 -0.726606 -0.337477 -0.223044 0.224304 0.442979 0.519061 -0.362704 0.172837 -0.055804 -0.294313 0.317528 -0.000953 0.350250 0.123978 -0.061353 -0.253589 0.118253 -0.060374 0.024817 -0.200719 -0.308009 -0.177139 0.494229 -0.036068 0.334699 0.258658 0.373358 0.005174 0.166206 0.133707 0.352935 0.076379 -0.074387 0.056064 0.143830 0.119823 -0.093220 -0.281272 -0.029736 -0.274671 0.344465 -0.376509 0.027344 0.267289 -0.028925 -0.161783 0.128510 -0.123876 0.330818 0.175655 -0.124681 0.167175 0.312898 0.023646 -0.376805 0.169294 -0.002547 -0.578666 0.213142 0.534627 -0.243532 -0.149744 -0.203096 0.248444 -0.244977 -0.465556 0.206852 -0.090958 -0.074132 -0.464714 -0.133621 -0.473579 -0.311160 -0.176201 0.205841 -0.505009 0.053359 0.342157 -0.094244 0.092535 -0.115592 -0.410845 -0.270279 -0.042074 0.323637 0.189986 -0.185854 0.036634 0.119772 0.268316 -0.139329 -0.259733 -0.031225 -0.125876 0.224190 0.000649 0.281202 -0.038613 0.043321 
~ 0.050617 -0.121480 -0.021500 -0.001405 -0.083389 0.020063 -0.165686 0.265079 0.050531 -0.099187 -0.023702 0.013578 -0.486303 -0.319344 0.117572 -0.398765 -0.278135 0.176509 -0.062344 -0.901764 0.681974 0.167480 -0.041531 -0.299770 -0.231657 0.275010 0.482634 0.244526 0.503838 0.100244 0.317242 -0.620583 0.549268 0.128206 0.336163 -0.028595 0.267446 0.659213 0.048515 0.229699 0.336849 -0.667418 -0.607425 0.017330 -0.082236 -0.574386 -0.038782 0.196557 -0.163440 -0.155819 0.160926 0.080780 -0.494447 -0.491671 0.169283 0.072865 -0.362582 0.190676 0.315641 0.018943 -0.080033 -0.079895 0.168483 -0.547042 -0.052199 0.410330 -0.157036 -0.222817 0.537115 -0.188560 -0.040871 -0.099503 -0.119045 0.780215 -0.577875 -0.324635 0.105564 -0.399294 -0.374851 0.053731 -0.063602 -0.526546 0.325935 0.320732 0.140671 -0.034252 -0.746482 -0.213339 -0.601422 0.426247 -0.422793 0.175857 0.311489 -0.541212 0.057267 0.391930 -0.293040 0.184778 0.232793 -0.078999 
手 -0.036330 -0.297241 0.147540 -0.072251 -0.221012 0.119992 0.264211 -0.075031 -0.017950 -0.122561 -0.071377 -0.099151 -0.102369 0.215685 0.100356 0.362435 0.011785 0.482891 -0.189380 -0.426646 0.542817 -0.067233 0.175474 0.153379 0.150091 -0.095105 -0.149393 0.422665 -0.084612 0.047084 0.069922 -0.064134 0.166786 -0.047385 0.024521 0.043797 0.122554 0.046107 0.032251 0.273394 0.146960 -0.162094 -0.171846 0.131247 -0.457878 -0.074537 0.165914 -0.177541 -0.241327 -0.043932 -0.061098 -0.328589 -0.337915 -0.287137 0.010287 -0.152742 -0.228004 0.009610 -0.082994 -0.101727 0.186886 -0.236530 -0.047955 -0.198115 0.375873 0.288343 -0.022908 -0.225469 0.304651 -0.194714 -0.399773 -0.194073 -0.192159 0.035587 -0.161114 0.489098 0.182189 -0.192960 -0.249380 0.196980 -0.095491 -0.056012 -0.050337 0.029662 0.281206 -0.031085 -0.006219 -0.216267 -0.109173 0.482186 -0.017664 0.566104 0.391499 -0.190028 0.275085 0.559559 0.125653 0.100768 0.211847 -0.085630 
持 -0.211599 -0.349932 1.412596 -0.035109 -0.868242 -0.902825 -0.445567 0.373553 0.250464 0.473376 0.552249 0.325831 -0.520656 -0.180727 0.250663 0.355315 -0.061810 0.234876 -0.086196 -0.667975 -0.214534 -0.113610 -0.039462 0.245989 0.482947 -0.759196 -0.437080 -0.440890 1.295459 0.512139 -0.202839 -0.539537 -0.714750 0.358930 -0.310287 -0.010938 0.492535 0.176769 0.819741 0.163238 0.221468 -0.160817 0.310343 -0.316904 -0.327116 0.145798 0.385082 0.130510 -0.502168 -0.413742 0.472046 -0.619546 -0.396342 0.402515 0.092182 0.313789 0.063114 -0.192226 -0.160641 -0.833684 -0.088908 -0.107655 -0.518840 0.254782 0.062310 0.817738 -0.019311 -0.832758 -0.020636 0.212891 -0.155196 0.209943 0.570450 -0.086182 -0.543277 -0.447359 -0.147120 -0.924341 0.203519 -0.588058 -0.352286 -0.309590 -0.221808 -0.273239 -0.439027 -0.006185 -0.167575 0.023150 0.119562 0.159008 0.239764 0.192230 0.766903 -0.286879 0.607693 1.115870 0.124282 0.644911 -0.162254 -0.363999 
