</s> 0.004003 0.004419 -0.003830 -0.003278 0.001367 0.003021 0.000941 0.000211 -0.003604 0.002218 -0.004356 0.001250 -0.000751 -0.000957 -0.003316 -0.001882 0.002579 0.003025 0.002969 0.001597 0.001545 -0.003803 -0.004096 0.004970 0.003801 0.003090 -0.000604 0.004016 -0.000495 0.000735 -0.000149 -0.002983 0.001312 -0.001337 -0.003825 0.004754 0.004379 -0.001095 -0.000226 0.000509 -0.003638 -0.004007 0.004555 0.000063 -0.002582 -0.003042 -0.003076 0.001697 0.000201 0.001331 -0.004214 -0.003808 -0.000130 0.001144 0.002550 -0.003170 0.004080 0.000927 0.001120 -0.000608 0.002986 -0.002288 -0.002097 0.002158 -0.000753 0.001031 0.001805 -0.004089 -0.001983 0.002914 0.004232 0.003932 -0.003047 -0.002108 -0.000909 0.002001 -0.003788 0.002998 0.002788 -0.001599 -0.001552 -0.002238 0.004229 0.003912 -0.001180 0.004215 0.004820 0.001815 0.004983 -0.003111 -0.001532 -0.002107 -0.002907 0.002815 0.001579 0.000425 -0.002194 0.001524 0.003059 0.000194
， -0.116296 -0.547191 -0.102826 -0.301274 0.135451 0.042398 0.166923 -0.113862 -0.175643 0.115091 0.164092 0.116624 -0.128292 0.078761 -0.078514 0.417291 0.141711 -0.021806 -0.167494 0.275581 -0.150740 -0.004202 -0.048506 -0.044303 -0.012873 -0.114515 -0.063242 0.127803 0.061663 0.263600 0.128573 -0.088702 -0.151420 -0.005250 -0.048771 -0.013765 0.296727 -0.028245 -0.056138 0.159365 -0.123665 0.033050 -0.059368 0.069204 0.097599 0.268447 -0.025207 -0.067851 -0.064221 0.115339 0.054764 0.080885 -0.055864 0.190383 0.003112 0.078528 0.000023 0.124715 -0.276774 0.154924 -0.111273 -0.265069 -0.370934 -0.175722 -0.128617 0.054688 0.038681 0.050795 0.138379 -0.116788 -0.115146 0.270240 0.274111 0.099920 -0.109052 -0.076949 -0.058762 -0.264920 0.171969 0.032553 0.136784 0.005129 0.119735 -0.192861 0.009196 0.162646 0.091013 0.128714 0.064829 0.134353 -0.206198 0.109056 0.095046 0.251538 0.132723 0.227397 0.048724 0.050744 0.211506 -0.090164 
de -0.092061 -0.511209 0.292311 -0.340931 0.176338 0.059499 -0.078453 -0.044332 -0.119063 0.260908 -0.047873 -0.036298 -0.104967 -0.011005 -0.007101 0.170241 0.075208 -0.127181 0.212928 0.070128 -0.113496 0.068623 0.166199 -0.021078 0.086711 -0.088772 -0.239661 0.204596 -0.030165 -0.099153 -0.028513 -0.204307 -0.021668 -0.123336 -0.013210 0.289147 0.297078 -0.082882 -0.038372 0.003126 -0.224343 0.099224 -0.553163 -0.134563 0.256483 0.313108 -0.204442 0.303331 0.119852 -0.000864 0.324565 0.000626 0.094156 0.238478 -0.080845 0.225930 0.192270 0.091740 -0.190118 0.030385 0.086893 -0.240201 -0.229761 -0.071761 0.123868 -0.031506 0.036643 0.136019 0.242345 0.042764 -0.082942 0.240978 -0.004156 -0.134145 0.215941 -0.003956 -0.210739 -0.181625 0.173472 -0.148730 0.081843 0.141823 0.134258 -0.186699 -0.189682 0.566037 -0.047729 -0.023347 0.105573 0.165827 -0.002978 0.208044 0.088141 0.238849 0.148293 0.092888 -0.189601 0.068102 0.107179 0.021321 
shi -0.082001 -1.353032 0.197614 -0.452110 0.402544 -0.267671 -0.094284 -0.205399 -0.558315 0.417411 -0.058819 0.223720 -0.086766 0.172639 -0.060250 0.316102 0.230294 0.096090 0.205974 0.008809 -0.017875 -0.177444 -0.089285 -0.090802 0.070832 -0.373825 -0.053456 0.146255 -0.056740 -0.436720 -0.005880 -0.164914 -0.114182 0.158322 0.092568 -0.058828 0.172881 0.135860 0.059978 0.111525 -0.226999 -0.160837 -0.248896 0.052391 0.258790 0.094488 -0.015294 -0.065454 0.076029 -0.063781 0.146572 0.032986 -0.156153 0.303743 0.119359 0.044063 0.207884 0.000914 -0.344838 0.059964 0.073050 -0.304598 0.257761 -0.254367 0.034842 0.077685 -0.106100 0.055876 0.257325 0.313794 0.032841 0.192496 -0.122546 -0.063221 -0.111484 0.118241 -0.275817 -0.051914 -0.019718 0.173214 -0.018935 0.036536 -0.032676 -0.254125 0.127003 0.283496 -0.096542 0.014416 0.236341 0.274984 -0.178634 -0.012065 -0.084662 0.285607 -0.023291 0.303948 0.011807 0.104657 0.166400 0.150325 
yi -0.152317 -0.197506 0.204738 -0.295673 0.469155 0.011503 -0.080698 0.147677 -0.301879 0.279220 -0.148072 0.175132 0.094802 0.097120 -0.005655 0.360247 -0.012275 -0.030529 0.102538 0.173505 0.093673 -0.145713 0.215821 -0.247935 0.239699 -0.131681 -0.454336 0.122120 0.174936 -0.059344 0.066045 0.048557 -0.024080 0.077157 -0.329841 0.369289 0.415955 -0.000473 0.136901 -0.148351 -0.412772 0.374856 -0.642199 -0.422371 0.163958 0.358560 -0.139719 0.142089 0.208460 -0.252252 0.147491 0.221991 0.057635 0.045014 -0.123573 -0.068566 0.178101 0.059829 -0.073938 0.129932 -0.002056 -0.209416 0.019749 -0.303214 -0.042050 0.058001 -0.119789 -0.055597 0.194733 0.314753 -0.181168 0.309512 -0.093110 -0.337707 -0.096042 -0.097694 -0.171742 -0.181787 -0.001660 0.058935 0.113893 0.128977 0.147033 -0.220463 -0.422334 0.276955 0.017936 0.120589 0.195135 0.054318 0.067441 0.142568 0.357767 0.478309 0.073714 0.066167 -0.127031 0.615703 0.454437 0.133693 
。 0.221348 -0.542639 -0.030034 -0.126108 -0.154313 -0.324751 -0.015016 -0.059899 -0.194894 0.115377 0.028522 0.116458 -0.143129 0.190126 -0.140699 0.086464 0.348812 -0.072108 -0.228350 -0.054530 -0.219732 -0.008558 0.229809 -0.115879 -0.121038 -0.386587 -0.333367 -0.053325 0.048568 0.058528 0.153240 -0.268058 -0.038965 -0.334573 0.097886 -0.263931 0.152505 0.229394 -0.008218 -0.002038 -0.065718 -0.219470 -0.009546 -0.052426 -0.239090 0.045958 0.039726 0.044683 -0.202631 0.133332 0.112006 0.068661 0.065721 0.241316 0.119011 0.171158 -0.041703 0.117992 -0.452276 0.347593 -0.215660 -0.533175 -0.023407 -0.246958 -0.039838 0.100271 -0.014888 -0.222144 0.421721 0.044138 -0.104020 -0.139307 0.258724 0.422765 -0.023471 -0.134726 -0.092339 -0.311870 -0.008334 -0.061064 0.026768 0.231155 0.268546 -0.085837 0.200492 0.340256 -0.026047 0.124321 -0.085621 0.058167 -0.096907 0.093303 -0.237172 -0.368058 0.152317 0.410319 -0.040435 -0.046875 0.222823 -0.017136 
wo -0.160207 -0.724573 0.071683 -0.319871 0.297223 0.032246 0.201593 -0.043705 -0.273099 0.382967 0.096732 0.056283 0.133776 0.132061 0.015429 0.510011 0.052878 0.132855 0.145553 0.237944 -0.020677 -0.084420 0.077276 0.025159 0.114059 -0.111935 -0.288748 0.175265 0.265022 -0.202227 -0.109481 -0.009841 0.028559 0.085521 -0.103265 0.122725 0.151486 0.063818 0.035916 -0.151086 -0.360259 0.113034 -0.429403 -0.214581 0.273774 0.087173 -0.025357 -0.098325 0.054179 -0.149373 0.167466 -0.016095 0.121409 0.147197 -0.040521 -0.190081 0.005237 0.004840 -0.099616 0.004349 0.051958 -0.122879 -0.121602 -0.139699 0.034751 0.129588 -0.142389 0.001768 0.249226 0.239745 -0.098000 0.284490 -0.160912 -0.151045 -0.208968 0.024083 -0.301451 -0.127279 0.084973 0.064602 0.146806 0.115395 0.048640 -0.264278 -0.162356 0.253526 0.085997 0.275010 0.206480 0.100639 -0.022894 -0.000699 0.100347 0.258414 0.050136 0.121931 -0.001001 0.402115 0.137642 0.066005 
t 0.275302 1.089345 0.050052 0.259559 -0.183257 0.145350 0.309950 -0.115837 0.330964 -0.070609 0.356191 -0.020946 0.402719 -0.105886 0.055393 0.389796 0.083620 -0.167845 0.468980 -0.511462 0.595349 0.199154 -0.012211 0.297151 0.266301 0.516964 -0.015254 -0.209959 0.122863 0.538694 0.201517 0.601344 0.588808 0.146112 -0.361034 -0.324192 0.065285 -0.179112 -0.193647 -0.483661 -0.012471 0.618217 -0.370983 0.000402 -0.122451 0.202084 -0.159093 -0.218379 -0.030100 0.316997 0.357903 0.393442 -0.384001 -0.060457 -0.136239 0.082368 -0.072439 -0.059597 0.017937 -0.320896 0.541900 0.054056 0.160118 0.183168 -0.204720 0.059263 0.315014 0.565551 -0.150784 0.070640 0.362600 0.133873 0.144863 0.095395 -0.417937 -0.397827 0.133268 0.156251 -0.036089 -0.307171 0.280742 0.100857 0.303176 0.288459 0.355536 -0.027432 -0.251579 0.216276 0.242869 -0.333671 0.349522 0.238091 0.054048 0.310167 0.501584 -0.514625 -0.503655 0.276463 -0.108668 0.442188 
zhi -0.042401 0.471803 -0.003301 0.193618 0.177203 0.134239 -0.085948 0.126401 0.124411 0.007043 0.171335 -0.121951 0.290113 -0.113254 -0.015096 0.151026 -0.052863 0.087274 0.117473 -0.154143 0.129319 -0.017770 0.036796 0.303121 0.059913 0.366245 -0.075912 -0.018452 0.187400 0.141491 -0.013151 0.384965 0.063150 0.028308 -0.330230 0.194412 0.209244 -0.011657 0.038252 -0.032371 -0.091395 0.516720 -0.256400 -0.223181 0.016629 0.161259 -0.250711 0.147389 0.189349 -0.122348 0.179146 0.162300 -0.208073 -0.075092 -0.119966 -0.032423 0.145714 0.025343 0.249742 -0.327753 0.163575 0.042840 0.127867 0.131932 -0.068537 -0.091791 0.191193 -0.126863 -0.028811 0.157752 0.011512 0.135985 -0.129031 -0.087043 -0.057589 -0.168016 0.061983 0.105269 -0.134518 -0.256635 0.182912 0.077199 0.228905 0.047156 -0.329098 0.208095 -0.051183 0.003943 0.152486 -0.276372 0.221157 0.129003 0.256732 0.249050 0.295970 -0.260782 -0.150257 0.399085 -0.018089 0.222380 
bu -0.105662 -0.362746 0.273681 -0.354525 0.508650 -0.037299 0.081772 -0.119140 -0.140362 0.230840 0.076701 0.220280 -0.021833 0.075824 0.015202 0.503807 0.073052 -0.198969 0.268238 0.201897 0.083865 -0.101643 -0.061581 -0.221216 0.288298 -0.138403 -0.033533 0.064773 -0.106284 0.062390 0.069280 0.159038 0.059155 0.291286 -0.084948 0.107949 0.343944 -0.028610 0.057497 -0.028535 -0.237851 0.210117 -0.393009 -0.051598 0.337069 0.362231 -0.177045 -0.118723 0.091907 -0.083234 0.271914 0.216264 -0.275293 0.215071 0.091353 -0.005030 0.138363 -0.009901 -0.247996 0.011621 0.217599 -0.069373 -0.122449 -0.152192 0.051832 0.086928 -0.071117 0.281097 0.040996 0.088635 0.216436 0.435841 0.037239 -0.235169 -0.161114 -0.100677 -0.229599 -0.024240 0.235235 0.004095 0.178584 0.008595 0.247348 -0.148747 0.031041 0.242043 -0.015939 0.083618 0.125838 0.224328 -0.159559 0.159757 0.235346 0.583727 0.084541 0.026265 -0.054224 0.130716 0.260239 0.136845 
le -0.304746 -0.643527 0.058601 -0.187753 0.157115 -0.084481 0.060287 -0.004459 -0.360189 0.083165 0.114405 0.129428 0.071390 -0.009060 0.118143 0.532712 -0.036905 -0.259410 -0.124387 0.083997 0.161705 0.166584 0.119548 -0.036110 0.068517 -0.055827 -0.059740 0.067619 0.010867 -0.019885 0.114942 0.000430 0.063317 0.048208 -0.095186 0.142901 0.245707 0.055854 -0.107414 -0.214032 -0.266701 0.219284 -0.412465 -0.006093 0.169250 0.191465 -0.031798 -0.127928 -0.003176 0.104721 0.074411 0.014157 0.022270 0.234888 0.053643 0.000783 0.023058 0.098975 -0.132127 0.072067 -0.135011 -0.129756 -0.551949 -0.152070 -0.057976 0.140702 -0.048835 0.521203 -0.121404 -0.023101 0.109346 0.251822 0.125584 0.171954 -0.431642 -0.018049 -0.165350 -0.175781 0.114379 0.092816 -0.069948 -0.012751 0.016596 -0.088618 -0.133350 0.241720 -0.046836 0.123906 0.010978 0.328444 -0.256902 -0.017714 0.001669 0.229382 0.078067 -0.071421 -0.048076 0.236380 0.062742 0.163152 
you 0.139334 -0.095408 0.264619 -0.265527 -0.043545 0.082220 0.073106 0.004172 -0.215678 -0.004945 -0.029878 0.060235 -0.085696 -0.136946 0.129529 0.141871 -0.048357 -0.387757 -0.081508 -0.100325 0.025297 0.133125 0.323223 -0.072964 0.013436 0.019717 0.049771 0.057311 0.028896 -0.026203 0.083072 -0.131162 -0.188334 0.049399 -0.315319 0.314796 -0.065170 -0.073255 -0.105121 -0.056807 -0.430999 0.065794 -0.368196 0.079044 0.310582 0.124044 0.037466 0.281892 0.279025 -0.113279 -0.180048 -0.034345 0.192785 -0.160286 -0.364136 0.272494 -0.087214 0.026778 -0.020053 0.077383 -0.164335 0.001075 -0.088201 -0.234731 0.029193 -0.266303 -0.061645 -0.059500 -0.048164 -0.089312 -0.113414 0.270804 0.157038 -0.280298 0.319273 -0.093800 0.045284 0.023555 0.094759 -0.016702 -0.224268 -0.184957 0.087151 -0.055545 -0.280408 -0.124912 -0.217827 -0.071262 -0.003803 0.119590 0.078204 -0.088823 0.354437 0.309570 -0.065342 -0.135016 0.045956 -0.148237 -0.083732 -0.261141 
xin -0.320525 -0.093416 -0.122694 -0.240121 0.331262 -0.098283 -0.019036 -0.078728 -0.211090 0.131594 0.592786 0.198769 0.173551 0.094731 0.045785 0.861146 0.247664 0.098074 -0.013600 0.187195 -0.086551 0.123276 -0.118430 -0.282498 0.145087 -0.036092 -0.012034 0.073547 0.353657 0.087511 0.189329 0.444014 -0.100706 0.286049 -0.168459 -0.132083 0.364476 -0.006745 -0.197464 0.187978 -0.223114 0.246061 -0.134129 -0.052966 0.247597 -0.062378 0.012084 0.026718 -0.037102 0.183256 0.074792 0.141531 -0.259268 0.214782 0.004980 -0.139259 -0.081675 -0.104393 -0.079880 0.042663 -0.223636 -0.261315 -0.065629 -0.294983 -0.249905 0.001775 -0.211762 -0.257952 0.017267 0.096433 0.018017 0.405781 0.034090 0.005508 -0.193579 -0.099738 -0.151942 -0.216997 0.140694 -0.069563 0.144602 0.342475 -0.025521 -0.137450 0.079144 0.204530 0.252549 0.353310 0.306843 0.033271 -0.059312 0.142993 0.158412 0.419551 0.197343 0.104988 0.123519 0.433996 0.191829 0.018115 
ni 0.216208 -0.605719 0.211485 -0.459080 0.232763 -0.037062 -0.236402 -0.161618 -0.173036 0.261187 -0.277019 0.027690 -0.234401 0.014834 -0.023862 0.367163 0.120117 0.229007 0.577341 0.024400 -0.126947 -0.277308 -0.350311 -0.207942 0.119646 -0.297211 -0.116940 -0.117802 -0.061067 -0.310256 -0.193286 -0.015428 -0.207326 0.232130 0.067327 -0.086789 -0.406368 -0.038162 0.056726 0.114613 -0.009652 -0.604591 0.038017 0.165479 0.381238 0.123190 0.037503 0.099328 0.259448 -0.301920 0.189528 0.224201 0.039238 -0.004077 -0.061477 0.155146 -0.123478 -0.353365 -0.242447 0.198117 0.333833 -0.095631 0.483176 0.096805 0.005401 -0.147663 -0.109832 0.183926 0.312433 0.169546 0.152868 0.092005 -0.150936 -0.210949 0.205688 0.297545 0.073006 0.103347 0.097792 0.209112 0.102804 0.048859 -0.129114 -0.047349 0.155526 0.029246 -0.244151 -0.214672 0.185420 0.381501 -0.030408 0.179875 0.234868 0.101299 -0.050550 0.027145 0.102046 -0.428123 0.154852 -0.178140 
ji 0.162676 -0.254002 0.118430 -0.408073 0.154425 -0.163847 0.145685 -0.175682 -0.236827 0.021348 -0.016627 0.317875 -0.122922 -0.013733 0.041111 0.666451 0.172340 -0.042111 -0.014780 0.230250 0.016997 -0.014419 -0.215376 -0.481364 0.077529 -0.145086 -0.168815 -0.089537 0.152481 0.216800 0.049697 0.005239 -0.248909 0.194733 -0.205502 -0.157285 -0.003063 0.003184 -0.043124 0.039032 -0.131194 -0.083703 -0.098976 0.156708 0.001490 0.262842 0.247874 -0.113650 -0.014152 -0.219655 0.085393 0.122987 0.056176 0.039046 0.014100 0.142944 0.036961 -0.107602 -0.188854 0.086038 0.042067 -0.015426 -0.029027 -0.203836 -0.264428 0.089612 -0.160363 0.035720 0.162410 -0.046942 0.232956 0.233721 0.261122 0.055313 -0.353861 -0.062220 -0.051629 -0.165640 -0.020168 0.101315 0.117779 0.067777 0.128364 -0.213388 -0.049929 0.062627 -0.100735 0.067172 0.233717 0.363385 -0.105243 0.144104 0.122479 0.335497 0.050834 0.272307 -0.069077 0.306678 0.267056 -0.071035 
wei -0.071993 -0.049524 -0.041046 0.004831 0.077858 -0.016341 0.127272 0.052624 0.111699 0.102026 0.247542 -0.088983 0.121828 -0.293934 0.221266 0.424711 0.059041 -0.115223 -0.050797 0.278717 0.154415 0.459972 0.058497 -0.182187 -0.023361 0.038081 0.126624 0.029769 0.119479 -0.094674 -0.148144 0.231820 -0.050673 0.064441 -0.124912 0.091098 -0.188238 -0.058072 -0.219629 -0.174176 -0.121941 0.095508 -0.063374 0.052339 0.221861 -0.011869 0.147198 0.149261 -0.130067 -0.053647 0.011264 -0.204501 0.086339 0.008864 -0.023237 -0.301279 -0.149514 -0.253481 0.131370 -0.219358 -0.213916 0.289078 -0.317481 -0.118031 -0.166178 0.170405 -0.222865 -0.126965 -0.189629 -0.227610 0.217475 0.142507 -0.086860 -0.113682 -0.193116 0.019082 -0.143514 -0.156786 0.159676 -0.144333 -0.068048 0.171511 -0.093278 0.056487 -0.149194 0.048864 0.272822 0.107529 0.066315 0.079478 -0.038824 0.116443 0.066275 0.135936 -0.044065 -0.133211 0.062553 0.012611 -0.156710 -0.249683 
ren 0.105203 -0.631443 0.465342 -0.453744 0.146639 -0.127813 -0.068962 -0.058165 -0.245426 0.253405 -0.509839 0.245479 -0.223159 0.138645 0.080748 0.071558 0.068421 -0.146210 0.261723 0.025171 0.052080 -0.005301 0.240914 -0.433331 0.055244 -0.365384 -0.299593 0.094045 -0.052625 -0.267689 -0.009336 -0.504024 -0.136015 -0.030146 -0.007603 0.266905 0.150987 -0.176139 0.061508 -0.181909 -0.121499 -0.206550 -0.528379 -0.012867 0.198932 0.377127 0.028357 0.203578 0.109157 -0.171501 0.144201 -0.058621 0.276076 0.209578 -0.033411 0.345510 0.324317 -0.096687 -0.255283 0.128297 0.041398 -0.196616 0.119882 -0.102113 0.033235 0.061234 -0.242886 -0.028267 0.268876 0.075846 -0.015254 0.139747 -0.076286 -0.232116 0.193999 0.082855 -0.226254 -0.196690 0.031056 0.145172 -0.174513 0.115540 0.077676 -0.208897 -0.117087 0.400651 -0.178872 -0.169488 0.135601 0.381705 -0.015869 0.183436 0.058289 0.248169 -0.160442 0.294994 -0.271000 0.039505 0.293440 -0.165532 
zai 0.207896 -0.049609 0.125147 -0.145650 0.200734 0.008383 -0.057239 -0.091817 -0.202154 0.049847 0.020597 0.089819 0.124682 0.101913 0.007685 0.256064 0.124792 0.010487 0.175758 -0.038280 0.047041 -0.083238 0.007365 -0.042212 0.131689 -0.090642 -0.259808 -0.071223 0.214556 0.000341 0.023796 0.123894 -0.043935 0.067603 -0.223646 -0.025471 -0.012667 0.077621 0.056866 0.020945 -0.258510 -0.020029 -0.149011 -0.067914 0.040676 0.123136 0.031768 0.166303 0.147882 -0.162374 0.068524 0.251652 0.006698 0.038865 -0.107960 0.122056 -0.027472 -0.017731 -0.143243 0.085768 0.131410 -0.134178 0.317405 -0.066451 -0.081833 -0.175476 -0.136651 -0.153300 0.270092 0.143537 0.012883 0.204567 -0.005335 -0.135557 0.071681 -0.105911 -0.002403 -0.000131 -0.003679 -0.084513 0.127194 0.117580 0.149418 -0.137505 -0.062878 0.059944 -0.152133 0.086065 0.149705 0.147206 0.074081 0.100265 0.252325 0.208884 0.183461 -0.031393 -0.058111 0.097157 0.146590 0.053058 
ha -0.399974 -0.304105 -0.322312 -0.165579 0.035356 1.120133 0.108289 0.275069 0.526112 0.705967 0.333797 -0.179313 -0.120826 -0.848838 0.356902 0.013423 -0.075956 0.691731 -0.065424 0.076418 0.284237 0.421538 -0.156741 -0.373057 -0.450814 0.542419 1.082471 0.553523 0.411287 0.184797 -0.632597 0.326456 -0.461855 1.166386 -0.249021 0.925730 0.310767 -0.976389 -0.643493 -0.043497 0.309908 0.642761 0.240518 0.320984 0.936746 -0.557934 0.031164 -0.076596 -0.022544 -0.633167 -0.710415 -0.890526 0.051066 -0.690962 -0.346886 -0.921935 0.130521 -0.189721 1.090503 -0.872684 -0.065677 1.191102 -0.693988 0.392911 -0.129357 0.057294 0.664412 -0.581730 -0.769700 -0.486660 -0.967999 -0.063107 -0.124717 -0.782127 0.547109 0.547795 -0.195089 0.351693 0.187505 0.093259 0.117215 -0.606158 -0.709870 0.269463 0.032249 -0.623263 0.888717 0.041494 0.768567 -0.715865 0.042867 -0.258900 0.696113 0.575868 -0.444484 0.525986 0.321827 -0.224446 -0.792539 -0.690271 
li 0.119582 -0.298553 -0.011234 -0.093237 0.185663 0.021751 0.143679 -0.095997 -0.124896 0.315040 0.109385 0.093404 0.018114 0.048832 -0.053634 0.309077 0.156750 0.104816 -0.056451 0.157580 -0.123376 -0.067976 -0.108744 -0.152932 0.023448 -0.162855 -0.043907 0.034171 0.235088 0.077799 -0.063725 0.094779 -0.142418 0.138998 -0.180189 -0.033317 0.197472 -0.027825 0.049855 0.046534 -0.158855 -0.021765 0.095542 0.020196 0.000046 -0.018782 0.083137 -0.123411 -0.057630 -0.178799 -0.096358 -0.098669 -0.046734 0.104034 0.134255 -0.045934 0.098150 0.049205 0.008790 -0.042516 -0.040875 -0.022930 -0.022388 -0.150924 -0.052622 -0.012653 -0.032151 -0.417290 0.242569 0.043666 -0.006193 0.075330 0.068998 -0.033056 -0.093170 -0.137696 -0.134780 -0.039907 -0.003062 -0.028764 0.115240 -0.080616 0.050361 -0.246776 -0.031657 0.073826 0.093166 0.193922 0.206839 0.093250 -0.033839 -0.015748 0.086852 0.076892 0.069614 0.179701 0.005915 0.164990 0.019490 -0.069621 
. 0.230020 1.073798 0.275456 -0.025385 0.076932 0.076043 -0.186537 -0.136204 0.566350 -0.256011 0.417268 -0.068664 0.224662 -0.329334 0.239213 0.385101 0.324858 0.240854 0.706116 -0.317208 0.612861 0.400952 -0.254815 -0.289858 0.178237 0.605766 0.110787 -0.140821 0.163040 0.148150 -0.123399 0.550517 0.313995 0.384309 -0.151569 -0.213836 -0.151069 -0.385649 -0.405982 -0.111787 0.454255 0.472641 -0.209587 0.067987 0.158385 0.187384 -0.003282 0.541323 -0.084755 0.144337 0.541197 0.291650 -0.260253 -0.075668 -0.293712 0.023998 0.049421 -0.492699 0.193081 -0.508054 0.550359 0.304722 0.337760 0.356981 -0.296569 0.029890 0.057048 0.320006 -0.217868 -0.192916 0.306989 0.187428 -0.130384 -0.127028 0.001138 0.043735 0.018754 -0.018775 0.186399 -0.617170 0.350780 0.525586 0.192596 0.443459 0.304425 0.338983 0.059891 -0.102167 0.453930 -0.337906 0.356609 0.466349 0.188223 0.377920 0.317989 -0.090298 -0.399423 0.156286 0.000493 0.207253 
xi -0.222989 0.113202 0.238253 -0.096798 0.339537 -0.172800 -0.303725 -0.006372 -0.102400 -0.190336 0.063481 0.008009 -0.045505 -0.114431 0.225272 0.291050 0.031268 -0.096518 -0.038379 0.146867 -0.073792 0.037768 -0.037114 -0.260233 -0.042612 0.087859 0.103165 -0.082515 -0.099126 -0.046462 0.038903 0.099649 -0.208443 0.279792 -0.130035 0.388397 0.196931 -0.090851 -0.092794 0.217721 0.059443 0.115293 -0.274733 -0.060584 0.367160 0.249685 -0.128162 0.474908 0.186503 -0.233840 0.130896 -0.016551 -0.076308 0.174279 -0.028889 0.132272 0.137441 -0.133572 0.066561 -0.029597 -0.075180 0.094117 -0.109513 0.068641 -0.008611 -0.076820 -0.139077 -0.321867 -0.179340 -0.113281 0.096563 0.286236 -0.081453 -0.034132 0.056522 0.188755 -0.099668 -0.100650 0.148757 -0.123239 0.064968 0.031755 0.188618 0.008678 -0.366527 0.429127 0.074386 -0.248729 0.135838 0.211050 -0.221928 0.069603 0.297817 0.186271 -0.007884 -0.037619 0.037879 0.003992 0.136968 -0.144785 
xiao 0.032054 -0.027485 -0.090951 -0.305412 -0.160550 0.285178 0.198351 0.126168 0.199597 0.119387 -0.016615 0.037063 -0.154535 -0.172910 -0.135926 -0.113374 -0.008438 0.101597 0.009050 0.192727 -0.004034 0.126781 0.045626 -0.304534 0.131822 -0.012149 -0.085705 0.280303 0.207840 0.231049 -0.127193 -0.185289 0.000494 -0.094216 -0.064579 -0.024873 0.095642 -0.198245 -0.001428 -0.229995 -0.115923 0.147644 -0.088513 -0.039156 -0.075314 0.012988 0.206366 -0.181305 -0.169735 0.018393 -0.086012 -0.206219 0.208780 -0.221475 -0.101744 -0.148228 0.147059 0.083575 0.132306 -0.151090 -0.050967 -0.004531 -0.320490 -0.190783 -0.034166 0.150743 0.121350 -0.059824 0.122002 -0.028986 -0.191006 -0.046722 0.071426 -0.274856 -0.005584 -0.123442 -0.054852 -0.068719 -0.034984 0.076683 0.014404 -0.014276 -0.204887 -0.172389 -0.010882 -0.213046 0.136382 0.212704 0.198839 -0.183813 0.188234 0.084750 -0.004020 0.254027 -0.108303 0.225722 -0.155285 0.315829 0.029879 -0.034642 
ge -0.207292 -0.423946 0.190511 -0.452825 0.099504 0.045559 -0.078161 0.091146 -0.180191 0.198179 0.067136 0.175134 0.054510 -0.012982 -0.043206 0.238861 -0.142528 -0.192486 0.286552 0.086903 -0.100096 0.248087 0.141071 -0.098671 0.288016 -0.181089 -0.086593 0.166619 0.278536 -0.379060 0.080568 0.134416 0.061361 -0.139657 -0.185289 0.069072 0.011622 0.064663 0.091590 -0.150834 -0.438204 0.072260 -0.413007 -0.104361 0.120159 0.100474 0.125299 0.127382 0.231762 0.171720 -0.121609 0.064384 0.142119 0.102966 -0.113638 0.040349 0.033125 -0.026501 -0.020344 0.164094 -0.226107 -0.329410 0.116964 -0.350890 -0.074950 0.080280 -0.295095 0.166593 0.036655 0.204374 0.034150 0.244388 -0.219582 -0.273399 -0.066470 -0.095625 0.019775 -0.133265 0.005742 0.072637 -0.248337 0.269709 -0.299493 -0.290503 -0.170991 0.028195 -0.055052 0.124272 0.085651 0.210542 0.106398 0.160765 0.139677 0.489060 -0.009473 -0.251504 -0.012741 0.222137 0.065585 0.018081 
qi -0.086688 -0.219800 0.154085 -0.222664 0.284729 -0.281098 -0.206237 0.011111 -0.243520 -0.111216 -0.026390 0.077323 -0.094677 -0.086969 0.099538 0.185916 0.061104 -0.071923 -0.121959 0.205887 -0.080072 0.074794 0.043938 -0.288645 0.042416 -0.153017 -0.081063 -0.030773 -0.046008 -0.195520 0.054231 0.024115 -0.212284 0.118351 -0.129474 0.205791 -0.003543 0.083978 -0.003638 0.031411 -0.046202 -0.060327 -0.192729 -0.124796 0.110050 0.253612 0.118268 0.369398 0.056205 -0.245548 0.079731 0.026210 0.112797 0.104248 -0.042136 -0.016591 0.137240 -0.077403 -0.021347 0.127308 -0.221177 -0.072828 0.010261 -0.260877 -0.136179 0.049319 -0.284045 -0.188379 -0.035320 0.019094 0.187082 0.133119 -0.031378 -0.044884 -0.238554 0.074395 -0.070660 -0.257688 0.007720 -0.010997 -0.011334 0.090457 0.052160 -0.078247 -0.372786 0.248752 0.062405 -0.104716 0.055041 0.207601 -0.130682 0.081250 0.158059 0.150288 -0.112100 0.076014 0.096121 0.275774 0.273519 -0.118125 
hao 0.279175 0.277769 0.092417 -0.049872 0.249236 0.144600 -0.063841 0.039159 0.240565 0.195191 -0.001555 -0.083495 -0.152325 -0.354076 0.054494 0.065087 0.174244 0.145962 0.088762 0.075037 0.165575 -0.083757 -0.106015 -0.236725 -0.096762 0.144793 0.139336 -0.002953 -0.052099 0.307365 -0.271963 0.052592 -0.178017 0.263576 -0.191865 0.229348 0.162120 -0.237767 -0.095121 -0.082639 0.103085 0.256987 -0.102103 -0.004006 0.268099 0.197429 -0.091389 0.163055 -0.006280 -0.479883 0.142369 -0.128690 -0.096929 -0.173082 -0.033497 -0.054569 0.149725 -0.114354 0.124664 -0.276864 0.209844 0.227182 -0.325703 0.050248 0.035741 -0.010845 0.357520 -0.294559 0.061093 -0.175805 -0.018468 0.013113 0.134231 -0.142271 0.072007 0.032498 -0.087929 0.057016 0.093127 -0.162214 0.188793 -0.223255 0.196673 0.152730 -0.047264 0.126211 0.086441 -0.164129 0.239435 -0.088571 -0.006837 0.148775 0.210661 0.130829 0.048999 0.172090 -0.074422 -0.000548 -0.004482 -0.109478 
zi 0.147494 -0.351268 0.175626 -0.394554 -0.297481 -0.110998 0.169088 -0.103245 -0.338073 0.461054 -0.290148 0.447212 -0.183600 0.028786 -0.091149 0.254420 0.146210 -0.101586 0.028263 0.154517 -0.196288 0.165279 0.110696 -0.360354 0.054836 -0.535841 -0.222423 -0.007787 0.266919 0.184931 0.048504 -0.325305 -0.330876 -0.226544 -0.042969 -0.127244 0.292518 0.049640 0.109093 -0.125911 -0.202320 -0.160350 -0.328916 0.233736 -0.276861 0.234756 0.211347 -0.294266 0.017259 -0.063500 -0.234512 -0.004518 0.151088 0.187356 0.167360 0.332575 0.258572 -0.019693 -0.357978 0.139706 -0.075584 -0.436196 -0.130692 -0.271236 -0.262340 0.302167 -0.090747 -0.335068 0.347027 0.145076 0.053237 0.009678 0.092310 0.090814 -0.357861 -0.062664 -0.057186 -0.192488 -0.236096 0.284461 -0.119206 0.242922 -0.032068 -0.399265 0.144747 0.192096 -0.104581 0.037945 0.225858 0.343486 -0.100148 0.305803 -0.109521 0.316770 0.026265 0.387849 -0.209064 0.152375 0.222865 -0.132697 
: 0.430258 0.552783 0.298392 -0.325803 0.039463 0.013593 0.050303 -0.241372 0.286252 -0.120419 0.122961 -0.105017 -0.013961 -0.298603 -0.055888 -0.016714 0.088617 -0.043931 0.260484 -0.054783 0.259481 0.023423 -0.289345 -0.102060 0.268384 0.300022 0.017892 -0.036365 0.164514 0.053319 -0.105362 0.137874 0.193730 0.049144 -0.298026 -0.296457 -0.238944 -0.089426 0.000210 -0.122393 -0.024544 0.288760 -0.243195 0.149193 -0.059675 0.375671 0.208284 0.066918 0.041002 -0.045976 0.180488 0.068998 0.093563 -0.288488 -0.181730 0.126201 0.007852 -0.060316 0.117771 -0.246079 0.460565 0.092914 -0.154864 -0.126463 -0.115225 -0.053874 0.018734 0.731534 0.017247 -0.062810 0.377638 0.089659 0.277932 -0.056198 -0.505980 -0.180572 0.159371 -0.059555 0.045931 -0.242177 0.098910 -0.053254 0.135308 0.042953 0.039843 -0.034889 -0.189329 -0.030633 0.144465 -0.011171 0.248146 0.171411 0.129974 0.410791 0.224256 -0.259184 -0.246891 0.498920 0.064287 0.304208 
da -0.243536 0.379376 0.101177 -0.231778 0.097141 0.274898 -0.017681 -0.143112 -0.098133 0.026131 0.178892 0.081075 0.050597 -0.113940 0.073098 0.692661 -0.043767 0.025831 0.032444 0.117392 -0.245358 0.007248 -0.296889 -0.097845 0.015327 0.229675 0.217945 -0.075226 0.307451 0.352381 0.024966 0.290898 -0.365997 0.355881 -0.277886 0.268071 0.345977 -0.139776 -0.064726 0.269938 -0.123113 0.251727 -0.237399 0.226486 0.310165 0.050228 -0.123191 -0.060628 0.340215 -0.181549 -0.111886 0.043463 -0.083461 0.065963 -0.057308 0.291099 0.052207 0.010411 0.117346 -0.113183 0.172640 0.106198 -0.368677 0.206981 -0.099296 -0.222532 0.078201 -0.149933 -0.106128 -0.068503 -0.025041 0.328225 0.122218 0.013737 -0.068151 0.162670 0.061945 0.165858 0.097092 0.020362 0.188621 -0.087364 0.079855 -0.162622 -0.176369 0.235222 -0.056643 -0.042406 0.276733 0.263258 -0.115570 0.104742 0.420816 0.474999 0.206222 -0.095847 -0.052784 0.177406 -0.050830 -0.139360 
zhe -0.256891 -0.171689 0.106102 -0.281389 -0.005768 -0.004209 -0.212174 -0.030302 -0.064418 -0.034408 0.085863 0.062397 -0.315122 0.076989 0.029190 0.106431 -0.005713 -0.264883 -0.037104 0.065865 -0.191007 0.045005 0.074610 -0.315605 -0.036269 -0.164377 0.066733 0.085308 -0.125296 0.096621 0.154162 -0.117062 -0.135863 0.000272 0.038115 0.151592 0.344796 -0.147328 -0.171707 0.137529 -0.044213 -0.080471 -0.179622 0.050945 0.233801 0.076818 -0.171704 0.146958 0.087870 0.340309 0.088916 -0.039546 0.058675 0.123374 0.016289 0.272141 -0.036485 0.053525 -0.111808 0.199273 -0.165299 -0.247085 -0.405215 -0.108231 0.067347 -0.026052 0.005334 0.179084 -0.006992 -0.195779 -0.132059 0.186006 0.232927 0.112069 0.184767 0.038382 -0.026722 -0.138963 0.247370 0.089344 -0.144458 -0.047633 -0.012549 0.016758 -0.000188 0.238546 -0.017098 -0.004371 0.012861 0.158279 -0.088695 0.073540 0.076053 0.155936 -0.018131 -0.030401 0.021066 -0.140644 0.143452 -0.175374 
xiang -0.091416 -0.065357 0.016563 -0.224856 0.025014 -0.155195 0.074175 -0.068945 -0.205341 0.164780 0.071777 0.283598 0.036923 0.163064 -0.019630 0.430913 0.158176 0.046171 0.078732 0.059066 -0.071864 0.129904 0.050185 -0.166873 0.001529 -0.209887 -0.103952 0.007733 0.225616 0.101105 0.140226 0.072127 -0.206010 0.029164 -0.118853 -0.045274 0.349180 0.004037 -0.068002 0.093728 -0.090596 0.038925 -0.169964 0.004841 -0.086080 0.044964 0.003292 0.073278 0.039618 0.186016 0.001614 0.049617 -0.079674 0.215899 0.041279 0.145663 0.110360 -0.039891 -0.186927 0.003131 -0.138433 -0.301402 0.224592 -0.144253 -0.235730 0.155099 -0.112477 -0.357429 0.097177 0.055410 -0.078831 0.170703 -0.096604 0.020997 -0.136501 -0.007440 -0.106633 -0.222529 -0.067916 0.035820 0.029241 0.343027 0.000392 -0.242269 -0.019000 0.271478 0.120427 0.131729 0.261712 0.049746 -0.001070 0.174737 0.048315 0.305162 0.054389 0.243006 -0.086191 0.179814 0.224834 -0.120184 
dao -0.004854 -0.531773 0.237749 -0.628847 -0.094622 0.004188 -0.079110 -0.176970 -0.167781 0.079239 -0.201321 0.343732 -0.228596 0.039721 -0.078364 0.214235 -0.079485 -0.256196 0.086729 0.223420 -0.295748 0.116059 -0.047137 -0.432436 0.176279 -0.392593 -0.030886 0.043001 0.199556 -0.066374 0.084436 -0.122281 -0.274066 -0.047974 -0.156277 -0.089699 -0.021904 0.007981 0.134463 0.078894 -0.325194 -0.363843 -0.047876 0.349618 -0.038707 0.210437 0.293280 -0.005217 0.224289 0.167339 -0.300934 0.057542 0.235717 0.003047 -0.019017 0.394367 0.044922 0.015732 -0.103148 0.139037 -0.086864 -0.222771 0.063726 -0.265245 -0.153240 -0.049775 -0.325364 0.081286 0.118792 -0.056050 0.178378 0.188709 0.128830 -0.195774 -0.007558 -0.016522 0.131036 -0.036039 0.009529 0.220515 -0.247474 0.003312 -0.133363 -0.430250 -0.037632 -0.129799 -0.219665 -0.008764 0.069082 0.475815 -0.019840 0.144839 0.219687 0.468479 -0.140480 0.006139 0.003896 -0.122262 0.115589 -0.285427 
mei -0.020300 -0.256921 0.176884 -0.100249 0.334607 0.103056 0.125880 -0.037555 -0.289908 0.225156 -0.101668 0.157189 0.128879 0.121369 0.000079 0.395227 0.033587 -0.049425 0.016888 -0.051583 -0.039078 -0.255499 0.121620 0.126033 0.030276 0.009087 -0.101744 -0.037409 0.035043 0.172757 0.107912 0.066041 -0.063283 0.197449 -0.210282 0.269495 0.383618 -0.003501 0.149307 0.068795 -0.190176 0.299149 -0.279980 -0.131018 0.178208 0.178747 -0.279913 -0.016938 0.235183 -0.246518 0.019508 0.137742 -0.213515 0.146937 -0.019266 0.168504 0.136736 0.174155 -0.165031 0.016834 0.114555 0.000651 0.087782 0.047902 0.104135 -0.131067 0.095344 -0.233111 0.085399 0.101396 -0.163136 0.239711 -0.001893 -0.112372 0.146813 -0.100209 -0.101345 0.112949 0.037883 -0.024969 0.208154 -0.181767 0.379341 -0.200778 -0.237463 0.189037 -0.080033 -0.024142 0.094991 0.069756 -0.126747 -0.074753 0.348724 0.221145 0.109172 0.070830 -0.053141 -0.051542 0.087942 0.049605 
n 0.145171 0.816148 -0.061426 0.242876 -0.674580 0.288975 0.396254 0.100032 0.664088 0.050485 -0.080088 0.192996 0.127722 -0.094204 -0.155417 -0.057926 0.066833 0.177787 0.464200 -0.193607 0.551202 0.338794 0.075078 -0.161775 0.132072 0.225997 -0.181784 -0.030822 0.264365 0.709366 -0.099495 0.024240 0.503406 -0.314265 0.088838 -0.496013 0.230024 -0.304864 -0.053565 -0.698283 0.443240 0.518493 -0.161893 0.025141 -0.672785 0.024599 -0.020123 -0.572137 -0.458101 0.531358 0.306835 0.071945 -0.084539 -0.108423 0.150367 -0.010788 0.257905 -0.081902 0.041382 -0.542659 0.467927 0.068969 -0.126213 0.362029 -0.153101 0.595693 0.416831 0.451550 0.054394 -0.097602 0.133556 -0.375137 0.036234 0.225289 -0.333505 -0.252962 -0.037324 0.047765 -0.182188 -0.145598 0.170339 0.352391 0.116884 0.185926 0.566030 0.076881 0.013466 0.251290 0.227505 -0.537847 0.427189 0.395481 -0.464330 -0.013428 0.201421 0.129718 -0.758866 0.288248 -0.036031 0.409605 
hui 0.197234 -0.302624 0.013917 0.051690 0.344604 -0.097444 0.028406 -0.008360 -0.083397 0.202561 -0.124701 -0.033039 0.055227 0.304750 -0.036485 0.223634 0.330017 0.239508 -0.084444 0.075473 0.149203 -0.368317 0.012339 -0.047326 -0.041032 -0.150357 -0.435430 -0.041897 0.097187 -0.038488 -0.099116 -0.099694 -0.011498 0.056566 -0.099012 0.079041 0.308388 0.035779 0.093649 0.065567 0.029220 0.046017 0.053414 -0.321278 -0.044651 0.090959 -0.173951 0.098040 -0.083509 -0.196035 0.226690 0.086225 -0.017602 0.064061 0.030779 -0.089627 0.005256 0.042469 -0.147282 -0.021479 0.133344 -0.051426 0.270346 -0.022970 0.046772 -0.055558 -0.007237 -0.077001 0.393303 0.123589 -0.237139 0.051627 0.012681 -0.034878 0.044002 0.018804 -0.277579 -0.176704 0.047190 -0.147634 0.256045 0.033885 0.357330 -0.059245 -0.138826 0.345207 0.125178 0.102217 0.103119 -0.145565 0.021559 -0.081058 0.066466 -0.181040 0.113206 0.341936 -0.077425 0.189516 0.287197 0.113945 
@ 0.281902 -0.233662 -0.233542 0.159381 0.020941 0.043195 0.520879 -0.120723 -0.122448 0.383004 -0.087553 0.116604 0.088443 -0.262722 0.097904 0.280359 0.183388 0.233652 -0.416943 -0.006014 0.334899 -0.116547 -0.109604 -0.036270 -0.259831 0.105420 0.061886 -0.055235 0.058042 0.565493 -0.115776 -0.125276 -0.041104 0.336810 -0.163267 0.013641 0.224500 -0.189146 -0.145982 -0.262818 0.160536 0.377727 0.001814 0.185406 -0.102959 0.099448 0.079767 -0.593951 -0.362150 -0.521619 -0.061654 -0.316483 -0.093996 -0.094848 0.209169 -0.285831 0.204242 0.183562 0.074597 -0.292989 0.189624 0.455418 -0.724456 0.156969 -0.156874 0.330155 0.477510 -0.086673 -0.015771 -0.136034 -0.083869 -0.231179 0.386513 0.369617 -0.706222 -0.091519 -0.179327 -0.027957 -0.175877 0.149579 0.356995 -0.493298 0.250340 -0.011285 0.055651 -0.045649 0.138220 0.119376 0.292488 -0.042004 -0.267666 -0.186995 -0.097410 -0.151100 0.047514 0.516093 -0.211097 0.356113 -0.100350 0.100510 
yu 0.103922 -0.061058 0.102221 -0.247576 0.232958 -0.277700 -0.084814 -0.074749 -0.219139 0.046902 0.017853 0.038145 -0.115947 -0.131225 0.106442 0.287105 0.115565 -0.077615 -0.163360 0.228487 0.031092 0.128019 0.003001 -0.465377 0.103349 -0.169182 -0.207374 0.023513 0.073714 -0.061406 0.039939 -0.044203 -0.118507 0.153378 -0.240377 -0.015222 -0.072765 -0.037549 -0.080658 -0.125522 -0.161510 -0.052733 -0.276731 -0.036625 0.089558 0.307961 0.279296 0.157507 -0.121782 -0.278232 0.126304 -0.078289 0.226835 -0.022290 -0.033085 -0.017250 0.101768 -0.145822 0.022550 0.113881 -0.153278 -0.084960 -0.262298 -0.374194 -0.216499 0.049909 -0.279191 -0.211836 0.124169 0.068157 0.242999 0.126808 0.193839 -0.016989 -0.405133 -0.133089 -0.117414 -0.319099 -0.050645 0.068304 -0.018015 0.053044 -0.007607 -0.148531 -0.285642 0.087215 -0.004540 0.090141 0.154325 0.265990 -0.020792 0.129410 0.097682 0.162155 -0.056868 0.089666 -0.016311 0.607159 0.342970 -0.142736 
zhong 0.049177 0.165010 0.123858 -0.073623 -0.018099 -0.059042 -0.020476 0.005758 -0.179935 -0.013278 0.144141 0.059041 0.004928 -0.005917 0.044673 0.350609 0.170958 -0.179615 0.050964 0.023565 0.007974 0.107806 0.185690 -0.071529 0.055770 -0.063082 -0.157936 -0.072311 0.138962 0.120672 0.140203 0.023697 -0.066014 -0.027807 -0.201668 0.047816 0.123204 0.023368 -0.075114 -0.074515 -0.200210 0.113408 -0.332763 -0.092025 0.098176 0.187970 -0.094796 0.183328 0.121577 0.023625 0.085905 0.182767 -0.009558 0.093496 -0.172851 0.163951 -0.086214 -0.073450 -0.195111 0.150275 -0.109525 -0.252240 -0.008972 -0.139546 -0.096744 -0.007831 -0.076401 -0.186802 0.089393 0.046382 -0.003685 0.227520 0.048603 0.032843 0.053971 -0.102311 -0.033768 -0.169936 0.064971 -0.076462 -0.007842 0.226284 0.190092 -0.005829 -0.120678 0.219541 -0.054197 0.025832 0.039602 0.043539 -0.005236 0.126682 0.168914 0.162087 0.136342 -0.078137 -0.057918 0.083402 0.161403 -0.059395 
] -0.062253 -0.106744 -0.101731 -0.268991 0.367284 0.934194 0.214206 -0.189931 0.186006 0.784738 -0.460531 -0.091217 -0.503611 -0.186270 -0.089932 0.159480 -0.358745 0.594551 0.511114 0.231929 -0.190119 -0.767940 -1.058900 -0.147834 0.003198 0.129896 0.551317 0.143510 -0.115274 0.316401 -0.563250 -0.082417 -0.450639 0.847603 0.020007 0.391689 0.154196 -0.696270 0.155581 0.424201 0.254922 -0.166743 0.337150 0.528352 0.648403 -0.008026 -0.274449 -1.018748 0.386816 -0.709989 -0.204255 -0.297147 -0.150299 -0.475528 0.178773 -0.097843 0.216710 -0.095561 0.441490 -0.490655 0.875770 0.845917 -0.251498 0.665962 0.178795 -0.232726 0.562915 0.579586 -0.013742 0.184156 -0.202223 0.001972 0.053516 -0.583690 0.219666 0.395580 0.085482 0.704697 -0.067628 0.695819 0.290334 -0.824627 -0.432439 -0.172891 0.111386 -0.523307 -0.060367 -0.315293 0.397272 0.130081 -0.058355 -0.147095 0.414175 0.617216 -0.173623 0.100005 0.054652 -0.036636 -0.255730 -0.202539 
[ 0.140747 -0.040808 0.052001 -0.313235 0.446830 0.884971 0.245229 -0.201340 0.101401 0.670608 -0.410581 0.068533 -0.478242 -0.137790 -0.101923 0.205407 -0.216616 0.386806 0.387716 0.011097 -0.186613 -0.864249 -0.767706 -0.139689 -0.023473 0.267713 0.513896 0.098444 -0.080480 0.513328 -0.397368 -0.078022 -0.544897 0.993069 -0.249870 0.487116 0.283962 -0.699193 0.102192 0.460017 0.100322 0.028616 0.219519 0.498150 0.672643 0.119867 -0.431878 -0.787201 0.544138 -0.862455 -0.204750 -0.181566 -0.305880 -0.571893 -0.046743 0.123850 0.277509 0.026076 0.367037 -0.504557 0.803199 0.808865 -0.126827 0.551172 0.246903 -0.435502 0.668029 0.177582 -0.005393 0.094370 -0.316669 0.175355 0.230760 -0.632342 0.552329 0.149267 0.075444 0.709239 0.008115 0.467440 0.346469 -0.982478 0.028754 -0.116370 -0.013017 -0.482503 -0.172892 -0.317824 0.459677 0.017055 -0.058359 -0.287866 0.709454 0.684237 -0.159503 0.183425 0.025310 -0.144177 -0.237738 -0.192159 
jia -0.309970 -0.182620 -0.017194 0.111649 0.218851 0.241739 -0.026755 -0.027793 -0.276394 0.285123 -0.034910 -0.006368 0.066882 0.220896 -0.021158 0.168204 -0.105014 -0.017767 -0.077251 0.141564 -0.118540 -0.176417 0.048408 0.124787 0.080680 -0.107576 -0.216282 0.156955 0.140080 0.254872 -0.022395 -0.089330 -0.072089 0.056898 -0.142551 0.309659 0.659579 -0.122426 0.148998 0.010992 -0.212618 0.249387 -0.382788 -0.166725 0.088375 0.143269 -0.293724 -0.180634 0.137614 -0.025007 0.047187 -0.005859 -0.021807 0.192425 0.099224 0.135868 0.294153 0.283923 0.032799 -0.105121 0.153311 -0.189096 -0.426400 0.040952 0.078479 -0.194321 0.123709 -0.052634 0.329788 0.247787 -0.211832 0.249329 0.101024 -0.095478 0.023626 -0.117474 -0.223944 0.034483 -0.042053 0.029412 0.202058 -0.163196 0.153502 -0.294883 -0.279870 0.351454 -0.087892 0.163010 0.215680 0.078372 -0.013199 0.009812 0.159220 0.211699 0.237948 -0.085641 -0.228391 0.404512 0.100188 0.150001 
！ 0.211826 0.229856 0.037652 0.133256 0.378508 0.124388 -0.157512 0.037705 0.240946 -0.123488 -0.149415 -0.185814 -0.170708 -0.029958 -0.042573 -0.144071 0.049100 0.142603 -0.099373 -0.148890 -0.010996 -0.404979 -0.084511 -0.002109 -0.101605 0.213688 -0.041550 -0.162106 -0.166014 0.245820 -0.093563 -0.016990 0.010890 0.236855 -0.095792 0.177821 0.129713 -0.151471 0.065755 0.077068 0.304958 0.100019 0.167969 -0.139462 0.026642 0.238296 -0.276452 0.070587 -0.013694 -0.399412 0.215500 0.038726 -0.100774 -0.101746 0.033822 0.051618 0.144167 0.089788 0.142387 -0.078641 0.321287 0.319093 -0.004182 0.313688 0.170746 -0.207674 0.269275 -0.018027 0.135802 -0.040825 -0.040225 -0.073946 0.230065 0.057735 0.134286 -0.087155 -0.004187 0.164466 -0.037003 -0.124734 0.296865 -0.377909 0.469108 0.086628 -0.219790 0.138041 -0.080709 -0.177179 0.002374 -0.132306 -0.027757 -0.092537 0.222666 -0.222051 0.059569 0.177542 -0.080876 0.100722 0.166558 -0.008249 
ai -0.111764 -0.460724 -0.029904 -0.226666 0.064598 -0.056571 -0.140228 -0.084450 -0.134813 0.181565 -0.103716 0.038169 -0.305212 0.045263 -0.074762 0.223979 -0.036748 0.017415 0.112427 0.063017 -0.383627 -0.268273 -0.297385 -0.052648 -0.067036 -0.221056 0.177436 -0.102952 -0.097007 -0.101628 -0.048772 -0.014301 -0.348935 0.111426 0.069638 0.006185 -0.071794 0.044731 0.062558 0.237258 -0.015348 -0.409401 0.156789 0.230227 0.242622 -0.084177 -0.119979 -0.239686 0.251274 -0.062235 -0.012119 -0.017454 -0.071623 0.067919 0.151605 0.187131 -0.091825 -0.114416 -0.066250 0.103687 0.019494 -0.092332 -0.053312 0.072216 0.091740 -0.082999 0.038877 0.155674 0.102604 0.074787 0.110257 -0.031770 0.037362 0.131580 0.069038 0.199067 0.072655 0.140823 0.007159 0.309034 -0.090527 -0.152960 -0.085748 -0.029992 0.083361 0.046112 -0.162870 -0.185126 -0.008329 0.297330 -0.182254 -0.001126 0.041849 -0.011729 -0.080425 -0.102436 0.174728 -0.312712 -0.044384 -0.196951 
： 0.372390 0.470632 0.297373 -0.115482 0.270481 -0.147875 -0.046569 -0.126456 0.011619 -0.009670 -0.003316 0.004234 0.047627 -0.089902 -0.032329 0.150597 0.108278 -0.164622 0.108560 -0.026490 0.145336 -0.160369 -0.087422 -0.055454 0.229634 0.068466 -0.218188 -0.249419 0.021439 0.167795 0.052236 0.216252 0.094686 0.081979 -0.412017 -0.020938 0.085013 0.096305 0.139116 -0.133512 -0.137957 0.198576 -0.215013 -0.081821 -0.060323 0.425566 -0.040616 0.142782 0.152247 -0.222386 0.199595 0.309383 -0.082344 -0.047254 -0.051248 0.160459 0.023888 0.013687 -0.063483 0.001827 0.334654 -0.047425 0.055180 -0.132076 -0.063746 -0.095647 -0.036806 0.213237 0.166411 0.074720 0.334159 0.201736 0.223494 -0.004279 -0.390860 -0.196185 0.099391 -0.024190 0.015178 -0.191888 0.194173 -0.097093 0.432260 -0.046841 -0.203304 0.148245 -0.226998 -0.039824 0.093111 0.111093 0.061653 0.124619 0.290830 0.214220 0.258119 -0.223058 -0.164916 0.333799 0.274537 0.204636 
h 0.487375 0.797411 0.148084 0.315691 -0.141398 0.239260 0.128878 -0.092087 0.610537 -0.300883 0.103250 -0.173369 0.284093 -0.256809 0.068300 -0.051634 -0.049593 -0.080051 0.373894 -0.277266 0.666848 0.271278 -0.097397 0.169548 0.074058 0.618183 -0.005676 -0.135284 0.216456 0.362308 -0.184952 0.247029 0.443788 -0.128744 -0.210491 -0.280671 -0.312948 -0.286327 -0.040239 -0.349056 0.169248 0.432007 -0.082985 0.074277 -0.253143 0.310778 0.046723 -0.001303 -0.176175 0.022207 0.266986 0.085721 -0.004641 -0.173238 -0.074565 0.144507 0.042423 -0.137128 0.157131 -0.470633 0.614886 0.418517 0.129212 0.433527 -0.123922 0.003969 0.259295 0.511261 0.082010 -0.184646 0.374523 -0.037067 0.156531 -0.009617 -0.138030 -0.335464 0.132335 0.200827 -0.188463 -0.433707 0.165062 0.058829 0.255953 0.127535 0.163791 -0.033600 -0.302545 -0.014526 0.170736 -0.114319 0.392772 0.334030 -0.055696 0.104363 0.450980 -0.297345 -0.583590 0.232095 -0.163993 0.257484 
guo 0.102051 -0.450051 0.211130 -0.224527 -0.000815 -0.395113 0.004695 -0.025649 -0.277991 0.022364 0.061396 0.211884 -0.008904 -0.006407 0.028405 0.330104 0.148772 -0.194315 -0.041131 0.064185 0.147120 0.191293 0.204953 -0.177142 0.152023 -0.283738 -0.117838 -0.023291 0.046574 -0.299108 0.069591 0.078549 0.040238 -0.061737 -0.142448 -0.190279 -0.151710 0.239132 -0.059743 -0.223096 -0.298495 -0.003839 -0.258250 -0.040892 -0.049277 0.086068 0.244007 0.111087 -0.034304 0.136255 -0.001265 0.088917 0.098753 0.031071 -0.040593 0.035403 -0.096048 -0.068592 -0.138130 0.152247 -0.291979 -0.282744 -0.070281 -0.495765 -0.094820 0.133915 -0.308671 0.151812 -0.050399 0.016409 0.213652 0.122249 0.004285 0.061343 -0.367718 -0.063854 -0.079660 -0.243726 0.094210 0.007092 -0.246897 0.118061 0.015380 -0.016210 -0.022294 0.025254 -0.059868 0.113518 -0.056034 0.159512 -0.004706 0.006101 -0.008073 0.117299 -0.107583 -0.073086 0.102932 0.148405 0.145141 0.076487 
jie -0.127944 -0.621247 -0.025354 -0.276267 0.051160 -0.012700 0.216966 -0.001329 -0.182414 0.151718 -0.158102 0.146133 -0.063835 -0.009507 -0.048149 0.155688 -0.045455 0.012178 0.115688 0.133716 -0.003205 0.099148 0.099423 -0.115107 0.139653 -0.237924 -0.171551 0.133598 0.031930 -0.061722 -0.010216 -0.264735 0.025218 -0.071061 -0.004751 -0.025861 -0.020755 -0.032705 0.044698 -0.276879 -0.164418 -0.088005 -0.251373 -0.003622 -0.010810 0.189822 0.152197 -0.211458 -0.106381 0.038930 0.036470 -0.055907 0.146902 0.077895 0.005366 -0.089912 0.145811 0.013438 -0.131309 0.029409 -0.066071 -0.126285 -0.100435 -0.158305 -0.092184 0.259868 -0.154318 0.168158 0.097414 0.128745 0.095430 0.036161 -0.072508 -0.128468 -0.236747 -0.076105 -0.121179 -0.195816 -0.064950 0.260764 -0.060129 0.068899 -0.151772 -0.240464 -0.047508 -0.049677 0.005723 0.109989 0.048952 0.149870 -0.026957 0.026687 -0.097209 0.216225 -0.175224 0.141272 -0.131327 0.255190 0.149735 -0.024666 
lai -0.022712 -0.424375 0.152399 0.049361 -0.004965 -0.001127 0.130050 0.005889 -0.269150 0.214754 -0.147587 0.164215 0.077247 0.008003 0.057815 -0.001912 -0.036333 -0.235662 -0.086033 -0.139463 0.053604 0.025141 0.343457 0.160080 -0.002665 -0.119628 -0.082506 -0.007059 -0.057686 0.056119 0.082687 -0.114418 0.048594 0.002183 -0.051849 0.225061 0.214227 0.106183 0.057120 -0.260496 -0.212036 0.157585 -0.376015 -0.041432 -0.019626 0.100666 -0.115789 -0.102865 0.075291 -0.174663 -0.088677 0.019381 -0.028421 0.123011 0.043629 0.037520 0.183896 0.201354 -0.118225 0.047654 0.031639 -0.007368 -0.131134 -0.012714 0.125732 0.028302 0.063535 -0.131198 0.015810 0.099130 -0.039899 0.038149 0.040312 0.013857 -0.056623 -0.109895 -0.121495 0.103313 -0.044128 0.002839 0.021027 -0.143503 0.241132 -0.101642 -0.089899 0.115441 -0.143727 0.023438 0.010788 0.119220 -0.153886 -0.124086 0.022364 0.021191 0.012582 0.019351 -0.093735 -0.101865 -0.122791 0.117675 
tian 0.171703 -0.435345 0.154937 -0.235008 0.322211 -0.085993 -0.031201 -0.035434 -0.374497 0.306416 -0.312408 0.136781 0.025437 0.040647 -0.021629 0.118846 0.077878 0.093359 0.036843 0.033087 -0.140032 -0.221393 0.085985 -0.119649 0.049622 -0.167543 -0.325106 -0.015858 0.082871 0.032261 -0.076351 -0.275881 -0.194903 0.008226 -0.112098 0.233196 0.196779 0.016313 0.182875 -0.024638 -0.216881 -0.035056 -0.325025 -0.060385 0.041700 0.288495 -0.032293 -0.001417 0.100219 -0.555064 0.069644 0.018684 0.030440 0.155834 0.032383 0.150231 0.328356 0.081102 -0.196244 0.067887 0.144907 -0.115496 0.029380 -0.008923 0.029226 -0.025881 0.036920 -0.480086 0.461150 0.271773 -0.072049 0.080150 -0.034687 -0.087522 -0.025763 -0.046482 -0.130340 -0.005033 -0.157189 0.086877 0.188507 -0.045705 0.229128 -0.326450 -0.254088 0.332580 -0.169748 -0.047841 0.221528 0.264917 -0.108912 0.070016 0.120623 0.087149 0.073048 0.366676 -0.172011 0.227925 0.248814 0.030016 
ke -0.271261 0.025711 -0.203405 0.071982 0.271043 0.131944 -0.015992 0.114778 -0.109754 0.179306 0.168249 -0.061260 0.160745 -0.041463 0.071117 0.307684 -0.027946 0.155383 -0.064722 0.176284 0.009051 -0.120854 -0.028323 0.093894 -0.033492 0.091327 0.063525 0.128137 0.151275 0.001418 -0.101450 0.195964 -0.144961 0.280279 -0.217975 0.350226 0.323397 0.005572 -0.042312 -0.019859 -0.198784 0.278031 -0.161832 -0.163854 0.291970 -0.112173 -0.169353 0.037698 0.166565 -0.210640 -0.083175 -0.090477 -0.100460 -0.051098 -0.075366 -0.316233 -0.029923 0.033025 0.216767 -0.151299 -0.085886 0.103706 -0.232068 -0.013198 0.073197 -0.040828 0.144236 -0.314463 -0.093091 0.047327 -0.252065 0.188583 -0.180642 -0.200036 0.002242 0.141234 -0.150165 0.077121 0.110328 -0.019731 0.142280 -0.129626 -0.009617 0.013386 -0.269416 0.053213 0.228840 0.114537 0.175505 -0.115544 -0.065472 -0.153092 0.258441 0.134653 -0.026455 -0.083402 0.126360 0.147623 -0.102568 -0.016451 
yao 0.060414 -0.671407 0.082799 -0.072658 0.041231 -0.206535 0.004281 0.050084 -0.207106 0.147195 -0.186205 0.037830 -0.012419 0.068253 -0.049384 -0.131906 0.143720 0.003789 -0.112949 0.194377 -0.187469 0.059783 0.322069 0.074423 -0.012674 -0.322565 -0.210443 0.066533 0.007801 -0.367012 -0.059076 -0.358004 -0.046644 -0.258861 0.139156 0.028814 -0.055201 0.239795 0.155299 -0.075485 -0.076843 -0.172624 -0.091893 -0.144238 -0.130862 0.108006 0.076795 0.190491 -0.052991 -0.099787 -0.081832 -0.047753 0.137036 0.150159 -0.015588 -0.088983 0.077846 0.001048 -0.218009 0.156334 -0.265894 -0.243639 0.148941 -0.226253 0.038752 0.133911 -0.227895 -0.383913 0.177403 0.120423 -0.063720 -0.039601 -0.225916 -0.093824 0.070266 0.025199 -0.184493 -0.248680 0.001740 -0.043164 -0.120460 0.232687 0.069562 -0.119993 -0.097337 0.185070 0.141609 -0.059493 -0.161356 0.016101 -0.119695 -0.021719 -0.115094 -0.168116 -0.160488 0.252107 0.110444 -0.058381 0.114379 -0.043162 
qing 0.102551 -0.124043 -0.027249 -0.102061 0.192626 -0.162871 -0.118509 0.096414 -0.298337 -0.146285 -0.067452 -0.060226 -0.019553 0.092195 -0.037987 0.007927 -0.014991 -0.139747 -0.041654 0.038017 0.016821 -0.248873 0.112890 -0.039247 0.128343 -0.174777 -0.390835 -0.018188 -0.023657 -0.052831 0.075038 -0.070094 -0.048926 -0.098700 -0.195779 0.027793 -0.187444 0.194799 0.141613 -0.106564 -0.356452 -0.126098 -0.197060 -0.278420 0.112385 0.105743 0.072674 0.176366 0.172106 -0.163552 0.111513 0.181535 0.131272 -0.097999 -0.173261 0.004654 -0.157119 0.025006 -0.151295 0.300695 -0.080698 -0.320709 0.103049 -0.328698 0.065344 -0.158319 -0.113279 -0.074618 0.315724 0.233627 0.025262 0.108613 0.060180 -0.103093 0.003164 -0.102913 0.033935 -0.079116 -0.039166 0.118768 -0.000804 -0.049439 0.076071 -0.054861 -0.296823 -0.104209 -0.224481 0.066641 -0.017221 0.122945 0.046647 -0.036303 0.127616 -0.041020 -0.003165 -0.219710 0.049961 0.173661 0.267910 0.038677 
a 0.346988 -0.543239 -0.103343 0.184947 -0.054500 0.230138 0.666508 -0.162693 0.173841 0.382191 -0.691457 0.249751 0.120235 -0.112847 0.161072 0.160460 -0.009402 0.240595 -0.001968 -0.280942 0.824402 -0.143395 -0.120018 0.107912 -0.275346 0.226017 0.061886 0.035048 -0.298276 0.327335 -0.118066 -0.257037 0.181521 0.309089 0.081261 0.147861 0.058981 -0.359457 -0.129437 -0.267511 0.342281 0.331081 0.003061 0.287760 -0.133522 0.258983 -0.026974 -0.654128 -0.356933 -0.380061 0.083742 -0.221047 -0.060406 -0.182913 0.207921 -0.186935 0.324464 0.171421 0.041704 -0.538441 0.553852 0.841924 0.045115 0.519347 -0.146340 0.405732 0.531203 0.733186 -0.308038 -0.191343 -0.122375 -0.353908 0.168718 -0.025606 -0.334278 0.071606 -0.112473 0.188784 -0.243915 0.241679 0.237998 -0.502212 0.137600 0.053396 0.334124 -0.292123 0.022040 -0.120465 0.099865 -0.105438 -0.042119 -0.120743 -0.161833 0.037987 -0.091126 0.645044 -0.405737 -0.035552 -0.194490 0.111124 
p 0.669102 0.960404 0.110523 0.265984 -0.069076 0.028116 0.099053 -0.019033 0.584893 -0.048919 0.257250 -0.081868 0.335731 -0.312616 -0.110759 0.057129 0.330132 0.182923 0.652704 -0.487574 0.590466 0.194683 -0.194634 0.092027 0.269199 0.516240 -0.139935 -0.254919 0.173199 0.220477 -0.130137 0.456077 0.582289 -0.196475 -0.087097 -0.642831 -0.327390 -0.038216 -0.009688 -0.356148 0.301042 0.507587 -0.047373 -0.023545 -0.408131 0.233765 0.000447 -0.041925 -0.252346 0.026535 0.537771 0.410816 -0.400029 -0.073125 -0.034759 -0.000102 0.107280 -0.317278 -0.017139 -0.474139 0.636999 0.145171 0.621652 0.289882 -0.238086 0.166583 0.226458 0.347767 0.158906 0.172124 0.552389 -0.171884 -0.059357 0.120444 -0.301887 -0.435445 0.127787 0.145132 -0.268053 -0.568749 0.299386 0.548269 0.352204 0.302797 0.511361 0.168995 -0.226912 -0.043674 0.175775 -0.415058 0.449789 0.504277 -0.253270 0.074638 0.557805 -0.097160 -0.571009 0.331857 -0.055327 0.589038 
jiu -0.003397 -0.671716 0.074122 -0.209704 -0.027208 -0.184066 0.010491 -0.182532 -0.279083 0.120128 0.068691 0.194798 -0.009466 0.120165 0.016434 0.386406 0.152204 -0.086964 0.102699 0.003358 0.183610 0.249445 0.101627 -0.070448 0.099866 -0.322637 -0.039068 0.037206 0.130275 -0.212440 0.134598 0.036797 0.084395 -0.017846 0.022349 -0.263632 -0.046768 0.053339 -0.097863 -0.084051 -0.124453 -0.071670 -0.121495 0.134724 -0.010319 0.114174 0.136423 -0.072189 -0.144225 0.317654 -0.030334 0.127430 0.018226 0.152401 0.038951 0.075438 -0.089856 -0.096309 -0.279618 0.187936 -0.151419 -0.291326 -0.011065 -0.242433 -0.205020 0.145388 -0.266517 0.295689 0.018211 0.048724 0.105296 0.145397 0.059623 0.060276 -0.210108 -0.032075 -0.059446 -0.211356 0.076705 0.107439 -0.187077 0.185288 -0.118690 -0.123308 0.240984 0.016498 -0.009828 0.162741 -0.002271 0.196948 -0.024890 0.132413 -0.044504 0.180128 0.012721 0.055598 0.059839 0.013646 0.146886 -0.021675 
c 0.763156 0.447826 0.073684 0.259486 0.001590 0.188989 0.127140 0.022657 0.593117 0.241220 -0.183498 -0.167111 0.132345 -0.454905 -0.084672 0.098069 0.282680 0.322183 0.688320 -0.479581 0.773827 -0.027062 -0.236248 0.050321 0.136791 0.471774 -0.161412 -0.199202 -0.005407 0.248909 -0.341202 0.149343 0.504037 -0.108541 -0.058478 -0.449499 -0.391119 -0.240705 0.002627 -0.578334 0.417964 0.467493 -0.174421 0.064415 -0.207121 0.411804 -0.065098 -0.273554 -0.309950 -0.309746 0.641814 0.230912 -0.265370 -0.247374 0.017372 -0.048164 0.218606 -0.331707 0.032413 -0.545789 0.832893 0.340649 0.130215 0.455617 -0.160596 0.270697 0.559189 0.636772 0.261050 0.166551 0.485770 -0.372003 0.068399 0.127771 -0.309983 -0.294272 0.097423 0.200205 -0.283594 -0.315141 0.334463 0.147291 0.370477 0.393816 0.516889 0.143265 -0.330565 -0.230130 0.184396 -0.317792 0.372106 0.506027 -0.255296 -0.118794 0.385249 0.034316 -0.632036 0.299188 -0.035943 0.500192 
jing -0.112883 0.285369 0.017108 -0.238356 0.059807 0.066640 0.013762 0.013404 -0.080642 -0.149439 -0.114489 0.096511 -0.086165 0.169933 -0.123571 0.041106 -0.065880 -0.006883 -0.081803 0.275649 -0.370764 -0.193435 -0.153585 -0.175552 0.095733 -0.159973 -0.169318 0.013694 0.102806 0.074136 0.129054 -0.064881 -0.256483 -0.067347 -0.084124 0.116082 0.185131 0.099658 0.232918 0.333850 -0.078765 -0.131355 0.115462 -0.077995 -0.086083 0.058006 0.023827 0.063214 0.210133 0.055357 -0.046167 0.116107 0.071125 0.041181 -0.050706 0.129225 0.056706 0.121659 -0.038280 0.098556 -0.118758 -0.125933 0.229383 -0.086833 -0.045585 -0.102287 -0.201637 -0.128025 0.087435 0.053851 -0.063395 0.101754 -0.063905 -0.116357 0.068153 0.016787 0.058057 -0.112906 -0.010982 0.078936 0.054648 0.132720 0.019398 -0.276514 -0.358576 0.034863 0.043742 -0.021024 -0.034563 0.050829 -0.007252 -0.005518 0.199045 0.214497 -0.060660 0.109919 0.045517 0.154199 0.241581 -0.060648 
shang 0.025438 -0.623656 0.044164 -0.064677 0.019417 -0.102951 0.149552 0.063900 -0.182639 0.150277 -0.095770 0.057115 -0.108373 -0.123435 0.117543 0.203977 -0.028621 -0.264070 -0.318074 0.006112 0.105168 0.212801 0.330855 -0.059181 -0.152856 -0.119056 0.000804 0.018104 -0.039430 0.000052 0.007017 -0.247304 -0.069110 -0.040348 -0.102387 0.172470 -0.019911 -0.049526 -0.141159 -0.324995 -0.110766 0.064276 -0.266271 0.082187 0.105982 0.178029 0.045954 -0.138722 -0.162139 -0.148432 -0.047874 -0.258975 0.210068 0.038918 0.037415 0.020422 0.009014 0.013025 -0.061363 0.031533 -0.258214 0.020772 -0.636578 -0.155951 -0.069707 0.227827 0.015947 -0.004527 -0.012546 -0.127632 0.038307 -0.022120 0.213973 0.199546 -0.249962 -0.109479 -0.123495 -0.187880 -0.035660 0.193739 -0.221560 -0.198399 0.101821 -0.052866 -0.198933 0.040069 -0.041723 0.003550 -0.109612 0.215542 -0.203385 -0.075190 -0.034522 -0.076838 -0.145241 0.111837 0.000786 0.111152 0.047096 -0.228329 
sheng 0.116741 0.122770 -0.136342 0.061278 0.370091 0.044474 -0.153566 0.066601 -0.109065 0.120486 0.156300 -0.161825 0.066576 -0.009952 -0.214918 0.014465 0.137388 0.194656 -0.115527 0.023834 -0.209378 -0.296584 -0.050368 0.166638 0.124442 0.008764 -0.252730 -0.075941 0.159439 0.155078 -0.030338 0.211457 -0.043516 -0.027317 -0.328942 0.014100 0.158075 0.153013 0.196936 0.085343 -0.132329 0.143887 0.038884 -0.270993 -0.049942 0.131232 -0.143635 0.119964 0.099554 -0.305636 0.065087 0.195941 -0.157222 -0.063829 -0.065450 -0.095870 0.070720 0.117486 0.048353 -0.016443 0.029096 -0.195754 0.091889 -0.153966 -0.012127 -0.227094 0.113135 -0.457937 0.403898 0.317622 -0.043808 0.042711 0.041278 -0.006725 -0.031016 -0.246225 0.042369 -0.013480 -0.143329 -0.146955 0.290249 -0.071946 0.311092 -0.128239 -0.348861 0.095386 -0.022430 0.083328 0.133714 -0.212882 0.057469 -0.035330 0.279202 -0.031858 0.218300 -0.078524 0.035895 0.353555 0.212328 0.141065 
xing 0.157180 -0.224161 0.062637 -0.158380 0.068901 -0.147605 -0.055593 -0.112533 -0.216908 0.105195 0.091193 0.129964 -0.047262 -0.086533 0.013066 0.277341 0.325220 0.091222 -0.027722 -0.078897 0.073785 0.070294 0.000870 -0.108973 -0.023150 -0.062954 -0.037547 -0.059442 0.067449 0.059169 0.115291 0.081210 -0.153186 0.161870 -0.186769 -0.038535 0.133776 -0.015534 -0.142706 0.055860 0.039439 0.019715 -0.028139 0.054082 -0.020554 0.212141 0.026485 0.214390 -0.030697 -0.119098 0.068166 0.141248 -0.115994 0.081280 -0.100759 0.093011 0.114439 -0.037267 -0.125732 0.020120 -0.041683 -0.133339 0.246693 -0.159666 -0.258516 -0.009703 -0.000137 -0.176708 0.054934 0.000290 0.011942 0.093390 0.102525 0.052571 -0.084378 -0.038962 -0.011636 -0.189327 -0.034203 -0.109673 0.122128 0.097973 0.118702 -0.021330 0.035357 0.189772 0.034690 -0.044654 0.222746 -0.022174 -0.019223 0.136232 0.134923 0.140556 0.124373 0.304006 -0.029769 0.065279 0.134645 -0.032380 
hai 0.121828 -0.620797 0.190495 -0.247899 0.012784 -0.157958 0.041204 -0.086067 -0.299805 0.213259 -0.078341 0.103908 0.035396 0.017730 0.030032 0.289924 0.120931 -0.070011 0.141238 -0.040747 0.159684 0.107241 0.132316 -0.086617 0.093822 -0.256014 -0.157218 0.024289 0.130296 -0.268058 0.013316 -0.063342 0.069514 -0.084563 -0.061253 -0.108597 -0.077078 0.110971 0.029274 -0.230627 -0.240282 -0.057242 -0.271199 -0.004334 0.023525 0.104535 0.131121 -0.010971 -0.004127 0.056881 -0.008103 0.044116 0.112820 0.119334 0.001352 0.045149 -0.039267 -0.038167 -0.223148 0.160608 -0.034031 -0.241308 -0.008459 -0.240199 -0.048270 0.127766 -0.118673 0.323872 0.137081 0.124606 0.094125 0.018722 0.003069 0.033385 -0.254388 0.001707 -0.093379 -0.134770 -0.014223 0.096571 -0.099263 0.093366 -0.048572 -0.149318 0.003052 0.088997 -0.118895 0.099610 0.085539 0.244856 -0.037514 0.060127 -0.023480 0.101474 0.034785 0.013623 -0.064282 0.095460 0.097852 0.086757 
he 0.199793 -0.346304 0.221178 -0.210371 0.365857 -0.109956 -0.166135 0.079301 -0.230279 0.031390 -0.170547 -0.000917 0.055395 0.047594 -0.063248 -0.006276 -0.011545 -0.098050 0.114809 -0.047667 0.049623 -0.203341 0.243212 0.066530 0.183134 -0.058602 -0.346889 0.023875 -0.045715 -0.234585 0.033623 -0.046183 0.105519 -0.058906 -0.232027 0.181358 -0.052039 0.155940 0.175494 -0.112074 -0.350915 0.037851 -0.344136 -0.283108 0.106150 0.300918 -0.068315 0.345794 0.220138 -0.298979 0.141615 0.205250 0.053355 -0.014821 -0.196508 0.059325 0.080326 0.090169 -0.148751 0.204843 0.000128 -0.217049 0.190490 -0.217874 0.138085 -0.152497 -0.018080 -0.114582 0.252606 0.202382 -0.019842 0.126224 -0.087413 -0.209478 0.125731 -0.161464 -0.010334 -0.041526 0.023776 -0.100224 0.074767 -0.091256 0.253091 -0.107935 -0.336635 0.118278 -0.229622 -0.040961 -0.020652 0.098825 0.066652 -0.013550 0.261074 0.042884 0.027921 -0.080399 -0.031815 0.076051 0.205646 0.152347 
fa 0.072624 0.201605 0.055684 -0.279115 0.273931 -0.047225 -0.130676 0.045511 0.103043 -0.128337 0.136621 -0.165871 -0.218550 -0.321403 -0.010591 0.136642 0.075661 -0.015231 -0.082808 0.303345 -0.120335 -0.000545 -0.170722 -0.259775 0.077872 0.115569 0.035289 0.031951 -0.050519 0.096580 -0.118660 -0.011764 -0.200822 0.060312 -0.234407 0.118178 -0.081593 -0.013658 -0.026808 -0.000090 -0.050677 0.044695 -0.063347 -0.025269 0.238334 0.295699 0.131579 0.306244 0.037910 -0.271147 0.162541 -0.076527 0.103561 -0.078473 -0.133934 -0.014054 0.059983 -0.069796 0.145994 -0.048696 -0.107181 -0.023544 -0.543447 -0.217341 -0.009706 -0.057868 0.005011 -0.068340 0.008598 -0.168404 0.221196 0.144365 0.149708 -0.019350 -0.188079 -0.021813 0.016234 -0.196503 0.175204 -0.126144 0.044737 -0.101914 0.104626 0.021195 -0.337449 0.150048 0.041085 -0.136659 0.034359 0.122818 -0.095271 0.080310 0.175621 0.162516 -0.051068 -0.085819 0.058247 0.269794 0.137004 -0.104874 
jian 0.029519 -0.133033 0.107649 -0.237776 -0.016522 0.015469 0.332558 -0.076085 -0.247812 0.093846 -0.037079 0.293547 0.149842 0.130965 -0.091867 0.363034 0.050206 0.004021 0.124503 0.110141 -0.208952 -0.006932 0.010199 0.018845 0.153012 -0.104206 -0.198231 -0.042964 0.234084 0.106028 0.097522 -0.041709 -0.052197 -0.034291 -0.012906 -0.081452 -0.008014 0.152629 0.130704 0.061951 -0.204559 -0.033334 -0.092317 0.018084 -0.153988 0.028829 0.103157 -0.198936 0.099084 -0.143941 -0.102402 0.165725 -0.029254 0.167730 -0.019141 0.061059 0.067585 0.096216 -0.242090 0.152781 0.005549 -0.106469 0.292296 -0.032845 -0.041781 0.071747 -0.182255 -0.249630 0.099035 0.153070 0.009901 0.105717 -0.128709 -0.025929 -0.067053 -0.103564 -0.045158 -0.077599 -0.019452 0.028413 0.143133 0.267689 0.077587 -0.302949 -0.016733 0.053205 -0.011971 0.113207 0.027404 0.163616 -0.103425 -0.018231 0.012710 0.180279 0.056587 0.222119 -0.076608 0.093665 0.032144 0.108013 
jin 0.308018 -0.460147 0.112709 -0.442709 0.435693 0.015784 0.137644 -0.195427 -0.172713 0.200832 -0.278748 0.142347 -0.206941 -0.113150 -0.064802 0.227254 0.075233 0.017824 -0.085515 0.117155 -0.013729 -0.405872 -0.297137 -0.220431 0.057827 -0.125375 -0.013514 -0.022206 -0.083608 0.108997 -0.050985 -0.176223 -0.236773 0.328269 -0.229596 0.058545 0.022726 -0.080816 0.141415 0.113302 -0.081794 -0.074805 0.037573 0.238894 0.147477 0.382192 0.093838 -0.214124 0.114082 -0.467684 -0.018996 -0.023896 -0.049969 -0.142946 0.022743 0.079470 0.173967 0.124448 -0.051645 -0.064851 0.242744 0.198251 -0.167020 -0.077584 -0.032635 -0.059772 0.083316 0.151125 0.153787 0.024551 0.141832 0.082187 0.256311 -0.107996 -0.298047 -0.064883 -0.009922 0.035049 -0.036159 0.182231 0.184477 -0.461707 0.229988 -0.219597 -0.178927 -0.154440 -0.170449 -0.128130 0.113740 0.262041 -0.202196 -0.113026 0.272472 0.307767 -0.105341 0.261968 0.008958 0.123513 0.137679 -0.024148 
bo -0.170592 0.949196 -0.127666 0.313921 0.340712 -0.011183 -0.210532 0.092762 0.100972 -0.361315 0.245447 -0.198401 0.238945 -0.028102 0.182500 0.494845 0.024741 0.123880 -0.077076 0.108291 0.047953 -0.201962 -0.267055 0.028751 -0.054515 0.332368 -0.042585 -0.243502 -0.003644 0.274647 0.033862 0.509132 -0.162846 0.312740 -0.246228 0.269725 0.104750 0.001885 -0.075249 0.312145 0.074291 0.285436 0.037883 -0.228557 0.285055 0.040041 -0.222936 0.285723 0.185311 -0.226557 0.293262 0.274180 -0.227545 -0.040390 -0.089414 -0.061782 -0.176517 -0.130577 0.211162 -0.092453 0.068111 0.193968 0.045160 0.217485 -0.094175 -0.295300 -0.028382 -0.148122 -0.195724 -0.076915 0.056944 0.256581 -0.018556 0.038996 0.069453 0.135646 0.065975 0.002485 0.175681 -0.227491 0.325986 0.102363 0.260227 0.282929 -0.336157 0.227636 0.130477 -0.084695 0.008190 -0.057245 -0.011324 0.091839 0.404756 0.034772 0.249897 -0.274243 0.115325 0.237875 0.148136 -0.012728 
； 0.028165 1.275042 0.065293 -0.269024 0.214942 -0.197966 -0.354591 0.173603 0.409690 -0.169896 0.245686 -0.122663 -0.161342 -0.197120 0.071531 0.436784 0.165738 0.018581 -0.005113 0.546568 0.094199 0.345435 -0.114858 -0.913688 0.116991 -0.204619 -0.192746 -0.061357 0.364094 0.118042 -0.140586 0.507003 -0.308507 0.067027 -0.601730 0.077840 0.224197 -0.167766 -0.142418 -0.072067 -0.012353 0.150105 -0.081069 -0.287204 0.091123 0.199597 0.269732 0.646128 -0.066991 0.138222 0.215261 -0.101088 0.305286 -0.182315 -0.038275 -0.015404 -0.097099 -0.407264 0.398046 -0.262027 -0.333195 -0.188744 -0.324662 -0.510974 -0.447295 0.133072 -0.390126 -0.314396 0.124877 -0.251123 0.272316 0.256311 0.027324 -0.163319 -0.405024 0.046352 -0.031011 -0.484754 0.118763 -0.202032 -0.119632 0.377832 -0.033319 -0.037741 -0.632546 0.291173 0.363469 0.193763 0.319615 -0.081906 0.347063 0.521745 0.404612 0.365106 -0.001663 -0.190004 0.004622 0.768791 0.591364 -0.509143 
zhu 0.043517 -0.174618 0.039694 0.028785 0.231911 0.098533 0.006906 0.047627 -0.025653 0.170834 0.116396 -0.120739 0.168691 -0.097199 0.157224 0.373539 0.259349 0.225535 -0.007321 -0.034006 0.184908 0.085786 0.213930 0.103305 -0.094898 0.166822 -0.239637 -0.019320 0.172258 0.084533 -0.141084 0.033243 -0.033374 0.208011 -0.198824 0.340435 0.181667 -0.133611 -0.278910 -0.110884 0.046921 0.355007 -0.368107 -0.240810 0.250530 0.230048 -0.217847 0.322918 -0.026434 -0.334276 0.274666 0.059746 0.047320 0.048475 -0.251619 -0.155216 -0.015623 -0.080314 -0.004976 -0.104410 0.035721 0.004771 -0.234182 0.103997 -0.110230 -0.002180 0.117711 -0.314931 0.063408 0.000785 -0.318289 0.154350 -0.043411 -0.019861 0.063155 0.106793 -0.230621 -0.302656 0.226922 -0.229181 0.280090 0.176843 0.283911 0.150436 -0.190789 0.404610 0.229792 0.027009 0.150266 -0.184837 -0.021434 0.074777 0.296062 -0.033921 0.164533 0.217150 -0.018240 0.213241 0.166316 -0.029079 
huo -0.204317 -0.166184 0.116994 0.031591 0.260917 -0.271529 -0.056795 -0.195245 -0.350035 -0.165450 0.288590 0.011728 0.062473 0.066827 0.132692 0.295277 0.047199 -0.237646 -0.319522 0.048465 -0.123618 -0.056982 -0.079549 0.136938 -0.084317 0.064522 0.216436 -0.118417 -0.107332 0.018638 0.170414 0.106342 -0.180784 0.269412 -0.119928 0.144711 0.228221 0.118684 -0.078148 0.295431 -0.029841 0.138298 -0.069807 0.094032 0.205800 0.066779 -0.145157 0.104668 0.165075 -0.048634 0.028413 0.003082 -0.222324 0.260188 0.054128 0.155653 -0.004008 0.106944 -0.038267 0.005456 -0.070381 0.009310 -0.233979 -0.040062 0.038806 -0.170901 -0.112139 0.001025 -0.205516 -0.124877 0.113817 0.334995 0.142959 0.255348 -0.212387 0.053923 -0.085125 -0.065388 0.141953 -0.107214 0.036237 -0.156601 0.262345 0.005367 -0.228563 0.304292 0.000231 -0.064152 -0.040533 0.233866 -0.345437 -0.244089 0.149249 0.116957 0.100184 -0.128557 0.138656 0.039573 -0.023549 0.053413 
hua 0.047975 0.199756 0.141827 -0.262444 0.078734 0.232308 0.133655 0.008271 -0.213148 0.121656 -0.167633 0.160359 -0.034159 -0.086540 -0.039351 0.125436 -0.242885 -0.175730 -0.055809 0.231320 -0.215374 -0.069214 -0.033223 -0.180683 0.172023 -0.039773 -0.096088 0.021953 0.252508 0.238148 -0.028789 -0.061683 -0.281723 0.019457 -0.330108 0.252421 0.065356 -0.024407 0.255128 -0.041498 -0.402397 0.025479 -0.221478 0.081285 0.034690 0.181067 0.144830 -0.197181 0.289257 -0.435652 -0.286873 0.004455 0.190458 -0.119007 -0.078325 0.169736 0.177437 0.100231 0.075885 0.005878 0.068092 0.058394 -0.178368 -0.137724 -0.032503 -0.175871 -0.094602 -0.226221 0.207051 0.113883 0.104989 0.186333 0.120179 -0.277491 -0.041269 -0.159929 0.082237 0.144795 -0.149128 0.183059 -0.006938 -0.180554 0.027594 -0.378815 -0.411559 -0.150926 -0.234361 0.010698 0.131566 0.315087 0.009207 0.044262 0.322769 0.432303 0.019441 -0.079778 -0.098299 0.336154 0.040133 -0.112270 
shen -0.108074 -0.936979 0.151463 -0.478969 0.116009 -0.011782 0.104365 -0.095611 -0.420752 0.380567 -0.211342 0.345326 -0.170263 0.204061 -0.001998 0.591145 0.083870 -0.032292 0.017747 0.139072 -0.142324 -0.123958 0.115033 -0.292174 0.002553 -0.345802 -0.184736 0.088974 0.187704 0.037932 0.071272 -0.294846 -0.259172 0.162977 -0.097283 0.141488 0.321018 -0.112190 0.007559 -0.045425 -0.234503 -0.092888 -0.384478 0.072177 0.218678 0.186018 -0.048972 -0.226186 0.141674 -0.062963 -0.062509 -0.012001 0.104749 0.165869 -0.014159 0.230346 0.094388 0.054375 -0.298630 0.165346 -0.042030 -0.266695 0.000213 -0.127301 -0.052948 0.075319 -0.048869 -0.002389 0.238389 0.139544 -0.205111 0.206949 0.096343 -0.086851 0.041491 0.051416 -0.185266 -0.129197 0.001596 0.354729 -0.018703 -0.035944 0.044622 -0.339743 -0.035369 0.157540 -0.077960 0.056829 0.231699 0.273437 -0.162655 0.014576 0.170851 0.293343 -0.070450 0.344093 -0.069160 0.043480 0.254540 -0.192539 
ye 0.417160 -0.658678 0.195689 -0.230944 0.147564 -0.219909 0.042967 -0.198363 -0.310924 0.377445 -0.286640 0.234290 -0.105324 0.064746 0.006688 0.284767 0.418870 0.050911 0.054252 0.072349 0.068341 -0.048259 0.131888 -0.188756 -0.075367 -0.417274 -0.265537 -0.032305 -0.007842 -0.047757 -0.022070 -0.356406 -0.192273 -0.039463 0.024475 -0.061907 0.110150 0.056842 0.027111 0.043155 -0.008796 -0.192866 -0.146130 0.073248 -0.026708 0.308000 0.005432 0.200369 -0.073092 -0.258910 0.097162 0.082256 -0.011439 0.199417 0.012001 0.183145 0.143425 -0.053799 -0.454030 0.146202 0.022782 -0.217723 0.153251 -0.141954 -0.121215 0.127465 -0.021174 -0.356638 0.394605 0.034010 -0.050518 0.060919 0.050940 0.004638 0.041881 -0.012471 -0.185547 -0.265121 0.044670 -0.070193 0.100065 0.142541 0.288524 -0.125864 0.113878 0.341478 -0.010560 -0.121298 0.106257 0.179070 -0.143709 0.167106 0.004248 -0.032901 0.010855 0.517532 -0.092911 -0.153584 0.251809 -0.068376 
shou 0.220016 0.061492 -0.014591 -0.200639 0.071769 -0.078046 0.007632 0.000442 -0.135851 0.078074 0.164112 0.145376 -0.032233 -0.176739 -0.004978 0.222721 0.138669 -0.085032 -0.150168 0.066718 -0.179213 0.029320 0.048249 -0.101387 -0.071701 -0.113656 0.071940 -0.112812 0.154139 0.147911 0.087830 0.169885 -0.291577 0.047079 -0.266786 0.011486 -0.093871 0.135216 0.026021 0.111755 -0.260704 -0.053861 0.037821 0.093987 0.100078 0.043646 0.158049 0.166243 0.132737 -0.343303 -0.263664 0.083445 -0.053141 -0.052567 -0.083239 0.022855 -0.127673 -0.061880 -0.114850 0.204230 -0.220349 -0.107184 0.052592 -0.240201 -0.175889 -0.059294 -0.030971 -0.611433 0.075112 -0.023872 0.048526 0.078527 0.143926 0.007216 0.004647 -0.104263 0.152064 -0.038277 -0.043890 -0.021282 -0.001551 0.023568 0.105772 -0.075360 -0.070498 -0.161214 -0.023240 -0.040406 0.048492 0.131230 -0.120734 0.074111 0.239212 0.140071 0.068583 0.065281 0.220798 -0.135010 -0.014906 -0.284507 
wu 0.340894 -0.187077 0.364428 -0.385978 0.251921 -0.055467 0.178208 -0.278715 -0.290442 0.317876 -0.363560 0.292313 -0.130778 0.136826 -0.038471 0.290628 0.135538 -0.150665 0.066918 0.003474 -0.032590 -0.377920 -0.108459 -0.289152 0.075122 -0.257483 -0.203243 -0.080598 -0.030078 0.154900 0.090359 -0.200357 -0.179643 0.214261 -0.224083 0.089868 0.328402 -0.055044 0.173680 0.113263 -0.200091 -0.040793 -0.265394 0.120788 0.044921 0.300811 -0.053601 -0.108529 0.215689 -0.314164 0.008332 0.076424 -0.022858 0.025898 0.043275 0.364546 0.189493 0.156262 -0.243646 0.075248 0.325052 0.012479 0.117537 -0.094358 0.063332 -0.137541 0.026800 -0.000705 0.265101 0.076980 -0.013761 0.185053 0.228538 -0.120871 -0.089054 -0.081542 -0.071263 0.070931 -0.020906 0.085141 0.161477 -0.282558 0.345941 -0.303474 -0.119956 0.123519 -0.250886 -0.053094 0.214805 0.333138 -0.092891 -0.051188 0.262806 0.307047 0.060847 0.239229 -0.179372 0.056860 0.176474 0.035728 
xian -0.261506 -0.079324 -0.030792 -0.104965 0.188194 -0.257569 -0.201979 -0.184728 -0.273388 -0.014577 0.297634 0.027440 -0.093101 0.185965 -0.078036 0.565028 0.266774 0.171082 -0.174463 0.246553 -0.255189 -0.196517 -0.294113 -0.213708 0.054122 -0.215259 -0.084903 -0.125274 0.161646 0.071882 0.089628 0.242246 -0.197148 0.205449 -0.141892 -0.191558 0.349311 0.151527 -0.022448 0.307085 0.050242 0.002152 0.057306 -0.064220 0.001441 -0.003177 -0.098162 -0.003593 0.018566 0.234870 0.155467 0.164183 -0.127470 0.130643 0.096859 0.087179 -0.100535 -0.034136 -0.029661 0.060323 -0.069622 -0.317928 -0.195896 -0.201934 -0.111925 -0.071534 -0.136840 0.044266 0.124327 0.061163 0.060354 0.229087 0.190589 0.338898 -0.363897 0.111931 -0.088635 -0.217487 0.130844 0.006981 0.151862 0.039033 0.183652 -0.055678 -0.083946 0.361912 0.109533 0.131840 0.155816 0.027051 -0.109693 -0.016975 0.154872 0.006354 0.135948 -0.033187 0.125848 0.353926 0.338921 0.097841 
ba 0.223396 -0.282306 0.111008 -0.123665 0.376370 0.057985 0.044369 0.025311 -0.149586 0.408894 -0.039522 0.047300 0.038936 -0.054916 -0.062186 0.156772 0.143933 0.119668 0.138793 -0.114366 0.183422 -0.289053 0.063579 -0.008877 0.105773 0.021093 -0.158560 0.043520 0.032805 0.029729 -0.089446 0.056100 0.092227 0.208543 -0.148122 0.096928 0.212771 -0.012491 0.075112 -0.179338 -0.178867 0.300627 -0.290012 -0.167116 0.159000 0.152283 -0.178206 -0.100621 0.047282 -0.404889 0.151097 0.080964 -0.174793 -0.061406 -0.021428 -0.139876 0.140256 0.049972 -0.074064 -0.047338 0.246035 0.037733 -0.084618 -0.052639 0.141432 0.030077 0.277729 -0.079451 0.237012 0.201815 -0.117276 0.039111 0.023984 -0.113644 -0.033007 -0.125208 -0.154466 0.130716 -0.014004 -0.041686 0.250669 -0.180399 0.282681 -0.032861 -0.041102 0.091627 -0.074860 0.071732 0.187890 -0.075691 -0.001247 -0.004356 0.172975 0.115650 0.098896 0.174369 -0.076211 0.180978 0.107354 0.236642 
o 0.228786 0.933292 -0.189848 0.570524 -0.026850 0.772906 0.546815 0.106014 0.445740 0.279364 -0.647363 0.229759 0.373707 -0.181298 -0.057031 -0.090011 -0.224110 0.418348 0.357603 -0.321222 0.389715 -0.353923 -0.293062 0.327758 -0.119696 0.633409 -0.004318 -0.137175 -0.111334 0.888636 -0.136272 0.028065 0.110625 0.209128 0.052704 0.274507 0.286301 -0.368319 0.271391 -0.076374 0.441461 0.579650 0.043552 0.095840 -0.335860 0.199236 -0.389328 -0.729761 0.049974 -0.774819 0.011623 0.168882 -0.453486 -0.168146 0.183230 -0.071473 0.617440 0.196561 0.160788 -0.658731 0.899978 0.923748 0.635786 1.015401 -0.042576 0.097130 0.742601 -0.192395 -0.117956 0.192122 -0.148853 -0.313540 -0.176612 -0.258855 0.123343 -0.150385 0.130974 0.712815 -0.588466 0.031033 0.630041 -0.176158 0.314305 0.004620 0.179994 -0.194294 -0.163087 -0.311068 0.242522 -0.287912 0.094703 0.113617 0.021657 0.238334 0.244266 0.451974 -0.640620 0.005821 -0.312791 0.324041 
men 0.194086 -0.568455 0.209309 -0.254131 0.337423 -0.072212 0.023863 -0.048935 -0.330154 0.197102 -0.090508 0.036979 0.008499 -0.076393 -0.036942 0.055163 0.096035 -0.107261 0.058860 -0.054473 -0.049683 -0.211270 0.089313 0.149015 0.120872 -0.069660 0.027634 0.063736 -0.109494 -0.219327 0.021817 -0.059141 -0.018667 0.130686 -0.102329 0.145321 -0.041710 0.158482 0.132423 -0.026776 -0.337896 0.023062 -0.236227 -0.026140 0.252010 0.168048 -0.020411 0.115147 0.223088 -0.349137 -0.086333 0.072561 -0.111397 0.022965 -0.129911 -0.022267 0.077596 0.114706 -0.199109 0.148979 0.040434 -0.065107 0.089698 -0.218628 0.175197 -0.148808 0.040374 -0.102124 0.042831 0.161478 0.016195 0.140955 -0.045470 -0.226608 0.058044 -0.042745 -0.064633 0.119091 0.060591 0.004822 0.041561 -0.241297 0.146927 -0.120227 -0.094989 -0.035292 -0.162417 -0.087292 0.006759 0.172587 -0.145664 -0.125495 0.191725 0.193028 -0.049962 0.009198 0.096500 -0.154994 -0.044843 0.102584 
zuo 0.039185 -0.516236 0.227260 -0.253367 0.039672 -0.092285 0.204492 -0.082411 -0.193179 0.243977 -0.167976 0.304544 -0.024300 -0.140651 0.206070 0.381487 0.071780 -0.143449 -0.005477 0.088109 0.101569 0.345731 0.188109 -0.388587 -0.040476 -0.168183 -0.058320 0.008402 0.053057 0.121772 -0.015275 -0.223072 -0.136118 0.093006 -0.057704 0.166433 0.140681 -0.195650 -0.125432 -0.256135 -0.077807 0.042442 -0.407469 0.153314 0.058077 0.289623 0.174067 -0.037015 -0.139253 -0.263205 -0.002006 -0.169201 0.149685 0.245976 0.098215 0.117501 0.273603 -0.075488 -0.169063 0.024433 -0.064858 0.037719 -0.293740 -0.073039 -0.190412 0.293054 -0.101024 -0.250680 0.035859 -0.101444 0.130425 0.077544 0.085239 0.032197 -0.280805 -0.027243 -0.214440 -0.247329 -0.007585 0.093379 -0.016048 0.109981 0.032019 -0.202858 0.004543 0.262556 0.012694 0.009557 0.209314 0.396139 -0.185845 0.191334 -0.028142 0.207943 -0.044329 0.371593 -0.208212 0.156976 0.094878 -0.213731 
、 -0.089946 0.528414 0.270988 -0.318218 0.272307 -0.255207 -0.011831 -0.055804 -0.237935 -0.197136 0.210332 0.371422 0.139455 0.077839 0.230544 0.590876 0.002954 -0.392939 -0.149586 0.189767 0.091048 0.209167 0.086124 -0.558146 0.122577 -0.123498 -0.008611 -0.046399 0.226575 0.101151 0.300848 0.377393 -0.230926 0.270198 -0.430220 0.224543 0.307824 -0.007255 -0.062513 0.144115 -0.525939 0.241976 -0.364774 -0.082649 0.210778 0.080590 0.224056 0.303557 0.160874 -0.013551 -0.210935 0.057557 0.032276 0.094218 -0.060962 0.207784 -0.004857 -0.039877 -0.073869 0.134974 -0.323817 -0.109362 0.204860 -0.509288 -0.225217 -0.109883 -0.447917 -0.390228 -0.145623 -0.052920 0.137430 0.475733 0.105648 -0.263916 -0.196944 -0.116459 -0.084668 -0.132031 0.014415 -0.019875 -0.136629 0.122523 -0.011785 -0.297088 -0.320432 -0.014850 0.009051 0.214268 0.226686 0.361475 0.026154 0.106002 0.358765 0.679350 0.089488 -0.065495 0.020699 0.420706 0.214457 -0.201177 
wan -0.015958 -0.422812 -0.065984 -0.132309 0.115620 0.220948 0.001019 0.047982 -0.053593 0.377452 0.109949 -0.154697 -0.046839 -0.171966 0.054355 0.211198 0.091341 0.161549 -0.068485 0.083248 -0.133187 -0.041065 -0.030804 0.003702 -0.115966 -0.048893 0.161015 0.082110 0.248228 -0.083091 -0.260945 -0.007188 -0.253586 0.175450 -0.162908 0.245196 0.130870 -0.112794 -0.018468 -0.007767 -0.192633 0.079890 -0.083108 0.013223 0.364073 -0.154216 -0.023483 -0.069550 0.131777 -0.233722 -0.242955 -0.284802 0.085034 -0.104850 -0.069913 -0.143568 -0.131680 -0.029329 0.142378 -0.101069 -0.073689 0.045081 -0.361225 -0.055139 0.079472 -0.097702 0.146474 -0.306503 0.106189 0.043617 -0.340738 0.044939 -0.027926 -0.156627 0.093155 0.201463 -0.114053 0.088705 0.078765 0.102246 -0.041453 -0.208695 -0.109485 -0.052551 -0.077443 -0.017383 0.156288 0.045759 0.227310 -0.018976 -0.081380 -0.110834 0.253935 0.088676 -0.010081 0.000362 0.165809 -0.072350 -0.168553 -0.192002 
dong -0.035501 0.115190 0.158987 -0.007344 0.384124 -0.196093 -0.070069 -0.107788 -0.235923 -0.082312 0.156893 -0.015371 0.131530 0.089236 0.145979 0.478133 0.154832 -0.126448 -0.218367 0.053139 -0.037448 -0.071917 0.067712 0.025506 -0.052608 0.087043 -0.160290 -0.140161 0.088573 0.108064 0.168588 0.120108 -0.183252 0.267621 -0.378119 0.286674 0.309607 -0.018618 -0.127430 0.150539 -0.069086 0.178226 -0.213757 -0.152283 0.197148 0.295767 -0.209199 0.360451 0.152708 -0.227866 0.246050 0.084243 -0.076748 0.194897 -0.108804 0.194829 0.022092 0.067031 -0.006927 0.039534 -0.066716 -0.076548 -0.170056 -0.027317 -0.075164 -0.167507 -0.086761 -0.254033 0.056040 -0.078237 0.011313 0.340356 0.136724 0.156033 -0.066339 -0.060451 -0.122121 -0.294895 0.169020 -0.225875 0.177753 -0.035839 0.411924 -0.046673 -0.531332 0.481885 0.035050 -0.016740 0.072895 0.119748 -0.160695 -0.050134 0.348379 0.042170 0.174282 -0.027048 0.039824 0.270135 0.254312 -0.077780 
# -0.288659 0.374806 -0.062434 0.113013 0.205180 -0.102218 0.005297 0.062579 -0.065669 -0.148558 0.304130 -0.178986 0.114119 -0.172553 0.147415 0.612750 0.092188 -0.065809 -0.251375 0.213433 0.064250 0.044047 -0.029744 0.045851 0.003478 0.256160 -0.039325 -0.158089 0.030625 0.319624 0.030300 0.186566 -0.079242 0.220915 -0.278973 0.227745 0.244632 -0.006465 -0.166270 -0.179545 0.061684 0.492910 -0.436196 -0.133557 0.242814 0.303287 -0.230406 -0.062994 0.012981 -0.160278 0.406926 0.041106 -0.120498 0.141779 -0.036196 -0.075145 0.012896 -0.051267 0.080494 -0.203502 -0.013830 -0.002386 -0.838375 0.028639 -0.124217 0.144796 0.035778 0.108074 -0.163400 -0.035905 0.218374 0.259882 0.108159 0.352877 -0.579477 0.043212 -0.177804 -0.236882 0.172190 -0.068217 0.209985 0.025520 0.391730 0.210379 -0.379204 0.509450 0.135059 -0.000038 0.024481 -0.010876 -0.233897 0.043223 0.157850 0.072106 0.116731 -0.232194 -0.106723 0.561931 0.232898 0.113224 
chi 0.001481 0.448841 -0.029925 0.058197 0.107317 -0.132438 -0.227252 -0.039892 0.108222 -0.107114 0.154806 -0.035288 0.019648 -0.026073 0.079962 0.208221 0.159991 0.102179 -0.214996 0.053151 0.001242 0.095151 -0.059672 -0.217539 -0.188792 0.026382 0.153604 -0.075136 0.128414 0.151644 0.045818 0.249202 -0.230058 0.186453 -0.226962 0.086871 0.292993 -0.123587 -0.107953 0.248424 0.160464 0.087054 0.170407 -0.000232 0.052324 0.016129 -0.012861 0.315987 -0.044979 -0.010102 -0.045689 -0.104827 -0.076998 0.058307 0.086467 0.117370 0.037257 -0.082110 0.147458 -0.136833 -0.097961 0.014639 0.055860 0.023060 -0.203213 -0.102835 0.012549 -0.476419 -0.025482 -0.208635 -0.056361 0.074550 0.092735 0.080676 0.012449 0.064237 0.005344 -0.074376 -0.026760 -0.179100 0.052594 0.024329 0.092181 -0.021670 -0.199535 0.187393 0.172387 -0.014043 0.177896 -0.051576 0.015921 0.103268 0.227306 0.002787 0.119907 0.130142 0.045264 0.100899 0.121626 -0.296404 
qu -0.012341 -0.476447 0.201970 -0.021022 0.144989 -0.188963 -0.010674 0.094299 -0.238969 0.110502 -0.007647 0.067449 0.179814 -0.000289 0.283073 0.178821 0.084589 -0.166621 -0.193471 -0.063897 0.296751 0.253832 0.504058 -0.046372 -0.131073 -0.044163 -0.158018 0.103654 0.060321 -0.307395 0.108601 -0.079861 0.065152 0.071513 -0.158902 0.348827 0.125158 -0.024064 -0.173565 -0.228717 -0.119622 0.255051 -0.420481 -0.190958 0.201028 0.202464 -0.023348 0.415657 -0.011285 -0.137630 0.012981 -0.078603 0.119308 0.138544 -0.186368 -0.128282 0.034645 -0.051353 -0.072804 0.040062 -0.267594 -0.017527 0.054056 -0.150661 -0.116954 0.139323 -0.166489 -0.113575 -0.132651 -0.057677 -0.185319 0.156137 -0.110340 -0.102457 0.053357 0.008689 -0.233624 -0.299078 0.073051 -0.129235 -0.088265 0.168671 0.144774 0.017412 -0.285309 0.237152 0.157804 0.017330 0.026900 -0.015441 -0.072335 -0.018328 0.166203 0.058352 -0.047337 0.208734 0.015052 0.055238 0.111532 -0.124060 
xia -0.028869 -0.425639 0.168528 -0.119551 0.121242 -0.142423 0.010133 -0.104032 -0.292116 0.251939 0.025360 0.211529 0.080242 0.013894 0.107425 0.558878 0.223261 -0.036083 0.155426 -0.085399 0.188039 0.088108 0.073175 -0.042517 0.032614 -0.126233 -0.035906 -0.059477 0.070637 -0.049953 0.051996 0.083187 -0.036410 0.102812 -0.056521 0.014136 0.182665 0.068165 -0.080229 -0.098933 -0.134746 0.188752 -0.401407 0.039332 0.149863 0.145839 -0.083199 -0.041238 0.012634 -0.051243 0.088960 0.131539 -0.122176 0.224469 0.065230 0.106204 0.067514 -0.095130 -0.232765 0.019349 0.058448 -0.142084 -0.051452 -0.071684 -0.108732 0.108349 -0.060005 0.153140 0.009361 0.120738 0.068883 0.190402 0.023785 0.086569 -0.211814 0.055067 -0.148632 -0.064569 0.023762 0.003762 0.005823 0.185067 0.108565 -0.017659 0.146406 0.300190 -0.069399 -0.005713 0.104162 0.239972 -0.123202 0.167017 0.011232 0.250725 0.147526 0.084706 -0.081018 0.116873 0.074683 0.111722 
dian -0.195858 0.098041 -0.213698 -0.044057 0.091266 0.030587 0.024171 -0.050100 -0.033048 0.087195 0.114203 0.016277 -0.049883 0.093417 -0.146670 0.280440 0.056427 0.195561 -0.199048 0.398041 -0.533379 -0.132760 -0.330356 -0.103550 -0.053145 -0.159408 -0.012033 -0.062123 0.242778 0.194567 -0.065328 0.005423 -0.376343 -0.035031 -0.031441 -0.049166 0.243945 0.074727 0.151760 0.353272 0.043643 -0.182245 0.303095 0.078714 -0.082182 -0.093843 -0.007850 -0.167553 0.039988 -0.020821 -0.072582 -0.114833 -0.026525 0.154148 0.203144 0.060247 0.041352 0.048688 0.032694 -0.061450 -0.144368 -0.118884 -0.235629 -0.001442 -0.074995 -0.028111 -0.120792 -0.478955 0.250237 0.019425 0.013387 0.085546 0.001452 0.189398 -0.160848 0.064651 -0.025886 -0.096980 -0.013837 0.052335 0.092392 0.073252 0.023887 -0.262548 -0.205683 0.237539 0.171132 0.060584 0.087708 0.129720 -0.172041 -0.010416 0.010761 -0.043800 0.038958 0.101211 0.103242 0.198514 0.093900 -0.132603 
fu 0.001161 0.468893 0.086067 -0.051315 -0.177268 -0.049803 0.048404 -0.072742 -0.100294 0.075318 -0.172420 0.088128 -0.025340 0.018185 0.017977 0.163746 -0.012032 -0.128322 -0.203339 0.198510 -0.171907 0.077894 -0.000651 -0.280664 -0.019111 -0.173995 -0.188346 -0.122221 0.164044 0.357853 0.087650 -0.036012 -0.224603 -0.077934 -0.185823 0.077701 0.317548 -0.028153 0.055458 -0.024841 -0.098876 0.042232 -0.228516 0.031311 -0.200375 0.142082 0.070372 -0.095237 0.001341 -0.072793 -0.058156 -0.047108 0.205887 0.032046 0.128520 0.267396 0.134558 0.082683 -0.008131 0.011917 0.004508 -0.106383 -0.355498 -0.131657 -0.162441 0.044456 -0.076316 -0.292941 0.126692 -0.015856 0.064539 0.020400 0.223854 0.156478 -0.362756 -0.035340 0.004482 -0.123781 -0.098671 0.090505 0.035762 -0.010883 0.103048 -0.192199 -0.215318 0.228947 -0.014877 0.077714 0.119062 0.231943 -0.012239 0.170933 0.060983 0.096277 0.124319 0.025777 -0.181814 0.391370 0.209190 -0.117390 
dou -0.183696 -0.285297 0.059357 -0.212932 0.050528 -0.037465 -0.005415 -0.158146 -0.535786 0.295709 -0.228915 0.452857 -0.020778 0.345221 -0.009024 0.527915 0.151531 0.090276 0.054520 -0.175827 -0.205657 -0.341028 -0.063478 -0.027113 -0.064727 -0.240358 -0.016441 -0.108157 0.015142 0.225874 0.293638 -0.039607 -0.339836 0.317466 -0.003392 0.179116 0.616562 0.007172 -0.025283 0.293119 -0.091847 -0.017862 -0.202086 0.143830 0.133550 -0.040771 -0.294336 -0.196119 0.301293 -0.049559 -0.108870 0.257640 -0.305697 0.204180 0.053516 0.376946 0.140194 0.154080 -0.312430 0.231259 0.059200 -0.298749 0.242715 0.083373 -0.037721 -0.123120 0.138396 -0.157068 -0.020686 0.208888 -0.334340 0.161911 0.034220 0.117587 0.160738 0.222564 -0.033722 0.078657 0.008870 0.285189 0.112323 -0.053918 0.100653 -0.125668 0.194009 0.251106 -0.087846 -0.060821 0.193512 0.174284 -0.235807 -0.065073 0.171314 0.233511 0.070223 0.320453 0.033051 -0.177124 0.115294 0.019061 
bao 0.151417 0.265720 0.080801 -0.125378 0.211428 -0.090663 0.036595 0.107168 -0.281256 0.061947 -0.156598 0.072402 0.041209 -0.032546 0.003490 -0.160079 -0.112865 -0.251078 -0.098386 -0.044325 0.271057 -0.190698 0.164457 -0.170564 0.180497 -0.030930 -0.288734 0.077643 -0.146696 0.152320 0.092975 -0.073483 0.108726 0.050433 -0.196777 0.160892 0.192482 0.100401 0.095843 -0.354398 -0.418997 0.257070 -0.539871 -0.220666 0.005404 0.156944 0.070043 -0.074873 0.030683 -0.358077 0.091073 0.067277 0.070812 -0.126956 -0.017330 -0.110026 0.176038 0.210229 -0.076192 0.134182 0.147530 -0.057908 -0.301790 -0.342895 0.118462 0.027431 0.138027 0.105474 0.138584 0.184678 0.026428 0.074520 0.173789 -0.128590 -0.334848 -0.222734 -0.066120 0.103171 -0.126567 0.117809 0.127154 -0.227867 0.130932 -0.064325 -0.197453 -0.093169 -0.244050 0.174877 0.126138 0.161063 0.017111 -0.025478 0.024690 0.232128 0.036128 -0.029758 -0.215746 0.486593 0.164932 0.302520 
me -0.119500 -0.550321 -0.002210 -0.100611 0.160235 -0.172365 0.105105 -0.092594 -0.132466 0.163501 0.146552 0.100229 -0.083476 0.268633 0.017053 0.531838 0.219051 0.014993 0.023266 0.069413 -0.231880 -0.061476 -0.031913 0.036508 -0.098489 -0.121452 -0.001261 -0.016974 -0.044184 -0.047277 0.100058 -0.052746 -0.150689 -0.000053 0.223974 -0.081952 0.106783 0.050099 -0.083534 0.299058 0.009566 -0.151231 -0.008302 0.078669 0.243818 0.033582 -0.201234 -0.144596 -0.063234 0.115480 0.201258 0.044459 -0.194923 0.321568 0.109915 0.155809 -0.082030 -0.127160 -0.388244 0.138753 -0.148683 -0.231221 0.119008 -0.021752 -0.027200 0.038522 -0.109421 -0.071989 0.064362 0.065257 0.004186 0.166332 -0.006433 0.155385 0.206403 0.047893 -0.175494 -0.186925 0.142932 0.042277 -0.021219 0.262434 0.119056 -0.026433 0.293263 0.300433 0.102011 -0.025714 -0.129493 0.113906 -0.196957 0.092044 -0.104328 0.011203 0.086689 0.264198 0.162086 -0.175240 0.142352 -0.127234 
yuan 0.052369 0.019095 0.108344 -0.169027 0.339618 -0.231458 0.040962 -0.074783 -0.137926 0.028094 -0.001262 0.026603 0.039443 -0.087794 0.085449 0.248247 0.035290 -0.073822 -0.181547 0.226012 -0.001880 -0.001390 -0.052576 -0.148488 0.041062 -0.115837 0.008819 -0.050242 0.030930 -0.068255 -0.056431 0.128623 -0.208618 0.187032 -0.269216 0.146955 0.065950 0.100515 0.051422 0.014297 -0.247501 0.108847 -0.177261 -0.034661 0.094479 0.169548 0.169271 0.100841 0.039586 -0.302595 -0.051561 -0.134067 0.063936 -0.002178 0.084074 -0.055214 0.068282 0.003835 0.048263 -0.080207 -0.083903 0.041701 -0.215513 -0.281498 -0.075503 0.047591 -0.188403 -0.224118 -0.019034 -0.004227 0.168975 0.124340 0.032585 -0.065237 -0.491710 0.014145 -0.112784 -0.116731 -0.017884 0.013643 0.001145 -0.128188 0.076970 -0.169835 -0.360833 0.062072 0.063738 0.039376 0.083350 0.236208 -0.112706 -0.031701 0.187799 0.253944 -0.054963 -0.018024 0.080253 0.379775 0.182163 -0.078552 
e -0.114521 0.545248 0.143971 0.291622 0.023618 0.295676 0.561951 -0.122807 0.112024 0.141325 -0.480134 0.479791 0.412905 0.075034 0.265278 0.609824 -0.092178 0.056749 0.267362 -0.322742 0.748058 -0.159009 -0.104092 -0.114541 -0.004191 0.369437 -0.019022 -0.226809 -0.165966 0.672820 0.131072 0.256359 0.293507 0.559079 -0.017061 0.276170 0.569689 -0.363436 -0.074457 -0.252708 0.260392 0.697447 -0.393928 0.036059 -0.088979 0.130897 -0.329675 -0.658372 -0.029986 -0.198793 0.143958 0.187061 -0.342637 0.012161 0.224174 -0.011119 0.284753 0.128800 0.003485 -0.421383 0.740911 0.797862 0.247169 0.658947 -0.067335 0.253099 0.355938 0.564743 -0.485717 -0.060462 -0.032872 0.052141 0.043747 -0.056270 -0.404820 0.099662 -0.139739 0.420646 -0.128149 0.146426 0.449463 -0.247646 0.294618 0.109144 0.308221 -0.010751 -0.048938 0.013598 0.306933 -0.007378 -0.045205 -0.033238 0.087372 0.377773 0.156521 0.256665 -0.554614 0.088862 -0.090037 0.381361 
hou 0.259029 -0.616293 0.310047 -0.653638 0.184360 -0.213126 0.042078 -0.269478 -0.497963 0.214598 0.038837 0.288474 -0.154004 -0.002123 -0.148444 0.590518 0.028657 -0.353493 0.106143 0.133440 -0.255887 -0.157415 -0.137614 -0.149549 0.291516 -0.314599 -0.103636 -0.128438 0.221079 -0.080383 0.067091 -0.018799 -0.220467 -0.064459 -0.338427 -0.284011 -0.235011 0.235703 0.203311 0.016283 -0.619506 -0.213280 -0.317586 0.281118 0.129647 0.288779 0.218196 -0.194824 0.345741 -0.106193 -0.125376 0.202636 0.048345 0.005149 -0.065766 0.436576 -0.156018 -0.021986 -0.328594 0.279880 0.017097 -0.396650 -0.176516 -0.467394 -0.022693 -0.160867 -0.228017 0.185586 0.355279 0.175850 0.396480 0.360953 0.265256 0.023024 -0.302650 -0.235897 0.136870 0.005440 0.015009 0.214432 -0.191024 -0.153721 0.118002 -0.372039 -0.037512 -0.103720 -0.479023 0.018754 0.047324 0.589912 -0.128427 0.021300 0.210736 0.458432 0.105770 -0.288267 0.062753 0.067812 0.122617 0.054321 
？ 0.127151 -1.018836 0.037599 -0.182713 0.103428 -0.181989 0.024614 -0.116191 -0.079544 0.294629 -0.219847 0.085748 -0.365190 0.012457 0.040137 0.315939 0.309394 0.190919 -0.017740 0.095052 -0.040863 -0.121773 -0.106106 -0.239963 -0.259327 -0.300951 -0.003405 -0.035206 -0.184164 -0.058889 -0.153564 -0.414605 -0.251828 0.034061 0.252236 -0.083052 -0.044463 -0.145047 -0.091742 0.008879 0.282548 -0.380096 0.105065 0.229810 0.222378 0.202533 0.002377 -0.164032 -0.229183 -0.199186 0.216319 -0.178324 0.026914 0.235721 0.196385 0.160675 0.065266 -0.196935 -0.329295 0.022046 0.007755 -0.064253 -0.152271 0.071258 -0.039738 0.181779 0.074890 0.022745 0.284771 -0.114673 0.043391 -0.096564 0.139129 0.237202 0.025548 0.206189 -0.224353 -0.166508 0.049588 0.194313 0.023952 -0.079637 0.129700 -0.003827 0.293857 0.293609 -0.008444 -0.219813 0.034645 0.256124 -0.275956 0.143804 -0.166814 -0.240776 -0.094071 0.569911 -0.000805 -0.288557 0.166529 -0.279907 
bi 0.151424 -0.614973 -0.162504 -0.077314 0.180007 -0.077635 0.252936 -0.138391 -0.113422 0.477458 -0.039107 0.028192 -0.125283 -0.037584 -0.001878 0.324097 0.361630 0.477032 -0.295333 0.239411 -0.062718 -0.258721 -0.265834 -0.067529 -0.335306 -0.234985 0.063738 -0.002104 0.009172 0.123783 -0.217983 -0.092708 -0.311182 0.232255 0.121626 -0.026758 0.237463 0.020961 -0.029710 0.347035 0.229223 -0.009973 0.300532 0.061867 0.119401 -0.068968 0.022733 -0.209864 -0.239814 -0.314747 -0.045068 -0.202186 -0.111017 0.025554 0.220677 -0.223961 -0.037459 -0.021524 -0.151766 -0.100512 0.040095 0.135398 -0.084509 0.046663 -0.144231 0.131259 0.228170 -0.225104 0.139935 -0.081041 -0.265839 -0.111737 0.165927 0.201178 -0.203672 0.283024 -0.204664 -0.117329 -0.014010 0.076153 0.262408 -0.105758 0.084450 -0.070006 0.111133 0.093289 0.356337 -0.006608 0.137883 -0.089528 -0.258736 -0.064482 0.031825 -0.138544 0.075736 0.749094 0.246029 -0.060897 0.090140 -0.181539 
chu 0.017030 -0.295000 0.064339 -0.290459 -0.012225 -0.042131 -0.026201 -0.025078 -0.289390 0.308999 0.034533 0.172303 -0.059830 -0.063586 -0.083775 0.555213 0.091876 -0.026621 0.039347 0.192348 -0.246040 0.074539 0.042925 -0.174233 0.150314 -0.297036 -0.174471 -0.093003 0.333232 -0.001813 -0.028188 0.090960 -0.231551 -0.080527 -0.307308 -0.056915 0.040665 0.124994 0.086288 -0.117547 -0.340593 -0.103495 -0.203554 0.057265 0.012810 0.135907 0.100274 -0.064711 0.140036 -0.100922 -0.146453 0.122513 0.111980 -0.001689 -0.031145 0.145910 -0.073900 -0.104740 -0.075457 0.149100 -0.159080 -0.315679 -0.241490 -0.273484 -0.188853 0.017851 -0.142332 -0.290113 0.264221 0.168891 0.111425 0.160273 0.064974 0.010313 -0.230729 -0.079244 0.072628 -0.115769 -0.017882 0.133484 -0.093499 0.086483 -0.003899 -0.248797 -0.140416 0.075330 -0.081180 0.100368 0.128774 0.238244 -0.015847 0.152192 0.223627 0.172421 0.063059 -0.117417 0.111065 0.176367 0.150410 -0.146071 
duo -0.123313 -0.471490 -0.153920 0.099682 0.140020 -0.159389 -0.066816 0.009185 -0.079549 0.132239 -0.020255 -0.121660 0.007771 0.057876 -0.058123 -0.032149 0.062353 0.192697 -0.235629 0.262291 -0.113591 -0.070269 -0.059647 0.093980 -0.151683 -0.206218 -0.107911 -0.012226 0.065781 -0.156080 -0.198313 -0.080885 -0.206508 -0.137517 0.018600 0.001090 0.086186 0.172840 0.113510 0.113452 0.064692 -0.108438 0.179115 -0.088008 -0.086345 -0.011956 -0.003721 -0.008404 -0.084853 -0.072809 0.041429 -0.168796 0.065601 0.095422 0.207194 -0.114053 0.014705 0.007916 0.032992 -0.137691 -0.091414 -0.079109 -0.179438 -0.038304 -0.031502 0.132509 -0.037266 -0.245103 0.268669 0.027498 -0.051523 -0.061085 -0.078833 0.187934 -0.260897 0.146139 -0.111118 -0.127002 -0.078991 0.021810 0.000548 -0.013840 0.023580 -0.119442 -0.276326 0.202931 0.147251 0.016152 0.008209 0.012503 -0.127876 -0.058497 -0.077506 -0.253595 -0.027664 0.098997 0.122230 0.115050 0.133601 -0.043009 
kan 0.115175 -0.612061 -0.001774 -0.103245 0.209172 -0.083136 0.001634 -0.069180 -0.270020 0.186787 -0.120978 0.022539 -0.114730 0.220959 -0.022227 0.140876 0.160421 0.055929 -0.028876 -0.009996 -0.101791 -0.293801 0.000565 0.064208 -0.081214 -0.220580 -0.157681 -0.007099 -0.121796 -0.077382 0.013211 -0.206310 -0.113881 0.090822 0.105526 0.053605 0.077940 0.070208 -0.006994 0.171901 -0.066353 -0.227014 0.021243 -0.041616 0.158669 0.048038 -0.156901 -0.009576 0.047488 -0.188850 0.081155 0.084932 -0.051803 0.105542 0.022043 0.028666 -0.089684 0.040888 -0.305548 0.281284 0.032412 -0.158941 0.079387 -0.013948 0.095129 -0.099604 0.034901 -0.032101 0.235920 0.120056 -0.208215 0.079047 0.089171 0.053059 0.181145 0.084262 -0.112039 -0.084627 0.109164 0.097227 0.099137 -0.040797 0.126176 -0.036570 0.051078 0.126350 -0.026623 -0.002344 -0.044825 0.126997 -0.172539 -0.073808 0.038641 -0.146567 0.025552 0.237568 0.146482 -0.160004 0.153762 -0.054477 
gan 0.072996 -0.278746 -0.062228 -0.027910 0.320045 0.171300 0.064565 0.099420 -0.190743 0.240170 -0.048276 -0.120736 0.089493 -0.019924 -0.015118 0.006678 -0.203977 -0.012727 -0.145818 0.055357 0.011702 -0.326918 0.052387 0.167670 -0.002537 0.087763 -0.149125 0.172430 0.079584 0.004671 -0.107758 -0.059242 -0.104366 0.073560 -0.318318 0.328578 0.089158 0.019319 0.171707 -0.058486 -0.444467 0.151916 -0.168373 -0.160154 0.247310 0.016335 -0.068811 -0.052235 0.226145 -0.422743 -0.139495 -0.135792 0.068334 -0.149743 -0.097153 -0.134185 0.052313 0.210220 0.177439 -0.081173 0.070545 0.098739 -0.142610 -0.095262 0.171579 -0.229445 0.198284 -0.136261 0.244742 0.188506 -0.199961 0.131943 0.043600 -0.291344 0.068828 -0.154010 -0.016385 0.218204 -0.152017 0.087254 0.089422 -0.429450 0.095486 -0.244258 -0.453342 -0.175281 -0.163773 0.081018 0.157158 0.056684 0.033503 -0.231124 0.269029 0.161880 0.041114 -0.146400 0.015063 0.219604 -0.078164 -0.000546 
yang 0.237383 -0.648565 0.204069 -0.268607 -0.042233 -0.151399 -0.051859 0.074935 -0.206406 0.331712 -0.208357 0.057049 -0.099662 0.012252 -0.015780 0.092509 0.101727 -0.071978 0.009205 0.092561 0.144740 0.058260 0.323192 -0.200527 0.059450 -0.425987 -0.376594 0.063441 0.306555 -0.285456 -0.152486 -0.188362 -0.040700 -0.276845 -0.207880 -0.035942 -0.027815 0.098516 0.128388 -0.438274 -0.368067 -0.085203 -0.396473 -0.190007 -0.061790 0.170118 0.222582 0.080405 -0.003344 -0.064057 -0.118226 -0.099579 0.434491 -0.070993 -0.033489 0.030226 -0.064248 -0.076759 -0.142237 0.154103 -0.124840 -0.380051 -0.132992 -0.459465 -0.058368 0.168860 -0.127536 -0.035983 0.448489 0.169968 -0.076312 -0.023281 0.027674 -0.107797 -0.253281 -0.043208 -0.113090 -0.175100 -0.116474 0.157436 -0.225128 0.014964 -0.018884 -0.222779 -0.129492 0.032393 -0.115624 0.147145 0.160926 0.131387 0.132968 0.161223 0.051562 0.016588 -0.035184 -0.007509 -0.061511 0.216245 0.269018 -0.103660 
cheng 0.066922 -0.158382 0.074033 -0.098412 0.145503 -0.224327 0.058143 -0.212614 -0.283608 -0.023200 0.208755 0.116887 0.056180 0.055954 0.145157 0.299913 0.102083 -0.254845 -0.191857 -0.001421 0.160891 0.092225 -0.030269 -0.109055 -0.067188 -0.012591 0.055962 0.011858 -0.036819 -0.009506 0.181113 0.031542 -0.113929 0.121845 -0.183574 -0.019738 0.042280 0.021255 -0.171178 0.179959 -0.205327 -0.041176 -0.003469 0.166653 0.143813 0.035380 0.117280 0.178789 0.001945 0.062711 0.035566 -0.066227 -0.026201 0.119301 -0.008299 0.172593 -0.070997 0.047814 -0.061805 0.011879 -0.139516 -0.009473 -0.102173 -0.233934 -0.093727 -0.125917 -0.140378 0.014324 -0.046829 -0.178659 0.087553 0.262506 0.207305 0.100898 -0.114609 -0.117306 -0.030908 -0.134238 0.079605 -0.100859 -0.095384 -0.073982 0.049320 -0.068167 -0.112492 0.040694 -0.080156 0.067544 0.050916 0.256820 -0.105064 -0.117309 0.047412 0.154306 0.070470 -0.039734 0.054726 0.055293 -0.032033 -0.055579 
yan 0.055716 -0.758003 0.026929 -0.169562 0.307642 -0.161268 0.111325 -0.188845 -0.398472 0.188350 -0.260436 0.262039 0.026869 0.217532 0.069099 0.384565 0.035491 0.017206 -0.128635 -0.056599 0.112631 -0.279092 -0.057459 -0.093487 -0.058175 -0.201372 -0.133069 -0.017650 -0.032079 -0.087933 0.142511 -0.120064 -0.085573 0.315668 -0.062072 0.022604 0.090756 -0.014758 0.017219 0.071723 -0.085992 -0.097616 -0.062943 0.088194 0.074356 0.135785 0.004419 -0.227392 0.015345 -0.233597 -0.046914 0.023700 -0.018246 0.078381 0.101412 0.051068 0.061736 0.094801 -0.146609 0.118222 0.082612 0.091202 0.228606 -0.006104 -0.060168 -0.011883 -0.068962 0.099006 0.066704 0.140914 -0.104131 0.078566 0.093866 -0.030376 -0.169917 0.006766 -0.105144 0.018942 -0.136312 0.273099 0.107789 -0.218329 0.093177 -0.219140 -0.011622 -0.094715 -0.118219 0.023689 0.084887 0.262525 -0.183307 -0.173191 0.123829 0.113754 -0.086423 0.296331 0.018153 0.099804 0.167098 -0.043332 
neng -0.029653 -0.101145 -0.044513 -0.258008 0.147393 -0.151366 -0.006910 -0.039286 -0.252750 -0.008677 0.232557 0.209538 0.117294 0.016231 0.022138 0.699219 0.217742 0.002509 -0.095024 0.180613 -0.098343 0.097283 0.008868 -0.188748 0.023098 -0.105389 -0.181898 -0.098396 0.316544 0.183457 0.125357 0.204066 -0.279462 0.075545 -0.346510 0.008044 0.152063 0.124678 -0.077801 0.065039 -0.299821 0.048776 -0.116825 -0.015566 0.062033 0.087349 0.080058 0.198885 0.095015 -0.035252 0.045982 0.177834 -0.045160 0.164347 -0.094858 0.125234 -0.049428 -0.053569 -0.121975 0.055777 -0.223683 -0.273827 -0.002372 -0.214377 -0.258155 -0.020294 -0.179749 -0.454060 0.134496 -0.015648 0.055005 0.292026 0.045297 0.106025 -0.172249 -0.031975 -0.053049 -0.221225 0.059781 -0.085047 0.076928 0.232086 0.162474 -0.167827 -0.221824 0.260646 0.023145 0.153730 0.180280 0.190112 -0.075253 0.120110 0.226663 0.210978 0.142142 0.084416 0.046269 0.203342 0.171470 -0.176047 
qian 0.083144 -0.408739 0.303794 -0.411086 -0.014466 0.119304 0.216288 -0.062914 -0.173841 0.214201 -0.186813 0.255527 -0.077477 0.030381 0.087086 0.319595 0.062727 -0.197794 0.123406 0.010944 0.180475 0.126362 0.331969 -0.183008 0.107018 -0.174553 -0.055658 0.127418 0.063428 0.015873 0.052866 -0.138767 -0.058785 0.183271 -0.189962 0.237490 0.166760 -0.136516 -0.063036 -0.202595 -0.325812 0.086715 -0.440735 0.003155 0.199377 0.136193 0.020531 0.099228 0.138082 -0.001242 -0.173548 -0.009110 0.176581 -0.060072 -0.244696 0.139143 0.034067 0.047568 -0.173483 0.066588 -0.032557 -0.026199 0.071882 -0.226775 0.009140 -0.032623 -0.098830 0.013856 -0.018161 -0.048216 -0.201766 0.293547 0.036253 -0.423832 0.220200 -0.009242 -0.132777 -0.007794 0.139723 0.074937 -0.080555 -0.081638 0.056209 -0.193895 -0.065896 -0.094286 -0.050597 0.085534 0.143083 0.085269 0.074112 -0.044111 0.315734 0.434782 -0.154060 0.134627 -0.062492 -0.149002 0.030475 -0.207239 
