</s> 0.004003 0.004419 -0.003830 -0.003278 0.001367 0.003021 0.000941 0.000211 -0.003604 0.002218 -0.004356 0.001250 -0.000751 -0.000957 -0.003316 -0.001882 0.002579 0.003025 0.002969 0.001597 0.001545 -0.003803 -0.004096 0.004970 0.003801 0.003090 -0.000604 0.004016 -0.000495 0.000735 -0.000149 -0.002983 0.001312 -0.001337 -0.003825 0.004754 0.004379 -0.001095 -0.000226 0.000509 -0.003638 -0.004007 0.004555 0.000063 -0.002582 -0.003042 -0.003076 0.001697 0.000201 0.001331 -0.004214 -0.003808 -0.000130 0.001144 0.002550 -0.003170 0.004080 0.000927 0.001120 -0.000608 0.002986 -0.002288 -0.002097 0.002158 -0.000753 0.001031 0.001805 -0.004089 -0.001983 0.002914 0.004232 0.003932 -0.003047 -0.002108 -0.000909 0.002001 -0.003788 0.002998 0.002788 -0.001599 -0.001552 -0.002238 0.004229 0.003912 -0.001180 0.004215 0.004820 0.001815 0.004983 -0.003111 -0.001532 -0.002107 -0.002907 0.002815 0.001579 0.000425 -0.002194 0.001524 0.003059 0.000194
， 0.541693 -0.567984 -0.019106 -0.415295 0.005400 -0.168313 0.147147 -0.128365 -0.022387 -0.179473 -0.153146 0.087547 -0.077807 -0.245800 0.083019 0.121302 -0.103817 -0.420609 0.059451 -0.489713 -0.021153 0.228603 -0.098368 0.368552 -0.066162 -0.463237 0.089957 0.304313 0.223516 -0.050723 -0.033227 0.031118 -0.671605 -0.232901 -0.183846 -0.042219 -0.234098 -0.103257 -0.331119 -0.251988 -0.213489 -0.192517 -0.096154 0.447741 0.491446 -0.177612 0.584517 0.161347 0.011344 -0.458644 -0.161288 0.164909 0.164162 0.252001 -0.461648 0.084590 -0.307020 -0.177138 -0.037364 -0.641346 -0.008820 -0.251059 0.581856 -0.645750 0.050828 -0.034733 0.063066 0.088556 0.040477 0.072196 -0.309348 0.047500 0.169412 0.194577 0.357912 0.146753 0.138886 -0.549363 0.097563 -0.165097 -0.390844 -0.058346 -0.415175 -0.161002 -0.185617 0.003504 0.066415 0.114103 -0.219425 -0.201216 0.308605 -0.208151 -0.167122 0.380725 0.330829 0.302475 -0.302486 -0.214920 -0.024371 -0.232382 
rqyy 0.591854 -0.586148 0.018391 0.138569 -0.151212 0.030740 0.156938 -0.135123 0.077128 -0.089634 0.179447 -0.045731 0.122597 -0.582486 0.087395 -0.081017 -0.130898 -0.103151 0.012422 -0.073684 -0.193363 -0.444358 0.283611 0.430295 -0.269484 0.053961 -0.118528 0.006061 -0.223746 -0.495767 0.160099 -0.121422 -0.386094 -0.119696 -0.232859 0.080914 0.116322 0.310526 -0.231794 -0.130833 -0.169620 0.233467 -0.178064 0.140701 -0.054481 0.098470 0.209063 0.125700 -0.062909 0.027332 0.118928 -0.282716 -0.441228 0.377155 -0.042464 0.130881 0.150746 0.188622 -0.665507 0.269477 -0.006391 0.362157 -0.045897 -0.292212 -0.015750 -0.114386 -0.534778 0.296358 -0.178967 -0.074943 -0.308569 -0.225087 -0.574437 -0.041805 0.445185 0.208991 -0.204481 0.101341 -0.058197 0.131273 -0.005225 0.073871 -0.135343 -0.101567 0.438471 0.045188 0.030997 0.608050 0.139483 -0.257436 0.248726 0.261400 0.067179 0.255593 0.015758 -0.225753 -0.247194 0.125797 0.154048 0.254085 
。 -0.111140 -0.161846 -0.227047 -0.327625 0.044583 -0.176172 0.533895 0.036726 -0.465139 -0.321832 0.014495 0.340592 -0.244188 -0.323275 0.195958 0.232455 -0.219345 -0.119772 0.360521 -0.116531 0.188901 0.106225 -0.225723 0.238230 -0.094405 -0.635346 0.146742 0.112274 0.098516 0.079321 0.049286 0.432681 -0.228116 0.100167 0.179776 -0.012463 -0.098550 -0.148442 -0.238041 -0.252977 0.068893 -0.244962 -0.395968 -0.007227 0.567688 -0.179552 0.553461 0.197119 -0.445371 -0.476541 -0.292377 0.433770 0.142717 0.296847 -0.479515 0.039897 -0.147070 -0.258354 -0.064358 -0.514317 0.351279 -0.270082 0.053268 -0.325293 0.359438 0.296127 -0.586336 0.034244 -0.256580 0.135286 -0.295045 0.180008 0.102596 -0.113562 0.116910 -0.238148 -0.070439 -0.268130 0.038862 -0.643726 -0.047202 -0.075027 -0.249906 0.137866 -0.067527 0.097138 -0.035008 -0.073905 -0.052241 -0.119102 -0.264096 -0.094471 0.073143 0.265323 0.276569 0.262717 -0.215583 -0.086085 0.096679 0.135052 
trnt 0.356509 -0.468402 -0.167983 -0.298578 -0.392841 -0.016600 -0.055677 -0.559148 0.067233 -0.277886 -0.195106 0.326784 0.342037 -0.277097 0.681391 0.183560 -0.304766 -0.085901 -0.208614 -0.396377 0.052772 -0.595751 0.299733 -0.008619 -0.285869 -0.104168 -0.027499 -0.358694 0.252496 -0.096648 -0.499882 0.104151 -0.229120 -0.038530 0.123690 0.081834 -0.245616 0.108423 -0.068314 0.272275 -0.072835 -0.212112 0.126537 0.343920 0.421472 -0.412290 0.566048 0.278611 -0.407869 0.425186 0.122373 -0.037867 -0.379160 0.290199 0.103775 0.353007 -0.060679 -0.152851 -0.416295 -0.010435 0.340145 -0.039859 0.517830 -0.225905 0.508418 0.203880 -0.756024 -0.065679 -0.282131 -0.081570 -0.492875 0.177480 -0.148038 0.041574 0.211959 -0.006630 -0.122087 -0.242034 0.313443 0.109951 -0.041317 -0.238707 -0.048769 0.243961 -0.208713 0.174739 0.177087 0.209241 0.123993 -0.082250 -0.023045 -0.410980 0.130484 0.501810 -0.038709 0.209000 -0.125714 -0.039388 -0.190409 0.294096 
t -0.212138 0.604873 -0.451952 -0.104923 0.730227 1.155466 -0.918227 0.200654 -0.349624 -0.462598 0.492122 0.205593 0.239576 -0.000946 0.049937 -0.422132 0.236129 -0.031811 -0.739318 0.287323 -0.316001 0.084352 -0.359274 -0.705041 -0.223671 -0.334296 -0.222360 0.405454 -0.387207 -0.900818 -0.074832 0.240366 -0.204273 0.029343 -0.148673 -0.087565 -0.242631 -0.188919 -0.272541 -0.607496 0.386042 -0.590856 -0.023293 -0.029646 0.018859 0.304423 -0.301451 -0.760517 0.764367 0.217050 -0.883933 0.398059 -0.258645 -0.635381 0.242754 -0.839425 0.395656 -0.529905 0.289665 1.250834 -0.856963 0.631623 0.230468 -0.210958 -0.633217 -0.159910 -0.271290 0.297044 0.234235 -0.083086 0.523437 0.257456 0.413101 -0.069088 -0.009204 -0.056714 0.702383 0.334673 0.044388 0.412431 -0.133472 -0.211560 0.615393 -0.073309 0.212405 -0.012639 -0.117455 -0.440955 0.311000 0.303198 -0.120613 0.210034 -0.244124 0.012969 -0.139641 -0.393336 0.402005 -0.441833 0.566930 0.699849 
ggll -0.049587 -0.498259 -0.158373 0.335698 -0.443322 -0.059892 0.623433 -0.330517 -0.338278 -0.022044 0.088759 0.156235 -0.118333 -0.269547 0.141613 -0.028719 -0.440883 0.276238 -0.254634 -0.137776 0.189666 0.091311 -0.081640 0.261095 -0.012323 0.119075 0.290083 -0.005683 -0.166485 0.122477 -0.044654 -0.094114 -0.320988 0.112728 0.233269 -0.152678 -0.210401 -0.043382 -0.032927 -0.376136 -0.280963 0.193532 -0.142575 0.479424 0.209169 -0.174682 0.408596 0.451142 -0.764007 -0.149951 0.118372 0.139452 0.085256 -0.070162 -0.266854 0.153863 -0.177648 0.154160 -0.054629 -0.765580 0.039192 -0.684840 0.062514 -0.388668 0.152764 0.096971 -0.128228 0.140511 -0.109217 0.133566 -0.213776 -0.058625 -0.153746 -0.032164 0.173204 0.114806 -0.187865 -0.108325 -0.159441 -0.179041 0.144222 -0.080362 -0.135352 0.071664 0.240717 0.439331 0.663152 0.090428 -0.152482 -0.392793 0.302655 -0.041183 0.012355 0.470574 0.562200 0.079398 -0.314632 -0.156659 -0.096981 0.124186 
gii 0.434734 -0.549721 0.112141 -0.639813 -0.097383 -0.229302 -0.029306 -0.136986 0.186822 -0.016621 -0.013656 0.586520 0.062036 0.487535 -0.219275 -0.082205 -0.022708 -0.153914 0.077764 -0.418836 -0.321509 -0.099147 0.211149 0.350307 0.116318 -0.020764 -0.182654 0.088384 0.449042 0.080768 -0.454921 -0.111919 -0.242378 0.194796 0.041876 0.566383 0.702718 0.151306 -0.059350 0.207612 -0.074235 -0.316651 -0.461127 -0.107320 0.115975 -0.043497 0.485853 0.254022 -0.673238 -0.726291 0.473915 0.208249 -0.336008 0.508840 -0.143092 0.164029 0.034783 0.284880 -0.491875 -0.077521 0.313506 -0.221937 0.097098 -0.177818 0.322354 0.135794 0.132858 -0.332452 -0.111282 0.109584 -0.104805 -0.146261 -0.082662 -0.133694 -0.071137 0.291672 -0.338140 -0.376435 0.157779 -0.181907 0.108169 -0.248869 0.338326 -0.391161 -0.085194 0.025980 -0.100071 0.254376 0.239023 -0.037328 0.049743 -0.081265 0.099737 0.665451 -0.114908 0.343424 -0.334579 0.011208 0.344907 0.096380 
bnh 0.323200 -0.534557 0.037345 -0.172110 -0.126191 -0.015848 0.383924 -0.095550 -0.130899 0.191835 -0.088100 -0.244369 0.175012 -0.066854 0.115787 0.083209 -0.101010 0.031339 0.036708 -0.287334 -0.099658 0.228520 0.128850 0.167102 -0.175114 -0.100521 0.162301 0.030492 0.011253 -0.073296 -0.198017 -0.110583 -0.196146 -0.097316 -0.041592 -0.277283 -0.156126 0.175669 -0.243851 0.003032 -0.262920 -0.105041 -0.105750 -0.014239 0.493187 -0.246907 0.432087 0.038584 -0.478987 0.223390 0.502799 0.096510 -0.047521 0.167543 0.269318 -0.369369 0.208574 -0.016692 -0.050605 -0.052040 -0.026841 -0.586828 -0.343294 -0.274147 0.658781 0.325588 0.175758 -0.178787 0.189964 0.301255 -0.225322 0.043629 0.219804 -0.116921 -0.043966 0.046719 -0.014911 0.034137 0.005509 0.343792 -0.092764 -0.402103 0.508200 -0.125572 -0.035437 0.271851 0.404230 -0.086872 0.113724 -0.153675 0.095962 -0.252985 -0.093451 0.570506 0.179462 0.282656 -0.146221 -0.164557 -0.163094 0.188454 
jghu 0.758239 -0.588993 -0.170511 -0.225236 -0.210920 -0.202818 0.008775 -0.489170 0.204549 -0.036317 0.159196 0.224592 0.238601 0.077063 0.223080 0.517866 0.091309 -0.103837 0.452303 -0.686577 -0.246492 -0.038557 0.380664 0.180795 -0.019032 -0.186641 0.344727 -0.366905 0.398423 0.262730 -0.046708 0.258519 -0.377635 0.215710 -0.153228 0.166207 0.263406 -0.299668 0.166268 -0.109592 -0.176241 0.165312 0.130745 0.000592 0.032398 -0.025706 0.164081 0.050125 -0.364439 0.258536 0.148797 -0.072957 -0.280630 0.366684 0.052922 0.199327 -0.255599 0.115986 0.008659 0.217484 0.398942 -0.132698 -0.146562 0.083813 0.255035 0.232412 0.046608 0.026252 -0.060188 -0.227461 -0.006252 0.242070 -0.307952 0.134107 0.242545 0.277006 -0.578904 0.182874 0.289350 -0.570331 0.334115 0.172931 0.042749 -0.202546 0.115644 0.074276 0.287138 0.331804 0.193724 -0.106202 -0.135026 -0.071555 -0.011960 0.178050 0.224715 -0.113334 -0.400203 0.247854 -0.344603 0.250151 
wqiy 0.109048 -0.598274 0.082559 -0.105258 -0.463223 -0.274783 -0.001563 -0.047541 -0.147544 -0.085142 -0.187765 0.181932 0.647734 -0.224586 0.319951 -0.107956 -0.077325 0.263125 0.482628 -0.388640 -0.347912 -0.337195 0.072963 0.451262 -0.232917 -0.267628 0.263381 -0.116495 0.163017 0.023954 0.205180 0.213017 -0.020906 -0.157978 -0.509089 0.223647 0.291874 -0.468706 -0.360601 0.081471 -0.087322 -0.091702 -0.212579 -0.353729 0.274883 0.203091 0.230455 -0.510338 -0.127641 0.164849 0.008747 -0.309094 -0.575744 0.181098 0.047599 0.496911 -0.044183 0.276457 -0.268593 0.190699 0.155672 -0.363061 0.500698 -0.704405 0.200352 0.113387 -0.374806 0.042234 -0.305697 0.104028 -0.817884 -0.253259 -0.249653 0.199783 0.321354 0.086292 0.197107 -0.144159 0.123558 -0.408689 0.093360 -0.073813 0.244705 -0.254858 -0.458456 -0.238337 -0.075183 0.250506 -0.001461 -0.446616 0.012216 -0.128430 0.094386 0.170732 0.322810 -0.387504 -0.611623 0.197868 -0.144404 0.279378 
kwgk -0.440389 0.084223 0.305757 -0.435457 0.161095 0.556392 0.837265 0.243942 0.174843 1.529156 0.253936 -0.568784 0.597665 0.375579 0.133280 0.031082 0.087555 -1.263839 0.694660 -0.170551 -0.147733 -0.673495 0.472467 -0.443499 0.784214 0.642934 -0.395825 -0.075650 -0.063027 -0.252319 -0.250955 -0.117285 0.409403 0.161856 0.754774 -0.021160 -0.327169 0.229784 0.318442 0.780294 -0.035997 0.171278 -0.645888 -1.411714 -0.552160 -0.052928 -0.124592 -0.313096 0.096459 0.081164 0.351415 -0.647497 -0.146889 0.415558 0.664755 1.026770 0.902458 0.897141 0.115311 0.500385 -0.511653 -0.382182 -0.558371 0.588645 0.170719 0.237292 -0.170506 -0.439204 0.371891 0.158622 0.268355 -0.218101 -0.471263 0.940419 -0.344134 0.451854 0.280096 0.118302 -0.553889 0.056438 0.212646 0.544066 0.430083 -0.429543 0.346351 0.018035 -0.381792 -0.090264 -0.213983 0.522599 0.337368 1.024613 0.022018 -0.042634 0.019751 0.055144 -0.486766 0.188031 0.076165 0.363270 
wwww -0.159002 -0.032429 0.173172 0.075800 -0.067887 0.237279 -0.086103 -0.534280 -0.018307 -0.361685 0.048274 -0.152216 0.128915 0.195841 0.117401 0.018726 -0.260202 -0.223312 0.438769 0.007249 0.006256 -0.532183 0.733652 0.129815 -0.307184 0.185771 -0.166104 -0.202870 -0.191479 0.120146 0.323796 -0.043921 -0.003013 0.229062 0.213742 0.288321 0.365939 -0.358684 0.026498 -0.460332 0.223404 -0.180957 -0.299179 0.317223 0.057688 -0.114965 -0.038766 0.118201 -0.516503 -0.115882 -0.304057 -0.043540 -0.584992 0.446887 -0.065293 -0.338100 0.320689 0.154885 -0.209124 -0.078326 0.194652 -0.335725 -0.174181 -0.477371 0.463254 0.174873 -0.550579 -0.057553 -0.195118 -0.090277 -0.487871 0.190081 -0.244943 -0.144163 0.197262 -0.282847 -0.295125 0.366540 -0.157595 -0.597407 -0.410800 0.141068 0.114451 -0.112478 -0.227132 0.140549 0.203775 0.255296 -0.078251 0.134522 -0.275194 0.144014 0.053803 0.120735 0.122793 -0.018236 -0.848742 0.238304 0.286459 0.439899 
. 0.192657 0.279881 -0.316708 0.197780 0.340013 0.427854 -0.359950 0.288242 -0.361010 0.012882 0.053719 0.231991 -0.023616 0.020691 0.153140 -0.159636 0.302775 0.114060 -0.641714 0.346376 -0.359485 -0.571247 -0.295897 -0.463313 -0.327643 -0.432921 0.104626 0.136895 -0.183382 0.101253 -0.156288 0.118866 -0.153782 -0.218519 -0.231014 -0.312834 -0.070401 0.081594 -0.312066 -0.319281 0.439650 -0.194364 0.090924 -0.217485 -0.236224 0.102332 -0.000526 -0.576786 0.376145 0.253611 -0.266872 0.364650 -0.103961 -0.562677 0.434311 -0.259997 -0.122888 -0.342480 -0.103782 0.551334 -0.350916 0.562634 0.331847 -0.034449 -0.488714 0.180099 -0.269893 0.400789 0.196033 0.061810 0.105225 -0.023819 0.245595 -0.116468 0.087057 -0.191607 0.399246 -0.046024 -0.130230 0.131225 -0.363483 0.134648 0.212920 0.113664 -0.260914 -0.021307 -0.102790 -0.189683 0.418915 0.174284 -0.106165 0.106798 -0.063871 -0.090888 0.258648 -0.058608 0.306395 -0.208669 0.143081 0.193089 
def 0.505750 -0.113196 0.035704 -0.316825 0.512922 -0.222445 -0.396926 0.163714 0.324374 -0.212478 0.101285 -0.090873 0.129139 -0.490437 0.203248 0.114640 -0.208388 -0.487532 0.034370 -0.429387 -0.072042 -0.314388 0.087948 0.017172 -0.320500 -0.428463 0.130764 -0.006642 -0.374555 -0.043519 -0.178788 0.481458 -0.450360 0.087332 0.124989 0.048124 -0.210973 -0.180116 -0.014812 0.059425 -0.518691 -0.319694 -0.254339 0.216093 0.411003 0.011749 0.204175 0.262132 -0.164419 0.207129 -0.049235 -0.058265 -0.371008 0.675162 -0.068418 0.266939 -0.077344 0.060292 -0.185468 -0.023095 0.246658 0.464617 0.420232 -0.021007 0.120586 0.093798 0.255086 0.406923 -0.123199 -0.132503 0.221724 0.211970 -0.300520 0.063643 0.217510 0.262449 -0.116647 0.166059 0.580201 -0.196049 0.059236 0.048317 -0.139274 0.183730 0.229836 0.088323 0.318698 0.364303 -0.041200 -0.083739 -0.199727 -0.051145 -0.060752 -0.187978 -0.050251 -0.188225 -0.321233 -0.094533 -0.384888 0.053781 
: -0.250491 0.590421 -0.345834 0.123768 0.569022 0.606556 -0.075024 0.285148 -0.410371 0.368403 0.067718 -0.356966 0.209024 0.638272 -0.190324 -0.032269 0.303202 -0.270743 0.039667 0.486595 -0.201492 -0.062669 -0.117969 -0.657964 -0.046702 -0.429837 0.208501 -0.268083 -0.129388 -0.151851 0.163855 0.113220 -0.009028 0.011492 -0.007265 -0.358888 0.023590 -0.175127 -0.339247 -0.650828 0.056283 -0.233622 -0.510636 -0.261366 -0.430221 -0.001164 0.077503 -0.980086 0.368683 0.023779 -0.189980 0.256984 -0.439351 -0.113696 0.306922 -0.542266 0.302307 -0.214500 0.144564 0.916735 -0.426132 0.424407 -0.104049 -0.091936 -0.227491 0.250635 -0.105598 -0.343939 0.133561 -0.096169 0.241148 0.209763 -0.025733 0.219524 -0.072382 -0.161178 0.211219 0.683769 -0.132228 0.241075 0.189538 -0.021472 0.048031 -0.225442 0.189205 0.141968 0.196680 -0.254373 0.335120 0.044968 -0.277467 0.174487 -0.142411 -0.321265 0.080367 -0.573407 -0.153830 -0.301000 0.160169 0.516972 
vbg 0.117775 0.042242 0.288670 -0.445251 -0.055227 0.382596 0.149001 -0.502087 -0.043024 -0.104970 -0.061138 0.058016 0.390204 0.107461 0.284508 -0.212728 -0.379898 -0.269395 -0.112640 0.203914 -0.273161 -0.127930 0.043554 0.327773 -0.058859 0.227285 -0.486479 0.083939 -0.302341 -0.033515 -0.493628 -0.139084 0.005550 -0.151227 0.185664 0.153923 -0.007386 0.238304 -0.048833 -0.287848 -0.080381 -0.435456 -0.370652 0.096141 0.545560 -0.505315 -0.019149 0.203603 -0.100330 0.086943 -0.118108 0.136515 -0.176751 0.036545 0.011386 0.003352 0.386121 0.280203 -0.018128 0.267357 0.227390 -0.304994 -0.060060 -0.090895 0.081842 -0.071280 -0.120337 0.076327 0.062663 -0.057543 0.279648 -0.104102 0.021297 0.051034 -0.141384 0.033702 -0.058214 -0.263474 -0.132910 -0.018982 0.140393 0.329739 0.038046 0.176154 -0.146027 -0.014400 -0.144234 0.058205 -0.151274 -0.034975 0.030842 0.098698 0.121791 0.245251 -0.048258 0.110783 0.008823 0.254600 0.485621 0.320470 
dhfd 0.110563 -0.227478 -0.049887 0.001660 -0.186095 -0.264630 -0.170348 -0.274545 0.164080 -0.336616 0.019156 0.027255 0.368796 0.065779 0.122149 0.096497 -0.234788 0.166668 -0.018567 -0.100513 0.195410 0.007809 0.236509 0.279242 -0.004366 0.014618 0.207088 -0.009456 -0.213477 -0.207689 0.062672 -0.038801 -0.104929 -0.231817 0.237796 0.049403 -0.270734 -0.269488 0.091079 -0.092449 0.016593 -0.057239 0.095195 0.443455 0.204842 -0.233488 -0.014097 -0.116701 0.008015 0.061257 -0.081148 -0.196643 -0.182650 -0.044577 -0.383288 0.103524 -0.082260 -0.018652 0.213502 -0.008304 0.400128 -0.163130 0.259562 -0.247494 0.133312 -0.308251 -0.382140 0.059881 -0.238460 -0.387858 -0.253710 0.093871 -0.082029 0.234736 0.327884 -0.004399 -0.115784 -0.153817 0.166897 0.020213 0.064994 -0.096564 -0.225588 0.343294 -0.064290 -0.243762 0.118057 0.386252 -0.417357 -0.043193 0.095605 -0.337094 -0.062676 -0.109248 -0.204411 -0.153440 -0.168578 -0.081395 0.047555 0.265606 
n -0.023656 0.450273 -0.536052 0.559495 0.832627 1.068025 -0.523223 0.326189 -0.031313 -0.348941 0.130423 -0.309766 -0.286105 -0.370315 0.385937 0.122684 0.259555 -0.683550 -0.597153 0.664151 -0.102869 0.304147 -0.095168 -0.931392 -0.420071 -0.571029 -0.496575 -0.115281 -0.381927 -0.608600 -0.199674 0.430458 0.020071 -0.025187 0.259691 -0.326342 -0.540990 0.125401 -0.305618 -0.560673 0.377641 -0.471422 0.268238 0.361249 0.331039 0.059340 -0.271143 -0.536201 0.639943 0.290714 -0.546332 -0.075108 -0.528953 -0.740603 -0.124993 -0.871668 -0.035099 -0.580772 0.166664 0.736095 -0.560126 1.331152 0.312793 -0.124941 -0.820204 -0.303231 -0.441934 0.122668 0.088634 -0.483209 0.664459 0.705438 0.134945 0.192798 0.115181 -0.158905 1.087077 0.370467 -0.116405 0.736165 -0.263324 -0.068372 -0.638046 0.122322 0.578608 0.180036 -0.003041 -0.100254 0.409570 -0.083672 -0.183174 -0.156429 -0.267929 0.106476 -0.197089 0.254641 0.531881 -0.543612 -0.160897 -0.094030 
@ -0.138064 0.074232 -0.261962 -0.072638 0.414733 0.386207 0.528729 0.289874 0.311846 0.499547 0.044627 -0.309347 0.193491 -0.338640 -0.084073 0.191135 0.417433 -0.532479 0.818480 0.116139 -0.138683 0.075866 0.088782 -0.279531 -0.228144 -0.015612 -0.066873 -0.340649 0.268245 -0.253361 -0.258615 0.811716 -0.394977 -0.119561 0.016471 -0.124689 -0.340928 0.198840 0.012366 0.061714 -0.272894 0.684161 -0.327035 -0.446508 -0.181655 0.164781 0.032134 -0.458952 0.087406 0.359748 0.070020 -0.084282 -0.353208 0.438414 0.012254 0.374805 0.302905 -0.005081 -0.100506 0.571976 -0.302174 0.801714 -0.450168 0.207037 0.140647 0.414415 -0.559488 -0.170136 0.334872 0.106267 0.381844 0.032913 -0.303157 0.136053 -0.314642 0.548209 0.038934 0.406956 -0.301158 0.168113 0.195331 0.035771 0.034454 -0.540022 0.568610 0.037284 -0.154600 -0.049417 0.547801 0.309537 -0.289980 0.214665 -0.276096 -0.187788 -0.191076 -0.694278 -0.118298 0.300439 -0.288480 -0.148598 
] -0.527640 0.334014 -0.128825 -0.537823 0.118837 0.481678 -0.223269 0.159806 0.345508 0.536902 0.317992 -0.850351 0.051083 0.689132 -0.187042 0.111505 0.223722 -1.243411 0.492006 -0.154165 -0.123079 -0.557894 0.976982 -0.222155 0.598679 0.201243 -0.207547 -0.614408 0.245225 -0.516810 -0.291592 0.239830 -0.275589 0.340525 0.709897 0.189596 -0.089695 -0.158196 0.279561 0.070263 0.185760 0.362275 -0.626958 -0.905722 -1.069568 0.217207 -0.206389 -0.701409 0.504444 -0.359185 -0.621524 0.174355 -0.659241 0.516508 -0.280576 0.524259 0.510810 0.265504 -0.148963 0.894786 -0.380390 0.155729 -0.398283 0.271532 -0.177952 -0.019285 -1.379847 -0.587937 0.444010 0.001420 0.197864 -0.009925 -0.488999 0.470027 -0.246015 0.102400 0.100846 0.408896 -0.042957 -0.308224 0.107308 0.426615 -0.144490 -0.691825 0.128044 -0.135462 -0.498301 -0.074693 -0.074715 0.337409 0.027464 0.878791 -0.242656 -0.366708 -0.297036 -0.773333 -0.800187 0.242075 0.247215 0.773730 
[ -0.771310 0.341419 -0.140694 -0.708618 0.056573 0.572467 -0.218161 0.571590 0.135754 0.585553 0.195371 -0.443459 -0.006322 0.684708 -0.147841 -0.327422 -0.042238 -1.046380 0.433424 -0.564052 -0.280444 -0.576744 0.536058 -0.266967 0.774396 -0.080689 -0.010633 -0.632075 0.512901 -0.484159 -0.070356 0.163136 -0.235541 0.492516 0.347391 0.119055 0.170151 0.030896 0.206760 -0.089985 0.078462 0.369743 -0.901516 -1.154629 -1.208889 0.413703 -0.138456 -0.595338 0.452490 -0.360086 -0.373952 0.286060 -0.481933 0.538691 0.070268 0.688149 0.661014 0.416940 -0.283174 0.986302 -0.359574 0.041121 -0.029317 0.217671 -0.163114 0.066838 -1.660362 -0.543703 0.433935 -0.033615 0.297102 -0.092382 -0.616357 0.512279 -0.366987 0.145736 0.053005 0.139466 0.032534 -0.609784 0.151306 0.205921 0.099732 -0.817953 0.141851 -0.144929 -0.729452 0.000092 0.195642 0.286303 0.171326 1.092550 -0.125591 -0.431108 -0.201311 -0.953718 -0.870225 0.146611 0.607718 0.774333 
whj 0.002483 -0.240029 0.182440 0.083768 -0.257983 -0.175362 -0.127276 -0.089286 0.281335 -0.007824 0.150661 0.148313 0.156341 -0.161032 0.045797 0.152888 -0.103593 0.037298 -0.081019 -0.427494 0.184033 -0.028050 -0.323864 -0.312238 0.228583 -0.341013 0.047737 0.006302 0.220691 -0.210960 -0.240074 0.573296 0.024192 -0.180823 0.002987 0.047882 0.060961 -0.021738 0.008094 0.283302 -0.165709 -0.019106 0.164533 0.354586 0.142727 0.130920 0.159738 0.179380 -0.038163 -0.047585 0.150983 -0.260192 0.019868 0.373661 0.236155 -0.023227 0.225704 -0.058163 -0.193147 -0.407888 0.138192 -0.043348 0.327186 0.273555 0.095332 -0.018291 0.318803 0.161440 -0.383512 -0.140862 -0.054975 0.158264 -0.037509 -0.170378 0.124663 0.048892 -0.096923 0.091771 0.209007 0.048826 -0.016731 -0.173846 -0.181552 -0.067161 0.311796 0.013753 0.300013 0.391705 0.085968 -0.084219 0.041994 0.055103 0.030359 0.074667 0.280503 -0.017935 -0.181279 -0.019654 -0.237099 0.092076 
！ -0.138927 -0.110544 0.046214 0.330746 -0.088063 0.122971 0.628595 0.008519 -0.287423 0.180833 0.302917 0.139122 -0.190879 -0.349994 0.029989 0.135554 0.234349 -0.053574 -0.025566 0.007284 0.453135 0.124012 -0.199891 0.109268 -0.096529 0.124741 0.165921 0.062335 -0.144824 0.105277 0.193992 0.345680 -0.559726 0.085386 0.287485 -0.141084 0.041036 0.233700 -0.369221 -0.116835 -0.012084 0.162590 -0.186966 -0.004478 0.073303 -0.152371 -0.353654 0.037971 -0.230048 0.147093 -0.256345 -0.194794 -0.407856 -0.351382 -0.178151 0.208262 -0.213994 0.070947 0.149996 0.143999 -0.111243 0.015129 0.029846 -0.095367 -0.396381 0.076123 -0.676572 0.362071 -0.363547 -0.143232 0.059169 0.101559 -0.715367 -0.053957 -0.011840 0.129539 0.244870 0.123620 -0.496497 -0.232566 0.163427 -0.194587 -0.238307 0.131779 0.714425 0.438846 0.002353 0.292569 0.101574 0.069842 0.252941 0.251965 -0.144611 -0.256572 0.120109 0.242895 -0.113520 0.087360 0.069833 -0.138049 
nyny -0.397740 -0.558525 -0.358833 0.134585 -0.157372 0.462395 0.394875 -0.309524 -0.104123 -0.027006 0.176959 -0.076932 -0.194697 0.071510 0.496936 0.059368 -0.202708 -0.049227 -0.134141 -0.311987 0.146849 -0.250115 0.671326 0.086994 -0.366184 0.431456 -0.054550 -0.543984 0.265327 0.107781 -0.054869 -0.012835 -0.452647 0.470194 0.022037 0.313806 0.159626 0.231834 0.096052 -0.179211 0.193127 0.220670 -0.221270 0.236598 -0.498520 0.167878 0.038203 -0.012261 -0.249739 0.173746 0.259571 -0.005244 -0.427826 0.106957 -0.043393 0.218457 -0.166604 0.265573 -0.112011 -0.257675 0.008381 -0.007622 -0.151272 -0.395799 0.089525 -0.210657 -0.803022 -0.164645 0.317508 0.037973 -0.341134 -0.104209 -0.046272 0.201049 -0.269495 0.376725 -0.097822 0.040505 -0.243443 -0.283473 -0.360667 0.074429 0.009594 -0.374811 -0.016081 0.308981 -0.373888 -0.051047 0.229647 -0.027567 0.089064 0.047694 -0.129901 0.249912 0.064918 -0.255549 -0.596792 0.313356 0.091492 -0.095894 
： 0.030361 -0.181322 -0.278466 0.290717 0.531332 0.335055 -0.074236 -0.447810 -0.169686 0.115254 -0.144351 0.148202 -0.023252 -0.299498 0.079267 0.301465 0.409499 0.080036 -0.412392 0.129351 0.100341 -0.085109 -0.485083 -0.173927 -0.033786 -0.170107 -0.005520 0.366311 -0.146445 -0.089195 -0.399691 0.058105 0.433365 -0.052081 -0.235403 0.211295 -0.176288 0.136321 0.140026 0.268411 -0.100887 0.031208 0.195224 -0.072225 0.202902 0.063461 -0.202378 0.073917 0.098383 -0.239027 -0.448201 0.078920 0.101976 -0.337421 0.029354 -0.099335 0.159566 -0.446538 -0.091981 0.048575 -0.085663 0.609869 0.176014 -0.133454 -0.410839 0.145757 -0.319027 0.206841 -0.206822 0.088490 0.137219 0.615298 0.226549 -0.018874 0.134033 -0.095501 -0.049105 0.068657 0.157155 0.357129 0.265684 0.154904 -0.424692 0.322655 0.514590 -0.129779 0.280990 0.022169 0.357431 -0.102121 -0.314138 0.295833 -0.157431 0.153114 0.256286 0.150466 0.238368 -0.165772 -0.188077 0.082251 
h 0.038674 0.345262 -0.485208 0.055087 0.674875 0.622534 -0.196892 -0.254798 -0.277665 0.219628 -0.107681 -0.202378 -0.129051 -0.012690 0.099249 -0.012159 0.778992 -0.221195 -0.506312 0.609134 -0.035232 -0.629688 -0.115400 -0.617176 -0.370776 -0.344951 -0.119201 -0.077309 -0.200625 -0.081816 -0.435938 0.266744 -0.263105 -0.037867 -0.030957 -0.091811 -0.130031 -0.032568 -0.352234 -0.270306 0.416782 -0.095700 -0.168915 0.125095 -0.389706 0.017985 -0.240198 -0.688081 0.501694 0.010557 -0.512496 0.235879 -0.278506 -0.513124 0.279060 -0.117902 0.017436 -0.723244 -0.186836 0.514721 -0.709543 1.073112 0.348538 -0.208528 -0.292369 0.216620 -0.260094 0.169230 -0.067033 -0.139105 0.083909 0.608650 0.080468 -0.005384 -0.151100 -0.192473 0.426378 0.352267 -0.085709 0.259959 -0.263501 -0.045040 -0.275346 0.189831 -0.084066 0.257757 -0.085419 -0.051614 0.521437 0.334219 -0.398381 0.254246 -0.322472 -0.270590 0.151273 -0.492704 0.133605 -0.154222 0.019622 0.037608 
p -0.387626 0.675268 -0.578155 0.424598 0.775981 0.985954 -0.149611 0.419475 -0.000361 0.291660 -0.294821 -0.525999 -0.190740 0.417949 -0.181850 -0.111950 0.620988 -0.339260 -0.365273 0.911557 -0.215732 0.021861 -0.212384 -0.639359 -0.174811 -0.458064 -0.079446 0.019958 -0.360354 -0.306629 -0.845838 0.164682 0.036953 0.010163 0.150677 -0.298268 -0.349207 0.225729 0.018100 -0.627707 0.241096 0.099099 -0.167182 -0.289098 -0.137741 0.068260 -0.209582 -0.837149 0.453138 0.138158 0.111556 0.451192 -0.208700 -0.668580 0.326184 -0.428652 0.421875 -0.497788 0.032135 1.051886 -0.531796 1.024770 0.031783 0.036429 -0.500804 -0.044000 -0.176843 -0.099930 0.425769 -0.022418 0.882209 0.731883 0.495206 -0.035821 -0.344417 -0.016255 0.457971 0.472491 -0.155285 0.618647 -0.114920 0.057243 -0.343189 -0.122397 0.368099 0.244758 -0.027719 -0.225714 0.606674 -0.056671 -0.284168 0.355672 -0.459037 -0.059917 -0.144919 -0.326985 0.379132 -0.411925 0.212504 0.266252 
goi -0.040627 -0.465391 -0.239304 0.207040 -0.289906 -0.273813 -0.152186 0.164678 -0.024715 -0.239666 0.216489 0.332317 0.042093 -0.140479 0.054104 0.305721 -0.125484 0.100922 -0.067100 -0.067821 -0.061625 0.200786 -0.008848 -0.013739 0.131280 0.288732 -0.006806 -0.001955 0.365347 0.292519 -0.248008 0.646125 -0.136359 0.054574 0.438578 0.235933 0.150278 0.044987 0.463469 0.013085 -0.177074 0.084993 -0.066609 0.126807 0.170397 -0.022490 0.027808 -0.065614 -0.514110 -0.134345 0.013611 -0.151008 -0.220247 -0.145484 -0.531887 0.541991 -0.087110 0.165031 0.189687 -0.404697 0.111297 -0.128786 0.269879 -0.000086 -0.074323 0.045387 -0.102825 -0.069017 -0.131150 -0.043580 0.419190 -0.288640 -0.280537 -0.053573 -0.162446 0.259509 -0.151304 -0.075154 -0.038920 -0.298072 0.682814 0.082288 0.065495 -0.061935 -0.021590 0.164171 0.760053 -0.110569 0.056980 -0.051756 -0.123949 -0.148747 -0.040243 0.212299 0.273722 0.144914 0.000426 -0.099463 -0.232035 -0.027183 
c -0.368450 0.962101 -0.380501 0.265341 0.790830 1.148279 0.095990 0.195246 -0.315360 0.250125 0.266639 -0.050830 0.222549 0.690048 0.032733 0.112249 0.316234 -0.480599 -0.397813 0.929426 -0.259079 0.271427 -0.175011 -0.755412 -0.284995 -0.737031 -0.089743 -0.474818 -0.142909 -0.387813 -0.202365 0.385848 0.035863 -0.327667 -0.130635 -0.525274 -0.075126 0.089584 -0.317750 -0.445965 -0.077214 -0.431684 -0.521575 -0.169983 0.109668 -0.015428 0.060335 -0.874965 0.827296 0.115181 -0.521679 0.366187 -0.272957 -0.172795 0.328885 -0.728222 -0.072533 -0.497346 0.147298 1.067979 -0.417201 0.658269 -0.003059 0.041092 -0.760621 0.006765 0.016027 -0.132866 0.378524 -0.033352 0.390168 0.328543 0.247266 0.026072 0.178654 -0.114371 0.692218 0.911956 -0.427502 0.511175 0.300118 -0.193917 -0.212282 -0.299227 0.431228 0.223861 -0.194317 -0.648232 0.590065 -0.158524 -0.351895 0.197623 -0.020560 -0.157745 0.067532 -0.345855 0.030945 -0.181759 0.037926 0.653537 
ihty 0.053981 0.078185 -0.687592 0.148741 0.214581 0.397997 0.481555 0.269167 0.168413 0.258061 -0.232294 0.006361 -0.149152 -0.067452 -0.002468 -0.131671 0.009278 0.024964 0.347775 0.425838 -0.171366 0.152798 0.194996 -0.513567 -0.106169 -0.068924 0.045987 -0.412557 0.054728 -0.088879 -0.229822 0.332735 -0.306900 0.259602 0.174480 -0.414118 0.089209 -0.365940 0.218347 -0.672089 0.008166 0.246062 -0.036591 -0.132211 -0.286295 0.303707 0.034527 -0.537221 -0.112828 -0.117177 -0.007891 0.056843 -0.295905 -0.067609 -0.296696 -0.038238 0.175460 0.203434 -0.158425 0.178902 -0.377096 0.530102 -0.426684 -0.082964 -0.248857 0.099389 -0.385811 -0.055945 0.438325 -0.235835 0.372658 0.077942 -0.096006 0.412561 -0.216057 0.432369 -0.096977 0.348908 -0.256909 -0.031512 0.081114 0.174710 0.045095 -0.438290 0.127721 0.256335 -0.233660 0.066862 0.361039 0.025045 0.068823 -0.086457 0.239953 0.144957 -0.017655 -0.615855 -0.092683 0.024802 -0.052019 -0.123635 
gdi -0.367367 -0.362447 -0.086509 0.105651 0.121765 -0.039503 0.400499 -0.469273 -0.159941 -0.242093 0.113570 0.569865 -0.003442 -0.362509 0.227857 0.224125 -0.024284 0.054817 0.506554 -0.217642 0.358338 0.223686 0.014553 0.258147 -0.288891 0.086261 -0.228660 -0.202587 0.203951 0.255276 0.211851 0.435606 -0.212323 0.136499 0.076188 0.428536 0.200495 -0.259888 0.053517 -0.141793 0.104178 0.145550 -0.328161 0.303253 0.287783 -0.075542 0.278607 0.089581 -0.499718 -0.101899 0.023186 -0.157079 -0.444581 0.131562 -0.236387 0.431304 -0.077694 0.146338 0.338982 -0.525139 -0.098312 -0.083486 -0.040320 -0.174968 0.223436 0.073378 0.194723 0.018425 -0.467732 0.160711 -0.261207 0.046147 0.077492 -0.273975 0.123908 0.202664 0.142327 -0.005727 -0.332077 -0.328267 -0.102524 -0.301165 0.028030 -0.138075 0.091190 0.262357 -0.004122 0.019879 0.317677 0.046165 -0.209320 0.053513 0.035087 0.103174 -0.006529 0.243774 -0.340351 0.110229 -0.147503 -0.263829 
dddd 0.017255 0.344010 -0.052295 0.057395 0.373131 0.025100 0.480091 -0.313188 0.127816 0.206907 -0.295681 0.204422 0.151336 -0.249360 -0.059371 0.271640 0.037692 -0.126459 -0.013596 0.463486 0.367133 -0.245062 0.137268 -0.100335 0.017432 -0.008184 0.133680 0.277836 -0.407476 -0.047733 -0.120436 -0.012850 0.074297 -0.134030 0.286525 -0.132486 -0.233692 -0.165644 -0.043667 0.030635 -0.326484 -0.095482 -0.199194 -0.313635 0.318741 -0.399277 0.093094 0.197625 -0.195023 -0.153067 -0.477891 0.464381 -0.114999 0.191680 -0.368992 -0.048751 0.151754 -0.123730 -0.036425 0.342562 0.088051 0.136190 0.090550 -0.250880 -0.051666 0.355362 -0.570907 -0.096799 -0.006026 0.247870 0.011274 0.227455 0.001723 0.074614 0.171019 0.001018 -0.366851 0.262104 -0.113067 0.124114 0.468552 0.242887 -0.302477 0.138050 0.406530 -0.071655 0.164006 -0.207240 -0.064100 0.128660 -0.284220 -0.210796 0.208933 0.249360 -0.215399 -0.018456 -0.030987 -0.052872 -0.021985 0.354490 
epdc 0.182535 -0.385588 0.229542 0.130843 -0.567454 0.152944 -0.028197 -0.003745 0.066488 -0.039822 0.029194 -0.166844 0.406291 0.754938 -0.252400 -0.189347 0.198952 -0.062641 0.253976 -0.621000 -0.195244 -0.142495 0.090004 0.584850 -0.119596 0.100958 0.597347 -0.404247 0.236109 0.058903 0.151705 -0.076276 -0.305994 -0.006983 -0.331508 0.067379 -0.065307 0.147892 -0.450996 0.081471 0.009482 0.294510 -0.164829 -0.154001 -0.096708 -0.105366 0.139392 -0.211116 -0.244052 0.424473 0.294826 0.019267 -0.270766 0.043111 0.455861 0.141980 0.029584 -0.157890 -0.067557 0.276462 0.098754 -0.406952 0.421821 -0.258939 0.575949 -0.055141 -0.382144 -0.098951 -0.086374 0.102665 -0.447869 -0.241892 -0.356909 -0.190036 0.256752 0.149246 0.002339 0.042517 0.000803 -0.191086 -0.285333 -0.324710 0.193137 -0.400411 -0.101329 0.084352 0.023386 0.122157 0.164970 -0.054289 0.183917 0.122048 -0.516933 0.004925 0.041538 -0.355579 -0.486268 0.096316 0.028141 0.167469 
ypi 0.075553 -0.487049 -0.132582 -0.543898 -0.008722 -0.122952 0.028591 -0.192041 0.125003 -0.027461 -0.179681 0.017437 -0.144957 0.140027 0.142079 -0.269694 -0.220095 -0.217264 0.294684 -0.732858 -0.025621 0.253609 -0.079592 0.649933 0.378345 0.028732 0.316470 -0.285125 0.357573 0.428176 0.020354 -0.167389 -0.454334 0.290296 -0.278591 -0.013219 0.272159 -0.010469 0.100823 -0.519136 -0.641915 0.139587 -0.272832 0.065450 0.246609 0.019521 0.248156 0.168319 -0.091784 -0.096765 -0.015609 0.003910 0.051631 0.314167 -0.062070 0.422928 -0.020747 0.285766 -0.216122 -0.335003 -0.089236 -0.515675 0.443388 -0.429157 0.278064 -0.004113 -0.113321 -0.453462 0.116561 -0.231984 0.133910 0.207116 -0.224628 0.321161 0.152677 0.261456 -0.195116 -0.286730 0.192912 -0.626384 0.001925 -0.152919 -0.021418 -0.328117 -0.410730 0.287343 -0.082761 0.203100 0.000588 -0.383291 0.328522 0.146681 0.079200 0.183516 0.241265 0.019240 -0.474747 -0.122490 0.001256 -0.227313 
svf 0.105851 -0.474289 0.063243 -0.367122 -0.224794 -0.423963 0.038785 -0.543488 -0.032090 0.040474 -0.024343 0.261676 -0.186002 0.226950 0.107704 -0.044086 0.125172 0.439159 -0.146875 -0.695906 0.438026 0.397122 -0.341872 -0.038079 0.229307 0.021560 0.362473 0.059126 0.294779 0.363881 -0.211094 0.212629 -0.386148 0.204592 -0.068751 0.298101 0.290854 -0.186328 0.082699 -0.083062 -0.606347 0.010373 0.219910 0.353598 0.160829 0.192103 -0.104299 0.179251 -0.272304 -0.043531 0.102242 0.112048 -0.004001 0.231338 0.113195 0.143317 -0.209952 -0.180945 0.063440 -0.150831 0.359317 -0.727727 -0.061127 -0.103256 0.089592 0.126558 -0.512381 0.081810 -0.106653 -0.102767 0.025155 0.196931 0.066730 -0.109564 -0.017568 0.120678 -0.364538 -0.396986 0.590904 -0.100455 0.118627 -0.210604 0.309354 -0.055631 0.278518 0.164468 0.049507 0.458353 -0.140389 -0.054240 0.138801 -0.067404 -0.074026 -0.030198 0.356803 -0.041157 -0.172091 -0.132137 -0.130388 -0.030837 
； 0.187759 0.037817 0.556766 -0.158132 0.008695 -0.470037 0.325093 -0.780613 -0.284253 0.162732 -0.282273 0.006966 -0.226628 -0.242983 -0.000101 0.709871 0.474915 -0.151272 -0.004990 0.919666 0.239741 0.410354 0.244717 0.047429 0.235440 -0.543087 -0.101145 0.542178 -0.354689 0.294027 -0.274337 -0.037819 0.324171 -0.626628 0.028114 -0.319768 -0.058858 -0.527015 0.209100 -0.049958 -0.167951 -0.361424 0.581174 0.134808 0.759093 -0.272888 -0.397039 0.357266 0.478892 -0.546387 -0.875190 -0.176828 0.478721 -0.287810 -0.270401 -0.649227 -0.061034 -0.120675 0.243281 -0.849274 -0.092684 -0.353036 -0.234936 0.295691 -0.508875 -0.103806 0.684924 0.297930 -0.295335 -0.035653 0.112048 0.273129 0.316589 -0.104699 0.047640 -0.625791 -0.161883 0.433865 -0.080968 -0.223313 0.192373 0.423568 -0.801098 0.053651 0.146884 -0.356010 0.199801 0.195060 -0.346834 -0.625881 0.101023 -0.037636 0.281048 0.058616 0.675257 0.186874 0.240314 0.508681 -0.872922 0.116828 
fcu -0.188757 0.244690 0.133414 -0.111388 -0.064511 0.356157 0.345971 0.156006 -0.269377 0.345655 -0.162661 0.215474 -0.277825 -0.247185 0.249111 0.081962 0.052731 -0.136563 0.228562 0.122868 -0.003177 -0.127077 -0.002108 -0.512189 0.025567 -0.045282 -0.309908 0.453216 -0.220446 0.347076 -0.498183 -0.066227 -0.447335 0.092412 0.105373 -0.206087 0.017568 -0.139483 0.156492 -0.314382 -0.032490 -0.200926 -0.056619 -0.010961 0.053465 -0.230533 -0.111282 0.200848 -0.348317 0.019840 -0.082245 0.030719 -0.244936 -0.337655 0.255007 0.141555 0.268067 0.419608 0.049545 -0.248465 -0.200562 -0.018743 0.086850 0.019849 -0.199192 0.410433 0.039786 0.114173 -0.190125 -0.066979 0.374461 0.451333 0.128867 0.098402 -0.641448 -0.026026 -0.051968 0.094261 -0.449739 -0.170719 -0.163040 0.079155 -0.203431 -0.209436 0.104617 0.501191 -0.014244 -0.012660 0.213290 0.087472 0.289421 0.249886 -0.011735 0.177105 0.411914 0.218360 0.243589 0.159222 0.003948 -0.298807 
、 0.200226 -0.510171 0.128076 0.010995 -0.053402 -0.591434 0.596445 -0.464784 -0.495567 -0.225787 -0.133495 0.387889 0.133283 -0.302016 -0.135566 0.486591 0.115425 0.502632 -0.327587 0.664430 -0.149237 -0.052023 0.378729 0.570160 -0.235121 -0.136181 0.143324 0.687972 -0.172069 0.166979 -0.267199 0.367125 -0.079345 -0.456685 0.175014 -0.177356 0.014033 -0.015882 0.501291 -0.165670 -0.012958 0.105633 -0.114977 -0.018414 0.305790 -0.132162 0.221791 0.121914 -0.269751 -0.632513 -0.418826 0.293267 0.316673 -0.025531 -0.482531 -0.123079 0.030044 0.032313 -0.137348 -0.983295 -0.041484 -0.109655 -0.320287 -0.178064 -0.254147 -0.015934 -0.119412 0.118674 -0.166254 0.499233 -0.187062 -0.393931 0.202290 -0.381369 -0.189894 -0.197163 -0.670511 0.139556 -0.176620 -0.248786 0.449093 0.333283 -0.055549 -0.060048 -0.143136 -0.297801 0.605813 -0.398816 -0.241615 -0.413713 -0.317123 -0.264760 0.148498 0.478392 0.300270 -0.066853 0.204482 0.401350 -0.303463 0.601138 
usrh 0.460617 -0.060837 -0.073655 0.026286 -0.677058 0.037401 -0.151403 -0.333821 0.264770 0.082180 0.209418 0.148747 -0.024414 -0.584824 0.281354 0.366553 -0.185330 -0.499045 0.334173 0.269970 -0.756983 -0.439865 -0.017682 0.499639 0.210159 0.168478 -1.098910 -0.015045 0.894716 -0.089286 -0.274378 0.000941 -0.463623 -0.175310 0.305364 -0.079539 0.202183 0.826703 0.454595 0.218580 0.074652 0.388687 0.048875 -0.098456 -0.015562 -0.625361 0.115064 0.306450 0.714742 0.074409 -0.414908 -0.205780 0.352140 -0.151682 -0.445452 0.969331 0.241737 -0.020571 -0.531569 -0.194858 -0.656091 0.332930 0.315761 0.463166 -0.561100 0.066213 0.667883 -0.171825 -0.201497 -0.045674 0.252547 0.158542 -0.274863 0.187702 -0.158933 -0.287938 0.263244 -0.102104 -1.031893 -0.311066 0.015844 0.654835 -0.834200 0.119201 -0.398381 0.264095 -0.167657 -0.133126 0.355792 0.174620 0.237127 0.925086 0.041699 -0.237858 -0.038166 0.672229 0.217119 0.200164 0.612125 -0.560493 
gcfj 0.454438 -0.258669 -0.122098 -0.141004 -0.136838 0.301131 -0.311715 -0.294800 0.051827 -0.265935 0.073466 0.342155 0.515399 0.004759 0.072533 0.268149 -0.091772 -0.098621 0.298871 -0.313932 -0.392384 -0.093359 0.290653 0.356696 -0.408074 0.055972 0.117744 0.107133 -0.112326 -0.057189 -0.065073 -0.210784 -0.587428 0.050200 -0.330358 0.134048 -0.268556 -0.199428 -0.042664 -0.365860 -0.129398 -0.067569 0.200374 0.287716 0.423319 -0.189611 0.383767 0.002779 -0.264992 0.272194 -0.129760 0.206753 -0.289732 0.040209 -0.060051 -0.075400 0.142314 -0.072431 0.090148 -0.109922 -0.167561 -0.170548 0.382486 -0.386065 0.362094 0.142941 -0.291505 -0.078374 0.056776 -0.052405 -0.134996 0.339482 0.288852 0.044512 0.310896 0.173903 -0.251739 0.247974 -0.216346 -0.118587 -0.151357 -0.158961 0.120699 -0.319239 -0.156369 0.050503 0.294683 -0.089852 0.269075 -0.130210 0.119928 -0.155849 -0.215798 0.620044 0.115048 -0.129284 -0.089398 -0.044890 0.041359 0.230138 
ntcy -0.431492 0.067151 0.235056 0.185865 -0.180135 -0.096602 0.164513 -0.726106 -0.278775 -0.220715 -0.076807 0.261533 -0.203517 -0.061986 0.522655 0.253516 0.133711 0.136996 -0.245074 0.574958 0.301096 0.324228 0.288886 0.122701 -0.084689 0.498170 -0.684560 0.103482 0.008819 0.741524 0.089305 0.043863 0.031881 -0.181372 0.184471 0.108075 0.405688 0.309144 0.100593 -0.400097 -0.079901 -0.278471 0.093662 0.337606 0.322783 -0.467160 -0.542831 0.055494 0.201131 0.126317 -0.352264 -0.017159 -0.256145 -0.420813 -0.522771 -0.203617 -0.254639 0.070399 0.340997 -0.188647 0.012097 -0.278515 0.216480 -0.333433 -0.505036 -0.130091 -0.653178 -0.506058 -0.288334 -0.117932 -0.004589 0.407544 0.105225 0.061348 -0.279009 -0.429258 0.076449 0.181174 -0.766585 -0.282790 0.269941 0.033217 -0.368163 -0.119152 -0.223493 0.111988 -0.147978 -0.133097 -0.059808 -0.122363 -0.171553 -0.260405 0.133901 0.242586 -0.000947 0.606715 0.384411 0.269283 0.152256 -0.160145 
# 0.372056 -0.198899 -0.424960 0.027324 0.135121 -0.068634 0.065762 -0.309829 0.031848 -0.359697 -0.264439 -0.179864 -0.458903 -0.216255 0.070979 0.061799 -0.154715 0.033997 -0.225932 0.629573 0.033730 0.149017 0.220107 0.843055 -0.105419 0.365255 -0.359718 0.370050 -0.123360 0.415328 -0.298378 -0.245154 -0.719001 0.155061 0.627132 -0.408986 -0.036090 0.338875 0.656088 -0.735335 -0.287475 0.067470 -0.071351 0.164693 0.778210 -0.676716 0.004675 0.398330 -0.239928 -0.099711 -0.215581 0.630670 0.207041 -0.197138 -0.786679 -0.396621 0.055881 -0.273360 -0.253837 -0.413618 -0.269584 -0.095455 -0.276578 -0.259791 0.063437 0.257342 -0.512938 -0.196975 0.201565 0.150440 0.376835 0.730034 0.091943 -0.315334 -0.203502 -0.127652 -0.293010 0.042433 -0.530452 -0.357491 -0.312283 0.213866 -0.409128 0.242836 -0.441802 0.503920 0.253629 -0.210045 0.004769 -0.039006 0.097712 0.169791 -0.068476 0.241099 -0.334783 0.768665 0.076768 -0.255063 0.405585 0.019695 
fbn 0.019671 0.435344 -0.100966 0.360158 0.237818 0.358457 -0.042027 -0.134574 -0.303623 -0.155102 0.155298 -0.363870 -0.057575 -0.327004 0.279556 0.026154 0.259645 -0.081177 -0.245502 0.528575 0.008828 -0.540606 0.188044 -0.409160 -0.303321 0.031962 -0.205018 0.244412 -0.549412 -0.119385 -0.121473 -0.188852 -0.098359 -0.055566 0.319714 -0.116134 -0.286793 -0.043494 -0.088749 -0.419652 0.523992 -0.098793 0.154091 0.212843 -0.160623 -0.153435 -0.274443 -0.381150 0.244127 0.467733 0.030523 -0.176641 -0.333137 -0.609154 0.057341 -0.245624 -0.049858 -0.272285 0.040969 0.882008 -0.074204 0.554050 -0.201941 -0.099124 -0.327678 0.147717 -0.409971 0.295140 -0.217000 -0.222772 0.103400 0.597141 -0.193623 0.070536 -0.082824 -0.370189 0.148620 0.044902 -0.157545 0.289699 -0.316960 0.191298 -0.143304 0.537360 0.113013 0.182974 0.236161 0.251394 -0.143487 0.326996 -0.128833 0.085421 -0.227717 -0.275193 -0.001687 0.310654 0.321490 -0.035835 0.345762 0.378685 
tmgt 0.104105 0.117588 0.017630 -0.164051 -0.388151 0.536324 0.381079 -1.054864 -0.053904 -0.065460 -0.074274 0.710981 -0.244331 -0.578436 0.383370 -0.083982 -0.260799 -0.163164 -0.264970 0.638430 -0.569748 0.333435 -0.518823 0.730370 -0.263925 0.298696 -1.123966 -0.107658 0.334840 0.022041 -0.466400 -0.294417 0.070403 0.209760 -0.444251 0.378586 0.196785 0.807821 0.300253 -0.195464 0.057549 0.264591 0.479862 0.275405 0.597640 -0.430378 -0.135267 0.979195 0.209779 -0.408580 -0.203875 0.124160 0.374251 -0.460646 -0.394305 0.522990 0.088046 0.018269 -0.329337 -0.191824 -0.470447 0.132853 0.215263 0.116958 -0.584445 -0.010072 -0.061299 -0.112550 0.038820 0.195286 0.448568 0.482247 -0.185977 -0.445834 0.010344 -0.316069 0.195039 -0.144039 -0.841933 -0.160036 0.220656 0.261036 -0.534094 0.101355 0.160779 0.265814 -0.388121 0.222624 0.577736 -0.431992 0.336536 0.579994 0.319468 0.557534 -0.046743 0.608968 0.423340 0.164723 0.509836 -0.214374 
wfcu 0.055644 -0.307936 0.319775 0.251002 -0.281502 -0.157940 0.600570 -0.271414 -0.384984 -0.250145 0.095787 -0.068203 0.298754 0.100309 -0.112871 0.406899 0.223274 0.178594 -0.016578 0.186604 0.171121 0.084989 0.232270 0.681384 -0.130746 -0.132777 0.279524 0.510851 -0.170316 0.093071 -0.066603 0.036940 -0.239530 -0.310292 0.040018 -0.132324 -0.038447 0.401281 -0.164636 0.101402 -0.101631 -0.083752 0.100095 0.022892 0.460042 -0.321674 0.172303 0.128319 -0.280183 0.045082 0.178420 -0.301509 -0.206113 -0.028655 -0.172015 -0.379436 -0.125538 0.092247 -0.098804 -0.026497 0.404102 -0.074920 0.114083 -0.207949 -0.088238 -0.003500 -0.246223 -0.103380 -0.336518 -0.025159 -0.276368 0.082930 -0.384947 0.077535 0.109289 -0.071591 -0.346088 0.188744 -0.324156 -0.115488 0.386360 -0.003899 -0.421104 0.084440 0.342519 -0.114332 0.303995 -0.080666 -0.111358 -0.587261 -0.078096 -0.248986 -0.014466 0.251104 0.109016 0.396005 0.059453 0.353514 -0.141014 0.364059 
yidn 0.315710 -0.511751 -0.243053 -0.071174 0.474745 -0.130955 -0.235834 -0.219088 0.083101 0.014441 0.109135 0.415037 0.203256 -0.623827 0.012380 0.183967 0.280649 -0.239689 0.321776 -0.403227 0.362798 -0.151584 -0.130343 0.205310 0.145053 0.015603 0.316981 0.251539 -0.223518 0.168656 0.191417 0.046428 -0.522908 -0.038789 0.001815 0.076120 0.024000 -0.556121 -0.088870 -0.275661 -0.526379 0.061896 -0.056771 0.204468 0.527446 -0.152482 0.032291 -0.110812 -0.186797 0.169944 -0.645668 -0.225242 -0.611023 -0.014528 -0.395429 0.329532 -0.166536 0.145110 -0.021613 -0.217589 -0.277017 0.174849 0.811416 -0.550620 0.053951 0.147747 -0.073312 0.112419 -0.568309 -0.387147 -0.012671 0.484219 -0.311539 0.460828 0.405410 0.376600 0.136466 0.048900 0.109858 -0.346522 0.107226 -0.070030 -0.411909 0.112625 0.077775 0.063233 0.214374 0.534366 0.057222 -0.097559 0.281541 0.076020 -0.049919 0.045753 0.042758 0.137527 -0.277999 -0.291584 -0.343656 -0.338741 
tcu 0.565316 -1.011970 -0.406585 -0.508168 0.033741 -0.411634 -0.086184 -0.609721 0.122428 0.241418 -0.243252 0.081778 -0.142816 -0.461700 0.680846 0.506745 0.248106 -0.176278 0.448494 -0.796059 -0.010865 -0.090086 0.086175 0.130198 -0.163839 0.148789 0.036190 -0.500106 0.710253 0.457153 0.276239 -0.086331 -0.151705 0.527526 -0.591874 0.621610 0.319842 0.121192 -0.141472 0.141180 -0.406766 0.168875 0.018804 0.174523 0.064965 -0.017093 0.552886 -0.061305 -0.389707 0.189521 0.592148 -0.236479 -0.437758 0.571586 -0.007042 0.744824 -0.217586 -0.050857 0.017867 -0.181496 0.158494 0.210494 0.265032 -0.407282 0.771810 0.319598 0.091183 -0.678547 0.052966 0.164949 -0.063537 0.382199 -0.024875 0.353946 0.145394 0.314768 -0.108029 -0.043940 0.190020 -0.261213 0.233030 -0.019507 0.027672 -0.180313 0.076848 0.135025 0.238244 0.108545 0.508941 -0.188119 -0.340978 -0.312905 0.006042 0.318736 0.117510 0.230200 -0.226186 -0.179054 -0.557853 -0.511391 
jfy 0.900476 -1.191728 -0.428598 -0.424880 0.577817 -0.547566 -0.038352 -1.037708 0.047678 -0.335426 -0.279520 0.207904 0.093609 -0.338687 0.093163 0.363240 0.540213 -0.023210 0.436663 -0.147055 0.104670 0.042023 0.767668 0.275153 -0.529646 0.267943 -0.174758 0.350093 0.098658 -0.006630 0.254185 -0.024041 -0.138172 0.148084 -0.180910 0.603977 0.357044 -0.281990 -0.146864 -0.170537 -0.221251 -0.303321 0.153110 0.471755 0.170173 0.237393 0.509167 -0.367028 -0.320793 -0.471047 -0.058216 0.032224 -0.790194 0.687000 -0.769291 -0.231912 0.050188 -0.075779 -0.073696 -0.254844 -0.137969 0.420582 -0.286857 -0.812692 0.391012 -0.242085 -0.046223 -0.501938 0.109896 0.039834 -0.303269 -0.027901 0.270954 0.376019 0.325562 0.556496 -0.273308 -0.001106 0.294872 0.270493 0.054543 0.071566 0.336517 -0.345377 0.191316 -0.338393 0.012894 0.374894 -0.142771 -0.185268 -0.282958 -0.657650 0.074386 0.652930 -0.473388 0.044605 -0.178019 -0.079361 -0.379688 -0.438910 
？ 0.491468 -0.773135 -0.451222 -0.862936 0.182150 -0.138488 -0.553465 -0.367811 -0.132236 0.333877 0.120538 -0.315420 -0.106565 -0.279983 0.147532 -0.098300 0.329979 -0.191247 0.250348 -0.878601 0.113160 -0.202879 0.190002 0.017747 0.320219 0.311302 0.016722 0.072865 0.557939 -0.059697 0.277345 -0.630798 -0.344281 0.423732 -0.399005 0.393954 0.391329 -0.051272 -0.311309 0.268082 -0.353003 -0.073651 -0.054645 0.037353 -0.307797 0.375985 0.639407 -0.290109 -0.205095 0.168463 0.565621 -0.371068 -0.452033 0.609465 0.396039 0.128731 0.128807 0.246748 -0.124265 0.414850 -0.257590 -0.094666 0.071552 -0.393350 0.799750 0.433167 0.759005 -0.534605 0.292726 -0.016719 0.065876 0.170901 -0.114202 0.607180 0.155302 0.541402 -0.005228 0.135876 0.243861 -0.074821 -0.010111 -0.158921 0.707161 -0.439202 -0.058404 0.182706 0.388529 -0.029666 0.347528 0.109164 0.205922 0.187155 0.089741 0.230865 0.207680 -0.062064 -0.286138 -0.321247 -0.237246 -0.200016 
fgef -0.219313 0.666230 0.503480 -0.447806 -0.384676 0.358888 0.312393 -0.450886 -0.143391 0.208730 -0.290135 0.599031 -0.320326 -0.089312 -0.057970 -0.035965 -0.039091 -0.146532 0.260035 0.958464 -0.130031 -0.171102 0.165704 0.052835 -0.140732 0.280533 -1.476370 0.322489 0.174393 -0.031579 -0.562673 -0.456190 -0.074635 -0.237218 -0.109278 0.122569 0.404603 0.389061 0.159500 0.226365 0.534900 -0.166427 0.383083 0.360654 0.323894 -0.494139 -0.036761 0.772003 0.124692 -0.502264 -0.175908 0.116019 0.201017 -0.046146 0.169684 -0.226343 0.348017 0.048798 -0.397175 -0.735968 -0.247977 0.061896 0.006589 0.412109 0.050422 0.219066 0.458694 -0.203574 -0.118262 0.044372 -0.024028 0.421201 0.500501 -0.484790 -0.549188 -0.348410 0.108797 -0.033596 -1.078209 0.112752 -0.658454 0.135577 -0.557939 -0.166347 -0.351871 0.013613 -0.934421 0.106167 0.433060 0.202233 0.423852 0.425138 0.470053 0.248141 -0.224046 0.481835 0.628255 0.499739 0.520068 -0.704404 
wun -0.072404 -0.518072 -0.201847 -0.261124 0.070813 0.510660 -0.064297 0.179416 -0.317430 -0.442289 0.100738 0.110530 -0.093288 0.167811 0.543115 -0.050845 -0.287535 -0.349201 -0.158531 -0.940128 0.116628 -0.070925 0.032651 0.106953 -0.140438 0.087240 0.025481 -0.108322 0.120539 0.132700 -0.050545 -0.063736 -0.450121 0.665005 -0.042489 0.157852 -0.224029 0.172146 -0.045280 -0.188204 0.348117 -0.228917 -0.002893 0.238977 0.001895 -0.071606 0.306911 0.281065 -0.564749 0.218455 0.222353 -0.186710 -0.484744 -0.066839 0.320870 0.116274 0.072404 0.263428 0.230647 -0.311221 -0.023584 0.195638 0.555133 -0.249989 0.386517 -0.065617 -0.585334 -0.291935 -0.227239 -0.244411 0.058235 0.436101 -0.215330 0.280069 -0.217165 0.169888 0.135413 -0.267091 0.076698 -0.431481 -0.468422 -0.402497 0.085449 -0.154202 -0.087097 0.462897 -0.163644 -0.165757 0.205823 -0.010030 0.116932 -0.154214 -0.195177 0.547821 -0.082627 0.419291 -0.041911 -0.169040 0.013926 -0.163970 
bbbb 0.052560 -0.287054 -0.110897 0.148674 0.027405 -0.242876 0.449804 -0.592277 0.202370 0.408718 -0.272889 -0.170423 0.102542 -0.339333 -0.113086 0.535185 0.432293 -0.434898 0.594433 0.102075 0.288519 0.046896 0.168445 -0.145501 0.636726 0.108907 0.141086 -0.074334 0.218746 0.049001 0.241977 0.138404 0.230558 -0.112582 0.222849 -0.141187 -0.031154 -0.231098 -0.106497 -0.111404 0.002805 0.423606 0.308593 -0.255024 0.059155 -0.237107 0.030337 -0.238138 -0.028142 -0.166087 -0.237539 -0.402961 -0.179488 -0.053577 -0.273491 -0.013768 0.262372 -0.104319 0.112110 0.011747 -0.500719 -0.022264 -0.056485 -0.077027 0.171320 0.299509 -0.170803 -0.538736 -0.235755 -0.209791 0.077478 0.524859 -0.267527 0.313089 0.277671 -0.034306 -0.049832 0.271695 -0.394404 -0.217458 0.265503 0.371144 -0.428725 -0.170848 0.283526 -0.123593 0.520526 0.447735 0.054555 -0.022975 0.069128 0.134923 0.101846 0.164452 0.127947 0.229749 -0.076694 -0.176526 -0.462080 0.103530 
hhgg 0.204556 -0.154202 -0.395899 -0.186862 0.298627 -0.512385 0.306959 -0.452416 -0.050970 -0.181301 0.014415 0.293301 0.061664 -0.354517 0.033467 0.136489 -0.190813 0.023203 0.006366 -0.078415 0.079398 0.043475 0.115898 0.363862 0.149003 0.069275 0.127762 0.270873 -0.231401 -0.076351 0.368516 0.113785 -0.068737 0.418646 0.419043 -0.090329 -0.109849 -0.244474 0.313893 -0.414711 -0.269460 -0.054662 -0.106693 -0.208570 0.060434 -0.061533 0.178403 0.258908 -0.210024 -0.295115 -0.376686 0.181170 -0.034960 0.177752 -0.529775 0.140719 0.132774 -0.064801 0.202921 -0.179966 -0.396193 0.168237 0.001690 -0.181508 0.083164 0.061659 -0.111743 -0.212266 -0.087801 -0.084111 0.118856 0.333432 -0.237227 0.080583 0.161844 0.205971 -0.482736 0.229500 -0.133863 -0.461503 0.589728 0.285946 0.164476 0.066330 0.255556 0.146620 0.418500 -0.204551 -0.187184 0.093225 -0.297395 -0.118903 0.258857 0.229987 -0.351003 -0.112435 -0.009555 -0.151586 -0.012370 0.318327 
rhf 0.040105 -0.475602 0.256068 -0.182462 -0.251093 -0.070255 -0.204719 -0.101607 -0.267175 -0.294915 0.573495 0.103030 0.082497 -0.492886 0.222692 0.161042 -0.068934 -0.306728 -0.090928 -0.123190 0.105842 0.296596 -0.080370 0.340128 -0.140778 -0.073357 -0.167554 0.021410 0.030630 -0.166609 -0.020991 0.192627 -0.446593 -0.266330 -0.180279 0.288943 0.031958 0.234854 -0.191291 0.353068 -0.465928 -0.224181 -0.035758 0.445765 0.548776 0.019040 0.118360 0.215897 -0.033079 0.050819 -0.100351 -0.437394 -0.241351 0.259259 -0.242256 0.000251 -0.062773 0.016956 -0.193704 -0.167768 0.091651 -0.199953 0.345822 -0.121651 0.055065 0.003225 -0.223167 0.026494 -0.347227 -0.065732 -0.106011 -0.082059 -0.474534 -0.214057 0.227407 -0.020304 0.326177 0.307782 -0.102915 0.017896 0.187430 -0.639455 0.021427 -0.162206 0.158973 0.234099 0.280775 0.139666 0.138482 -0.278983 0.210956 0.118674 -0.044168 0.294479 0.366536 0.194949 -0.137348 0.104604 -0.216435 0.089752 
skd -0.319952 -0.314383 0.063689 0.391068 -0.523876 0.018906 -0.267166 0.382156 0.264645 -0.127310 0.089559 0.080630 0.416409 -0.193429 -0.124552 -0.004396 -0.396882 0.223689 0.495304 -0.307294 -0.572916 0.025533 -0.000942 0.345858 -0.176434 0.141555 0.137092 0.277884 0.074487 0.083982 -0.311679 0.262546 -0.277159 0.038978 0.045451 0.270522 -0.000591 -0.434216 0.642612 -0.205056 -0.356999 0.266022 0.036212 -0.160524 0.307137 0.176359 -0.003744 0.028809 -0.402566 -0.104198 0.075507 0.033442 -0.130141 -0.051731 -0.548675 0.395492 0.415239 0.518800 -0.250384 -0.408626 0.056156 -0.512174 0.086541 -0.294546 -0.129331 0.282557 -0.558733 0.170510 0.114289 0.215338 0.002229 -0.101423 0.160388 -0.020436 -0.221103 0.046819 -0.249573 -0.043667 -0.070331 -0.193169 0.048583 0.267439 0.113890 -0.288165 -0.367080 -0.182817 0.441716 0.105994 -0.084665 -0.359579 0.160826 0.308859 -0.321436 0.143640 0.392601 -0.062745 -0.565038 0.091666 0.157184 0.105197 
ftjb 0.209953 -0.407176 -0.217064 0.019021 0.219954 0.116192 -0.460085 -0.179351 0.050795 -0.315197 -0.052329 0.351882 0.120186 -0.195058 0.207389 -0.117684 -0.095965 0.157418 -0.055816 -0.294171 -0.176277 -0.422006 0.212650 0.488190 -0.584651 0.198804 -0.069101 -0.191259 0.003813 0.166557 0.021769 0.154497 -0.449265 0.062439 -0.571122 0.602798 0.310152 0.017202 0.243448 0.024360 -0.272733 0.266117 -0.101723 0.505510 0.104316 0.219200 0.170600 0.071552 -0.308186 0.190612 0.098580 0.121250 -0.570907 0.400850 0.045461 0.305409 -0.139098 0.022848 -0.292277 -0.285015 0.020082 0.283493 0.458658 -0.461041 0.370458 0.048844 -0.734755 0.094894 0.016231 0.064569 -0.282175 0.111668 -0.033663 -0.369269 0.264493 0.305250 -0.231560 0.192929 0.141037 -0.064367 -0.207811 -0.322577 0.330548 -0.011455 -0.221466 0.112716 0.179304 0.191526 0.561299 -0.137552 -0.060079 -0.042889 -0.076861 0.221697 -0.005086 -0.264695 -0.345134 -0.058292 0.040202 0.032875 
cexx 0.423075 -0.262820 -0.055974 -0.041664 -0.555656 -0.265290 -0.608194 -0.262280 0.228645 -0.096579 0.274135 0.386649 0.248670 -0.614192 0.028374 -0.033380 -0.223453 -0.012181 -0.171535 -0.202954 -0.199970 -0.324620 -0.001823 -0.181819 0.120125 0.282306 0.037512 0.079578 0.077405 -0.321053 -0.401551 0.135661 -0.125792 0.189079 0.396535 0.085844 0.085934 -0.428786 0.344708 0.119966 -0.181729 0.008255 0.457442 0.194111 0.079859 0.050347 -0.002772 0.237072 -0.352269 0.141086 -0.388081 -0.180102 -0.337537 -0.043850 -0.133783 0.378720 0.479171 0.221906 -0.370940 0.065364 -0.397371 -0.093065 0.385390 0.157975 0.024437 0.332052 0.247017 0.097950 -0.250869 -0.055649 0.236427 -0.165647 -0.543739 -0.104430 -0.006704 0.060596 0.018055 0.309328 0.304911 0.062784 0.467851 -0.070685 0.634863 -0.090660 -0.068491 0.309007 0.904026 0.001884 -0.001607 0.114609 0.149176 0.015601 0.167817 0.440305 0.120925 -0.021402 -0.099121 -0.163949 -0.264478 0.225867 
tgd -0.009715 -0.255900 -0.130560 0.271935 -0.144846 0.094549 0.102569 0.007149 -0.056001 0.092352 -0.163873 -0.045563 -0.249340 -0.258781 0.251519 0.339223 -0.035854 -0.008727 0.285446 0.034271 0.144243 0.135835 0.328717 -0.626735 0.202079 0.124220 -0.012007 0.054295 -0.153628 0.014320 0.025854 -0.196318 0.039910 0.029641 0.133132 -0.213183 0.048828 -0.506095 0.019972 -0.416593 0.008680 -0.102835 0.157516 0.165680 0.000303 -0.008249 -0.128485 -0.058464 -0.497950 -0.198297 -0.334576 -0.279589 -0.410242 -0.152109 -0.168483 -0.208344 -0.052610 0.213118 0.121035 -0.259218 0.335702 -0.090836 -0.232885 -0.346625 -0.090735 0.130584 -0.420503 -0.088685 -0.084987 -0.265466 -0.073758 0.368221 0.172773 0.299602 0.018098 -0.036634 -0.043162 0.086546 -0.224960 -0.027676 0.130564 0.220938 -0.431603 -0.321897 0.260460 0.151024 0.213816 0.204804 -0.189877 -0.165489 0.073872 -0.313629 0.096744 0.455486 0.414836 0.110641 -0.019131 0.117313 -0.278343 -0.170895 
qqu 0.539401 -0.086808 -0.372414 0.029308 -0.154949 0.260406 -0.382808 -0.072254 -0.215024 -0.515718 0.327048 0.496021 0.117087 -0.626646 0.445100 -0.232585 -0.687350 0.213537 -0.060142 -0.142140 -0.564635 -0.044985 0.077707 0.061919 -0.295948 0.105722 -0.364362 0.068111 -0.049911 -0.063122 0.182817 -0.446169 -0.162849 0.222556 -0.295230 0.040583 0.117106 0.298325 0.034879 -0.781876 0.001681 -0.279717 -0.151760 0.188232 0.240035 -0.263842 0.333608 0.167806 -0.131888 -0.161719 -0.146276 0.238667 -0.173070 0.014892 -0.420370 0.047898 0.138493 0.166050 0.031462 0.096854 0.269206 -0.076581 0.003836 -0.536589 -0.275456 -0.061763 -0.232732 0.212043 0.146912 -0.049144 0.167761 0.182877 0.100864 -0.163128 0.416023 -0.122614 -0.326413 -0.006928 -0.276991 -0.349643 0.005393 0.102245 0.024378 -0.052754 0.156115 0.304284 0.178432 0.196798 0.054971 -0.046080 0.213203 -0.120126 0.229110 0.416667 0.129576 0.266134 -0.055162 -0.207232 0.635928 0.401731 
thd -0.020714 -0.298628 0.503622 -0.167320 -0.272235 -0.071529 0.256032 0.053506 -0.160714 -0.879857 0.526136 0.226110 0.272190 -0.175826 0.073900 -0.057775 -0.680880 -0.064804 0.075110 0.092356 -0.495727 -0.552507 0.543376 0.688635 -0.509704 -0.158180 -0.264778 0.246785 0.128394 -0.081691 0.095969 0.458822 -0.832036 -0.337756 0.115580 0.096244 0.399370 0.302716 -0.211107 -0.336427 0.495217 -0.343062 -0.701300 0.612681 -0.044035 0.075285 0.674995 0.100894 -0.520039 -0.722943 -0.021399 -0.171319 -0.212181 0.626724 -0.385926 -0.008276 -0.097330 0.420008 -0.795256 -0.965770 0.246557 0.108363 0.286557 -0.324355 0.042052 -0.201076 0.106902 -0.017095 -0.298118 -0.015933 -0.528500 -0.630077 -0.652194 0.051691 -0.115830 -0.303083 0.068122 -0.273012 -0.403590 -0.864040 -0.545544 -0.022275 -0.147356 -0.209833 -0.691092 -0.180900 -0.192265 0.011750 -0.303928 -0.265338 -0.087689 -0.173660 0.192719 0.236665 0.120854 0.159556 -0.491403 0.472628 0.531787 0.286554 
shnu 0.614368 -0.373206 -0.036016 -0.040060 -0.058014 -0.014076 -0.476256 -0.254133 -0.008037 -0.505784 -0.281230 0.421595 0.327113 0.207477 0.181115 -0.016590 -0.304863 0.215839 0.012637 -0.326808 -0.104663 0.032221 0.268535 0.009701 -0.551665 0.089856 0.077645 -0.270771 0.050755 0.194524 0.157109 0.094015 0.100617 0.126539 -0.594156 0.618744 0.099781 0.049225 -0.192219 0.034125 -0.032239 -0.395166 0.219293 0.603677 0.027371 0.013439 0.204864 0.149459 -0.437614 -0.063976 0.092668 -0.001154 -0.630408 0.297986 0.096295 -0.036246 0.048526 0.171211 0.376588 -0.190187 0.711943 0.102884 0.442933 -0.282293 0.279490 -0.312569 -0.224383 0.069610 -0.074995 -0.234044 -0.007100 -0.442670 -0.065578 -0.145176 0.405681 0.150693 -0.536085 0.148689 0.447743 -0.092937 0.174302 -0.297907 0.244366 -0.010861 0.133952 -0.092675 0.211381 0.181605 0.149135 -0.145281 -0.126572 -0.764613 0.088309 0.213830 -0.090933 -0.412090 -0.108429 -0.004128 -0.211958 -0.070584 
ghi 0.028442 0.059857 0.135506 0.053119 0.240399 -0.176262 0.138879 -0.139473 -0.354332 0.314763 0.139782 0.167120 0.126827 -0.095039 -0.168832 0.413775 0.470156 -0.041027 0.093939 0.335153 0.222612 -0.510957 0.053450 -0.154145 -0.055606 -0.067402 0.138335 0.526847 -0.282145 0.248946 -0.208883 -0.133041 -0.024267 -0.237044 0.145172 -0.067694 -0.036451 -0.252978 0.144170 0.160938 -0.049329 0.049379 0.103999 0.018133 0.084236 -0.029697 0.129519 -0.063610 -0.222476 -0.118931 0.020317 -0.171043 -0.067882 0.042352 0.023623 0.045434 0.055866 0.128590 -0.258566 -0.128497 -0.169682 0.066428 -0.093665 0.199117 -0.042197 0.357026 0.117977 0.190088 -0.328637 0.222294 -0.065843 0.274044 -0.115028 0.039283 0.069071 -0.234997 -0.145592 0.180151 -0.079421 0.050482 0.010442 -0.013426 -0.055175 0.078085 0.197525 -0.068625 0.400058 0.404997 -0.060067 -0.093124 0.027625 0.346823 -0.071893 0.056964 0.382996 0.184673 -0.009226 -0.014032 -0.344425 0.349775 
e 0.289582 -0.189899 0.036877 0.506502 -0.019688 0.323585 -0.451608 -0.369867 0.956398 -0.043603 -0.333041 0.051509 0.324751 0.639841 -0.607956 0.299656 0.305101 -0.939466 0.140552 0.774544 -0.148796 0.406362 0.158530 0.218082 0.093397 -0.411762 -0.340607 -0.401245 0.312840 -0.909951 -0.253807 0.683473 0.129611 -0.339323 0.509045 0.251631 -0.038296 -0.246242 -0.260166 0.206932 0.297418 0.209041 0.516100 -0.222768 0.304993 -0.195197 -0.109313 -0.499287 0.378785 -0.792761 -1.039512 0.282714 -0.783442 -0.250807 -0.890484 -0.647905 0.301189 -0.694811 -0.324922 0.207042 -0.710427 0.627696 0.627455 0.090602 -0.262472 -0.351262 -1.301201 -0.622266 -0.269413 -0.272760 0.038895 0.003528 -0.291904 -0.026599 0.486723 -0.122790 1.075497 0.286021 -0.035409 0.543607 0.038025 0.170103 -0.873954 -0.329200 0.407453 -0.785394 -0.258688 0.318498 0.345454 -0.451972 0.143741 0.003037 -0.087547 0.478166 -0.976742 0.094540 -0.133897 -0.621931 -0.166147 -0.020038 
o 0.191360 0.153315 -0.099705 0.448677 -0.163094 0.568970 -0.527392 -0.006080 0.977905 0.078476 -0.010222 -0.025482 -0.027739 0.209350 -0.284937 0.198440 0.035172 -1.015158 0.468058 0.106322 -0.209768 0.239668 0.192726 -0.516178 0.065865 -0.347896 -0.469359 -1.093379 0.695135 -0.923830 -0.120307 0.825905 -0.238963 -0.191807 0.242444 0.246266 -0.055906 -0.056734 -0.298337 0.172120 0.186572 0.421785 0.211387 -0.017837 -0.161816 0.080162 0.150380 -0.453762 0.353748 -0.141790 -0.403475 0.113827 -0.650870 0.246192 -0.264201 -0.135061 0.113505 -0.631334 -0.256292 0.590044 -0.405687 0.558809 0.261266 0.364969 -0.111749 -0.101309 -0.960877 -0.312169 -0.034980 -0.190577 0.133030 0.031475 -0.221162 -0.299492 0.591780 -0.028875 0.953302 0.360970 -0.125215 0.491346 -0.251221 -0.111767 -0.628365 -0.538352 0.579338 -0.198039 -0.283525 0.344309 0.706502 0.105046 0.133623 0.289766 -0.197968 0.002436 -0.629790 -0.081722 -0.303761 -0.466559 -0.026044 0.001625 
tjgf 0.133591 -0.453623 -0.053748 -0.075641 -0.113927 0.014347 -0.175832 -0.046617 0.019371 -0.563798 0.085473 -0.088471 -0.045069 0.008117 0.060397 0.039455 -0.474377 -0.042220 0.152485 -0.744625 0.223770 -0.013295 0.226431 0.131640 0.104063 -0.269944 0.384266 0.127333 0.199502 -0.170289 0.567244 -0.190772 -0.399305 0.178890 -0.116416 0.012483 0.123112 -0.379148 -0.104196 -0.127362 0.000381 -0.252299 0.024388 0.419701 -0.171467 0.357651 0.385947 0.025947 -0.156441 -0.388611 -0.412742 -0.139820 -0.318269 0.326173 -0.358700 -0.335685 -0.144179 0.225314 -0.146725 -0.392432 0.258846 -0.298771 0.371856 -0.641063 -0.171164 -0.027943 -0.063783 -0.103717 -0.050134 -0.217307 -0.596103 -0.056490 -0.245686 0.596439 0.496718 -0.021268 -0.142488 -0.101882 0.364178 -0.424573 -0.274117 -0.020369 -0.220408 -0.180780 -0.218034 0.054606 0.124260 -0.182993 -0.395044 -0.305475 0.259586 -0.273727 0.155318 0.225932 0.287736 0.081537 -0.693681 -0.062024 -0.022533 0.094279 
nywy 0.242812 -0.184104 0.271300 -0.063737 -0.201879 -0.621624 0.432578 -0.104374 0.085374 0.171309 -0.206945 -0.118962 0.286354 0.251104 -0.282010 0.189546 0.315811 0.123847 0.593712 -0.091391 0.136513 -0.306633 0.076639 0.356128 -0.034232 0.103873 0.564663 0.218844 -0.105438 0.511615 0.048897 0.027592 -0.262179 -0.040011 -0.093599 0.282619 0.128725 -0.074554 -0.318348 -0.136216 -0.019506 0.290260 0.034464 0.208439 -0.296297 -0.039056 0.278652 -0.299954 -0.402189 -0.242432 0.591990 -0.200300 -0.391713 0.232713 -0.173238 0.525642 -0.082402 0.323057 -0.020163 -0.119920 0.307941 -0.067906 0.210580 -0.175499 0.333681 -0.056963 -0.037602 -0.076110 -0.292569 -0.127407 -0.090921 -0.112883 -0.413884 0.245654 0.106593 0.058263 -0.495419 -0.272798 0.150907 -0.320398 0.065412 0.084264 -0.182123 0.030281 0.111208 -0.250664 0.138681 0.760659 -0.354482 -0.244149 0.001593 -0.298330 -0.178565 -0.182183 0.134427 -0.250770 -0.188424 0.002584 0.001955 0.000761 
khk 0.103796 0.063847 -0.264454 -0.318295 0.201608 -0.147070 0.389923 -0.367101 -0.044524 0.325786 -0.343986 0.078810 -0.190317 0.013818 0.034550 0.267541 0.178790 0.245118 -0.081444 0.166380 0.213311 -0.042228 -0.059114 -0.152184 0.158374 0.031601 0.188572 0.432611 -0.082708 0.521825 -0.363459 -0.205149 -0.224399 0.354828 0.339129 -0.196354 -0.000676 -0.221174 0.349815 -0.389897 -0.259530 -0.072592 0.127389 0.097304 0.061546 -0.325495 0.060258 0.227041 -0.280456 -0.199912 0.090882 0.460836 0.231449 -0.108899 -0.336981 0.009115 0.169057 0.007690 0.123005 -0.233941 -0.027005 -0.140716 -0.159743 -0.055476 0.032044 0.473123 0.195087 -0.180990 0.196071 0.075039 0.405933 0.616401 0.292071 0.351119 -0.470885 0.009188 -0.712313 0.044143 -0.089658 -0.290504 0.251993 0.364547 -0.131084 0.117984 0.007873 0.199990 0.299589 -0.208323 -0.117251 0.141531 -0.111871 -0.160807 0.037604 0.166844 0.170182 0.080562 0.071242 -0.039917 0.071704 -0.058823 
peu 0.220183 -0.524796 -0.164415 -0.298148 -0.000386 0.308585 0.418417 -0.592654 0.086866 -0.355985 -0.009413 0.001591 -0.223629 -0.385265 0.282213 0.100285 -0.126112 -0.028342 -0.158465 -0.466723 -0.057544 -0.068978 0.216242 0.138074 -0.092983 -0.091111 -0.118490 0.048674 0.265504 -0.124116 -0.274994 0.189660 -0.626257 0.258421 0.005886 0.036712 0.113324 -0.043010 0.051055 -0.233432 0.136651 -0.016525 -0.044884 0.458444 0.085625 0.152300 0.215616 0.464247 -0.303427 -0.060945 -0.039575 -0.014751 -0.065724 0.164105 0.029072 0.066535 -0.131700 -0.014261 -0.229162 -0.236644 0.184622 0.095847 -0.026555 -0.346128 0.073608 0.085990 0.292993 0.172140 0.119109 -0.031844 -0.181830 0.447979 -0.001080 0.152054 -0.109675 0.217315 -0.224003 -0.227301 -0.008715 -0.434903 -0.299328 0.325300 -0.207238 -0.062459 -0.012971 0.344487 -0.003726 -0.057381 -0.001136 0.041013 -0.108120 0.032323 -0.007307 0.319328 0.157596 0.127372 -0.384006 0.425820 0.095017 -0.076775 
fpi 0.195234 -0.066739 0.194322 0.034046 -0.364107 0.300773 -0.048183 0.040579 0.177732 -0.357664 0.064882 0.175180 0.192253 0.097381 -0.147946 -0.094990 -0.321517 0.058801 0.074316 -0.151851 -0.190311 -0.056740 0.129801 0.149080 -0.199480 -0.007214 -0.014984 0.224162 -0.068062 -0.438637 -0.216129 -0.176896 -0.372126 -0.303799 -0.283088 0.073758 -0.209683 0.026618 -0.161482 -0.118360 0.134725 -0.022754 0.190997 0.384433 0.058110 -0.089639 0.412728 0.202413 -0.171825 -0.252938 0.070645 0.221176 0.022453 0.164185 -0.126921 -0.248446 0.058843 -0.000166 -0.178216 -0.238266 0.191590 -0.092698 0.303368 -0.263013 0.149718 -0.119731 -0.218260 -0.053424 0.108904 0.016906 -0.275780 -0.233458 0.246009 -0.022917 0.135508 0.140044 -0.240726 -0.204661 -0.156428 0.158993 -0.198694 0.033740 -0.215103 -0.280932 -0.180852 -0.197490 -0.110205 -0.059065 0.011888 -0.201138 0.239157 -0.336940 -0.021974 0.600580 0.101993 -0.131743 -0.018342 0.083777 0.292694 0.133327 
jbcu -0.135507 -0.112370 0.164405 -0.259617 -0.210584 0.166777 0.398864 -0.331105 -0.125477 0.013325 0.059030 0.169866 0.046838 -0.249832 0.324820 -0.084464 -0.042920 0.086196 -0.072621 -0.014103 0.153340 -0.089363 0.069882 -0.108750 0.025446 0.085781 -0.328656 0.130880 -0.109397 -0.158818 -0.447165 0.176378 -0.283915 -0.178671 0.237334 -0.068923 0.020129 -0.123633 -0.107192 -0.028397 -0.029519 -0.232148 -0.173991 0.329511 0.208812 -0.145438 -0.066100 0.147442 -0.166862 -0.031022 -0.091437 -0.223149 -0.030662 -0.049392 0.048482 0.231889 -0.122253 0.151281 -0.105673 -0.265412 -0.033661 -0.088756 0.157430 -0.154382 -0.029711 -0.033872 0.017860 0.168910 -0.279829 -0.210218 -0.248611 0.133296 0.079103 0.272075 -0.164593 0.095195 0.137067 -0.281591 -0.285574 -0.106101 0.062420 -0.066023 -0.181025 -0.036334 -0.070425 0.132214 -0.313304 0.045689 -0.060927 -0.040596 -0.026797 -0.080952 0.134695 0.232783 0.209030 -0.036691 0.047894 0.348319 0.142679 -0.039354 
ylyi 0.306138 -0.394037 0.035504 -0.531322 0.032361 -0.181970 0.145543 -0.550983 0.236962 0.329116 -0.463456 0.028877 0.104577 0.257819 -0.013687 0.117552 0.190115 -0.410591 -0.016456 -0.119366 0.194152 -0.316966 0.393823 0.509581 0.079167 0.250732 0.436950 -0.330255 -0.037888 0.096044 -0.114053 -0.162713 -0.245464 0.304841 -0.018986 0.263970 0.150844 -0.205222 -0.072406 0.076814 -0.514121 0.081779 -0.263840 -0.265813 0.218098 -0.200330 0.314474 0.122534 -0.495908 -0.191811 -0.358985 0.379047 -0.626320 0.415040 0.086470 0.419898 0.059567 0.087461 -0.205364 -0.000467 -0.044503 -0.283257 0.609099 -0.484719 0.683595 0.218353 -0.657205 -0.527084 0.167762 0.321006 -0.103439 -0.135188 -0.190953 -0.031021 0.207453 0.267913 -0.138191 0.223939 0.241810 -0.202250 0.358138 0.098709 0.081955 -0.343312 -0.055118 -0.032639 0.183447 -0.263838 0.114118 -0.304265 -0.215955 -0.162921 0.193920 0.472462 -0.231886 -0.269167 -0.507074 -0.085452 -0.368154 0.307945 
fcln -0.313817 0.175654 -0.449244 0.327744 0.266671 0.567260 0.549830 -0.031038 -0.492008 -0.042298 -0.153769 -0.610371 0.209129 -0.047024 0.475513 -0.059701 -0.213855 0.397083 -0.426112 0.389043 0.254849 -0.087096 0.060650 -0.169573 0.189005 -0.122228 0.103503 -0.030825 -0.426025 0.066385 -0.518565 0.106612 -0.059666 -0.483374 0.138011 -0.827416 -0.312109 0.275700 -0.080535 -0.829283 -0.199595 -0.054775 -0.602755 0.380671 0.394404 -0.549703 0.185093 -0.515558 -0.087662 0.310744 0.062889 0.124146 -0.039801 -0.003672 0.074060 -0.602360 -0.068960 -0.093136 -0.118723 0.316737 0.853032 0.186879 -0.350018 -0.515394 -0.112671 0.167824 -0.450335 0.000889 0.113346 -0.337578 -0.058580 0.640828 0.237303 0.507532 0.039032 0.013750 -0.477974 -0.052373 -0.198501 0.102977 0.243702 0.175545 -1.006358 0.424540 0.028937 0.092369 0.188930 -0.206659 -0.091676 -0.162190 -0.246198 -0.406067 0.112707 0.045970 0.486321 -0.073069 0.164710 0.195864 0.341682 0.561456 
gipi 0.025121 -0.330942 -0.494353 -0.090982 0.317452 0.208049 -0.045682 0.073624 0.024632 -0.411025 0.240418 0.154759 -0.014608 0.033625 0.149996 0.218782 -0.118151 0.012716 -0.025298 -0.165521 -0.090740 0.291102 0.382069 -0.110791 -0.495925 -0.106378 0.021555 -0.349147 0.261807 0.061686 -0.347089 0.759906 -0.661513 0.046408 0.113150 -0.015819 -0.039439 0.081809 0.231688 -0.253924 -0.224049 -0.009290 -0.389306 0.474797 0.176998 0.135107 0.275915 -0.153488 -0.165982 -0.034787 0.046552 0.340182 -0.017021 0.368699 -0.347734 -0.162023 -0.370074 -0.064162 0.010366 -0.513346 0.211596 0.182375 -0.261690 -0.207276 0.056222 -0.163308 -0.238052 0.145446 0.282576 0.028153 0.122629 -0.124744 0.285869 -0.102605 -0.150856 0.455635 -0.280723 0.141133 0.091927 -0.164583 -0.049525 -0.200489 -0.012383 -0.390218 -0.083214 0.062003 0.027200 -0.100351 0.222286 0.023966 -0.207515 -0.249841 -0.244415 0.113108 0.162213 -0.362476 -0.244906 0.061572 -0.144515 0.077219 
ugdu -0.296475 -0.108098 -0.021153 -0.095987 0.048749 0.275101 0.358110 0.218287 -0.268525 0.110479 -0.091030 0.054966 -0.051446 0.076269 -0.046800 0.060709 0.074209 -0.074225 -0.012005 0.426610 -0.144373 0.472620 -0.242649 0.325500 -0.044932 -0.063379 -0.135861 0.151615 0.168164 0.254814 -0.479635 0.222088 -0.177160 -0.273515 -0.150089 -0.163705 0.150051 0.304510 0.167778 -0.066503 -0.349683 0.027913 -0.331701 -0.037142 0.468346 -0.047168 0.079426 -0.045043 0.045064 -0.039690 0.011934 0.041828 0.074359 -0.078938 -0.141723 0.070039 0.061109 0.384679 -0.135386 -0.202802 0.047321 0.008698 0.050779 -0.010852 -0.340856 0.033416 0.307523 -0.084711 0.257443 0.152096 0.464486 -0.357072 0.017037 0.108116 -0.273047 0.183121 0.120430 0.074977 -0.250748 -0.010303 0.407244 -0.033573 -0.205480 -0.343118 -0.092997 0.053631 -0.023846 -0.530668 0.251166 -0.480870 0.072569 0.107118 0.039611 0.256473 0.290440 0.045084 0.147636 0.275421 -0.103346 -0.197202 
fhg -1.103824 0.889030 -0.068311 0.298905 0.886796 0.998034 0.077688 0.883868 -0.295243 0.077132 0.458965 -0.658652 -0.411655 -0.272778 -0.241484 -0.064860 0.114916 -0.667910 -0.588046 0.875708 0.501612 0.057226 -0.426903 -0.263147 -0.028031 -0.451137 -0.281026 0.747919 -1.093744 -0.590305 -0.673930 0.211050 -0.647567 -0.316572 0.640058 -0.332911 -0.862767 0.112373 -0.149760 -0.257427 -0.278014 -0.326902 -0.728426 -0.015515 0.427091 -0.266272 -0.222868 0.121642 0.530609 -0.267684 -0.747582 0.588562 0.159521 -0.321336 -0.463675 -0.561602 0.203789 -0.329479 -0.034221 0.157520 -0.061125 0.367348 0.204931 -0.120672 -0.644059 0.130164 -0.842724 0.532788 0.133409 0.067143 0.359701 0.550842 0.448974 -0.058754 -0.284348 -0.136597 0.527634 0.283074 -0.432645 0.474793 -0.328849 0.094934 -1.056102 0.236220 0.473982 0.137000 -0.235515 -0.299423 -0.028265 0.094820 0.104300 0.680629 -0.511171 -0.224635 0.280944 -0.087941 0.050578 -0.166714 0.544469 0.202780 
yukq 0.144170 -0.295389 -0.108666 -0.377781 -0.029270 0.272788 -0.331358 -0.291951 0.204942 -0.390167 0.118590 -0.093328 0.272239 0.222678 0.268865 0.076464 -0.072852 -0.264763 0.021784 -0.557830 -0.161224 -0.062150 0.547868 0.334063 0.037063 -0.005302 -0.096073 -0.152889 0.160255 -0.158078 -0.293259 -0.027924 -0.365614 0.036788 -0.291631 0.274215 -0.118820 0.138716 0.141929 -0.127949 0.178626 0.043126 0.183474 0.511413 0.189037 -0.041946 0.428653 -0.118290 -0.172660 -0.002439 0.374969 -0.168229 -0.345178 0.409403 -0.014191 -0.155068 -0.145635 -0.025277 -0.110216 -0.209922 0.381594 0.320802 0.330769 -0.283215 0.428991 -0.305936 -0.371479 -0.362950 0.087525 -0.358274 -0.049303 0.609988 0.036466 0.316785 0.197539 0.277281 -0.193906 -0.103705 0.053803 -0.245997 -0.316135 -0.053712 -0.358458 -0.229482 -0.015318 -0.303152 -0.066302 0.238984 0.124375 -0.249451 0.129279 -0.329083 -0.109776 0.449242 -0.021565 0.109503 -0.031876 0.015303 -0.004337 0.284303 
ngeg 0.677302 -0.358415 0.084828 0.041161 -0.391081 -0.183502 -0.025050 -0.263697 0.043362 -0.137925 0.043010 0.368856 0.557958 -0.508300 -0.126672 0.035767 -0.178135 0.013817 0.299088 -0.035934 -0.447340 -0.314668 -0.155975 0.441849 -0.414087 0.205326 -0.067200 0.160286 -0.000730 -0.336696 -0.059799 0.168940 -0.170269 -0.195570 -0.260825 0.228991 -0.091094 0.059993 -0.127471 0.108344 -0.071411 0.168411 0.018699 0.153452 0.131432 -0.223966 0.400679 0.190697 -0.266677 0.122274 0.094300 -0.076100 -0.217456 0.237075 -0.005580 0.446095 0.341746 0.114615 -0.293677 0.170845 -0.069015 0.266519 0.202285 0.005692 0.328997 0.179814 0.134016 0.242531 -0.285670 0.148812 -0.034398 -0.531254 -0.338901 -0.322662 0.233612 0.219449 -0.339642 0.081503 -0.039907 0.147003 0.281667 0.052863 0.212599 -0.073291 0.099574 -0.105384 0.455660 0.143762 0.153584 0.065029 -0.071078 -0.020266 -0.081450 0.302710 -0.120809 -0.290958 0.065538 0.094294 0.097069 0.113300 
kbsk 0.082282 -0.579666 -0.402857 -0.079970 -1.075995 0.902678 0.611479 -0.517275 -0.326172 0.231779 -0.170274 -0.425136 0.397024 -0.089029 1.042841 0.131060 -0.823505 -0.197202 0.421234 -0.206853 -0.757867 -0.218886 0.755186 -0.458645 0.058467 0.467279 -0.280784 -0.955992 0.541310 -0.763136 -0.777658 -0.153475 0.058367 0.169595 0.054801 -0.421660 -0.417528 -0.015293 0.475807 -0.150147 0.215417 0.469782 0.409635 0.501810 -0.425612 -0.074979 0.320440 -0.216175 -0.229688 0.345556 0.368563 -0.850641 -0.357390 0.070067 0.292155 0.735890 0.577574 0.667047 -0.158426 0.226348 -0.031231 -0.149824 -0.571526 -0.091493 0.260074 -0.180863 0.008486 -0.494292 0.380519 -0.180318 0.109488 0.071238 -0.547809 0.691121 -0.347167 0.225310 -0.191252 0.104530 -0.133365 0.179103 0.584684 0.070012 0.036885 -0.336631 0.070359 0.619485 0.474515 0.101408 -0.006301 -0.469721 0.432586 -0.026022 0.178378 0.687167 0.535374 -0.417272 -0.254598 0.489128 -0.083791 0.341759 
lfny -0.487970 -0.072014 -0.090026 0.457115 0.383650 0.595668 0.006080 -0.302773 -0.249221 -0.341301 0.056472 -0.132457 -0.271975 0.304959 -0.112860 0.165985 0.727072 0.473719 -0.348954 0.327130 0.603654 0.415535 0.198124 0.104719 -0.240792 0.548003 0.033955 0.122722 -0.094886 0.633824 -0.160640 0.074703 -0.177368 -0.022161 -0.246198 -0.050129 0.103826 0.477803 0.001147 -0.236200 -0.175384 0.302577 0.144237 0.648204 0.419661 -0.119424 -0.622856 -0.066268 -0.102086 0.459177 -0.234458 0.191638 -0.092239 -0.431124 -0.015642 -0.807423 -0.348770 -0.402390 0.267952 -0.305017 0.118225 -0.003185 -0.031640 -0.339192 -0.085559 -0.164409 -0.308072 0.001230 0.042417 -0.072371 0.205223 0.470432 0.203624 -0.181879 -0.335447 0.196623 -0.338998 0.359169 -0.195985 0.009644 0.037466 -0.341347 -0.287799 0.002901 0.070231 0.241751 0.127002 -0.126076 0.335058 -0.063711 -0.125432 -0.220880 -0.411652 0.020343 0.335550 0.075011 0.391366 0.184611 -0.291517 -0.268394 
bnhn 0.210403 -0.573489 0.008073 -0.198866 -0.014549 0.010035 0.082320 -0.165472 -0.022181 -0.212836 0.228997 0.289367 -0.039182 0.020320 -0.000679 0.350211 0.122466 -0.035532 0.077311 -0.306930 -0.031673 0.306211 0.182977 0.437685 -0.219803 -0.234287 0.258661 -0.172767 0.437879 0.071724 -0.147160 0.491206 -0.510814 0.146053 -0.240186 0.267645 0.307676 0.286972 -0.085038 0.208012 -0.359689 0.017510 -0.245756 0.165408 0.371554 0.146407 0.292133 0.212327 -0.315929 -0.217766 -0.155061 0.129147 -0.143926 0.518565 -0.058912 0.053527 -0.141017 -0.040727 -0.227844 -0.495258 0.358698 -0.057803 0.045901 -0.073524 0.134633 -0.113866 0.100390 0.054160 -0.028673 0.233256 -0.013878 -0.122499 -0.043913 -0.333007 0.054474 0.209122 -0.177700 0.315209 0.226804 -0.339649 0.174481 -0.260452 -0.077185 -0.366710 0.269582 0.129466 0.052122 -0.076946 0.295357 -0.430269 -0.039821 0.013450 -0.099189 0.201129 0.196098 0.033237 -0.263868 0.234425 -0.291445 -0.080587 
s 0.009432 0.456543 -0.378401 0.339918 0.619015 1.108486 -0.712074 -0.024867 0.637038 0.254957 -0.543952 -0.402469 -0.156151 0.329848 0.080387 0.122632 0.437015 -1.151608 -0.358973 0.598269 -0.392391 -0.299570 0.068049 -0.306496 -0.218017 -0.780774 -0.374271 -0.715476 0.037745 -0.864263 -0.663179 0.225085 0.123209 0.039210 -0.067066 -0.001834 -0.332695 0.114493 -0.110791 0.249187 0.126594 0.019913 0.128897 -0.244753 0.192527 0.024817 -0.045921 -0.432777 0.820845 -0.010327 -0.748710 0.452738 -0.534318 -0.282558 0.178034 -0.334728 0.269572 -0.961385 -0.556160 0.734575 -0.803911 1.352615 0.747517 -0.099254 -0.391937 -0.220523 -0.538182 -0.134803 0.248431 -0.001864 0.235158 0.738552 0.381792 -0.170902 0.343528 -0.159783 1.256006 0.602896 0.094450 0.875353 -0.429529 -0.025378 -0.918520 -0.006399 0.354945 -0.044904 -0.414478 -0.316226 0.827560 -0.244686 -0.228368 0.521398 -0.329986 0.020785 -0.631556 -0.014130 -0.006623 -0.521594 -0.094765 -0.129164 
tkg 0.094035 -0.310112 -0.087612 0.000589 -0.178187 -0.513118 0.380974 -0.555119 -0.308337 -0.014282 0.212195 0.328093 0.075763 -0.512720 0.145066 0.243924 0.156466 0.466370 -0.399426 0.419990 0.365203 -0.102622 0.069265 -0.135494 -0.060402 0.040475 -0.158893 0.139482 0.110758 -0.068973 -0.238420 0.309106 0.073336 -0.320803 0.200938 0.074977 0.070945 0.423702 -0.102938 0.238196 0.029182 0.116111 0.108433 0.533584 -0.104910 -0.134303 0.032848 0.128577 -0.033127 -0.367735 0.154599 -0.278503 0.133521 0.191471 -0.215074 0.132422 -0.038206 -0.167719 -0.129181 -0.391743 0.284636 0.231837 -0.151426 0.161971 0.026785 -0.164495 -0.115159 0.164105 -0.403269 -0.083314 -0.051345 -0.045548 -0.151277 -0.215947 -0.046455 -0.099621 -0.347782 0.034411 -0.085183 0.148403 0.330998 -0.196605 -0.112297 0.159152 0.553423 -0.126738 0.161298 0.671524 0.003500 0.029598 -0.036838 -0.220835 0.130199 -0.060838 0.114448 -0.277417 0.236555 0.142297 -0.208736 0.141267 
tvey 0.515670 -0.435638 0.021963 -0.683107 -0.280415 -0.415581 -0.180174 -0.414355 -0.164168 0.055858 0.082029 -0.026806 0.059114 0.064729 0.338394 0.145342 -0.406414 -0.294617 -0.198197 -0.108594 -0.020163 -0.227252 0.321158 0.213269 0.552940 -0.180350 0.210736 0.110342 -0.226638 -0.136617 -0.182678 -0.421954 -0.085301 0.246885 0.475427 -0.231778 -0.072062 -0.362455 0.323900 -0.413835 -0.132234 -0.442744 0.177760 0.029050 0.198246 -0.148147 0.281534 0.104199 0.010995 -0.603561 -0.470850 -0.095428 -0.001835 0.185976 -0.361738 -0.020463 0.277980 0.210488 -0.039169 -0.499205 0.115981 -0.485016 -0.072088 0.067036 0.090816 -0.214636 -0.210300 -0.170909 -0.074509 -0.381823 0.046931 0.086349 -0.146026 0.522577 0.198496 -0.244433 -0.239124 -0.153045 0.455982 -0.421269 0.237320 0.468010 -0.225315 0.149019 -0.077167 -0.185032 0.100354 0.213089 -0.635349 -0.483101 0.409271 -0.046961 0.436888 0.368343 0.278825 0.040930 -0.222913 -0.165661 -0.098718 0.709086 
itdg -0.277678 -0.208764 -0.370733 -0.117237 0.240414 0.040426 0.299555 0.087041 -0.133348 -0.045204 0.003423 -0.279021 -0.349730 -0.377375 0.099099 -0.192075 0.019854 0.183443 -0.330507 -0.196020 0.495715 0.108704 -0.274258 0.221715 0.105599 -0.256127 0.089734 0.282665 0.060179 -0.028844 0.123843 -0.102075 -0.557469 0.080285 0.032562 -0.301107 -0.031625 0.146421 -0.235290 -0.356257 0.093529 0.027167 -0.260283 0.189457 0.061975 -0.114161 0.164442 0.063460 0.154606 -0.286612 -0.030048 0.346752 0.333972 -0.073314 -0.347839 -0.251253 -0.277447 -0.235214 -0.090537 -0.457866 -0.056220 0.023810 0.140941 -0.448460 0.056372 0.052999 -0.258106 0.005619 0.156779 -0.059184 -0.408006 0.392816 0.345299 0.419016 -0.109843 0.121694 0.045833 -0.425543 -0.092565 -0.240358 -0.458140 0.110682 -0.565925 0.243265 -0.262789 -0.033225 -0.420196 -0.081500 -0.047309 -0.033620 0.108489 -0.059223 -0.030284 0.003344 0.076885 0.114991 -0.183136 -0.265325 0.297374 -0.201590 
i -0.152251 0.310053 0.015103 0.689769 0.010342 0.530184 -0.500471 -0.110405 0.667258 0.034022 -0.467340 0.086408 0.010218 0.621843 -0.164744 0.349471 0.571433 -0.776646 0.330750 0.381710 0.110589 0.832567 -0.020503 -0.462306 0.040736 -0.370307 -0.381751 -0.649860 0.419621 -0.499349 0.120987 0.307379 0.494824 -0.514446 -0.230677 0.380881 -0.231117 0.121172 -0.497959 0.168509 0.341275 0.126135 0.732861 -0.093501 0.156151 -0.096280 -0.321742 -0.709605 0.771959 -0.038370 -0.412984 -0.118228 -0.726511 -0.580470 -0.324759 -0.515486 -0.173268 -0.720685 0.543386 0.596780 -0.382109 0.613382 0.683109 -0.007041 -0.496524 -0.638124 -1.381283 -0.613640 -0.179712 -0.436786 0.123956 0.299775 0.376625 -0.151426 0.635922 -0.127941 1.114113 0.162835 -0.304363 0.888851 -0.127928 -0.227306 -0.939381 -0.462402 0.741239 -0.484933 -0.536106 0.336697 0.576112 -0.277192 0.206700 -0.251193 -0.339519 0.151787 -0.710232 0.219892 0.379956 -0.538364 -0.307926 -0.379234 
a 0.110815 -0.219825 -0.551714 0.249414 0.612264 0.603266 -0.213078 -0.228271 0.568788 -0.092566 -0.061572 -0.084397 -0.179106 -0.378516 -0.100038 0.192197 0.605419 -0.938052 0.103327 0.408804 0.211263 0.908589 0.003716 -0.208388 0.059798 -0.339656 -0.316820 -0.725940 0.555112 -0.846003 0.185356 0.804282 -0.346910 -0.213493 -0.061004 0.132034 -0.012640 0.270514 -0.650058 -0.120307 -0.251574 0.197141 0.048843 -0.058064 0.325665 0.154197 -0.085557 -0.782273 0.925987 -0.011887 -0.802731 -0.034876 -0.869051 -0.076664 -0.680926 -0.472353 -0.110194 -0.731677 0.130966 0.880115 -0.710596 1.172899 0.545717 -0.392792 -0.494645 -0.369817 -0.841836 -0.645053 0.106050 -0.321038 0.400403 0.290385 -0.209650 0.057143 0.535499 0.461670 1.156542 0.679566 -0.243707 0.507381 0.307496 -0.258338 -0.713748 -0.689529 0.902716 -0.038994 -0.340352 -0.174867 0.851841 -0.145911 -0.031986 -0.175296 -0.103137 0.141568 -0.787132 -0.144137 0.017815 -0.383796 -0.376159 -0.397502 
fhwu 0.418135 -0.465184 -0.196697 -0.446618 -0.163059 -0.238892 0.264477 -0.519453 -0.217255 0.154380 -0.077618 -0.272359 0.414246 -0.148687 0.498635 0.009966 -0.443246 0.243248 0.065279 -0.101805 -0.148617 -0.268853 0.521847 0.010411 -0.098571 0.307275 -0.095127 -0.136535 -0.168344 -0.252326 0.006839 -0.231016 0.118383 -0.044098 0.074236 -0.259361 -0.253861 -0.212611 0.244297 0.014528 -0.353254 -0.080061 -0.128232 0.177393 -0.130191 -0.118006 0.194034 0.025330 -0.125872 0.133039 0.007589 -0.154687 -0.093938 0.430491 -0.025823 0.202271 0.053271 0.209821 -0.017406 -0.097774 0.202497 -0.335241 -0.643987 -0.090857 0.463231 0.086898 -0.222491 -0.083866 0.173153 -0.102990 -0.313614 -0.236440 -0.065239 0.464009 -0.106622 0.214068 -0.570792 -0.032491 0.224696 0.161037 0.453703 0.192771 0.291823 0.136802 -0.164764 -0.066095 0.086875 0.199138 -0.369988 -0.019430 0.044727 -0.247551 0.300641 0.194902 0.070661 -0.691496 -0.116434 0.205808 -0.165767 0.323049 
gak 0.087867 -0.380191 -0.157870 0.203135 0.342757 0.174000 -0.190863 -0.126336 -0.056021 -0.726691 0.379556 -0.538527 -0.105904 -0.568460 0.120632 0.010420 -0.236215 -0.176450 -0.407985 0.086891 -0.158389 -0.149234 0.283888 0.111161 -0.406150 0.365241 0.022570 -0.095579 -0.463152 0.026189 -0.068805 0.469032 0.041927 0.459503 0.403170 0.156124 -0.233266 0.108220 0.013632 -0.341167 0.349345 -0.170210 -0.218159 0.473029 0.041033 0.148285 -0.387310 0.343922 -0.405178 -0.129935 -0.431447 -0.077269 -0.074523 -0.266695 -0.142018 -0.253949 -0.044660 0.077493 0.071513 -0.444449 0.012501 0.328065 -0.133072 -0.213963 0.109542 -0.248651 0.314373 0.435771 -0.082297 -0.160715 0.248480 -0.065622 -0.545302 -0.212273 -0.214203 -0.027739 -0.075533 0.171361 0.380900 -0.407113 -0.029852 0.188940 0.070443 0.419219 -0.156946 0.190958 0.767030 0.066876 -0.347427 0.091076 -0.464410 -0.228895 -0.248086 0.027464 0.278190 -0.087325 -0.146689 0.131982 -0.191879 0.035594 
fhnv 0.175850 -0.209453 -0.331684 0.177321 0.046441 0.041706 0.346527 -0.313940 0.083425 -0.354821 -0.240310 0.345546 0.037634 -0.374141 0.251441 -0.027520 -0.465461 0.347243 -0.096928 -0.021443 0.086538 -0.429557 0.372653 0.090734 -0.333630 0.297049 0.090756 0.093615 -0.308824 0.073210 0.256605 -0.113978 -0.103582 0.266940 0.048860 0.141992 -0.138663 0.094766 0.055800 -0.535253 0.216210 0.021254 0.037210 0.044857 0.060430 -0.157749 0.344806 0.165922 -0.699134 0.061360 0.132248 0.511126 -0.375124 0.074885 -0.285875 -0.089884 0.168796 0.066720 -0.042808 -0.102305 0.057333 0.021436 0.041863 -0.595500 0.302278 0.079307 -1.118351 -0.279841 0.213213 0.171332 -0.241299 0.198225 0.075863 -0.051539 0.142320 0.165805 -0.513026 -0.079302 -0.226951 -0.141575 -0.152182 0.271799 0.146244 0.035661 -0.020271 0.077636 0.206470 -0.084212 -0.002569 0.081212 -0.163492 -0.557630 0.191844 0.601597 -0.290070 0.067961 -0.118097 -0.167016 0.231938 0.369213 
kcn -0.274633 -0.008028 -0.111706 -0.065229 0.230536 -0.063916 0.186419 0.521043 -0.358151 0.217102 -0.028015 0.075268 -0.303453 0.039736 0.013876 -0.115408 0.102512 -0.010750 0.089823 0.141713 0.257906 0.107465 -0.234154 0.083325 0.231400 -0.212902 0.320476 0.227873 -0.240102 0.305382 0.191916 -0.293089 -0.331254 0.059339 -0.060171 -0.304973 0.303080 -0.276727 -0.099416 -0.389012 -0.343252 -0.069008 -0.356100 -0.277460 0.242763 0.170598 0.163428 -0.338997 -0.007526 -0.108597 0.103577 -0.049157 -0.197811 -0.023749 -0.138597 -0.061993 -0.245151 0.187869 -0.098040 0.213092 0.008328 -0.278737 0.070185 -0.462008 -0.255402 0.240125 -0.219388 0.065321 0.071149 0.001436 0.152363 0.159068 -0.166816 0.206537 0.146298 0.093560 0.283657 -0.039018 -0.087660 -0.301906 0.007455 -0.222555 0.067166 -0.174240 0.160094 0.206656 -0.061925 -0.036738 -0.039171 -0.329469 0.337987 0.219116 0.201910 0.043328 0.400781 0.198512 -0.120661 -0.303686 0.035019 0.143246 
rhfk 0.336103 -0.003320 -0.026689 0.182122 -0.198986 0.234914 -0.234913 -0.441073 0.515517 -0.151851 -0.183349 -0.241391 0.282696 -0.255599 -0.065247 0.223094 -0.099977 -0.223638 0.399599 -0.050330 -0.090812 0.114721 0.105926 0.360412 -0.123988 0.194838 -0.194983 -0.018632 0.051264 -0.564349 0.013443 0.208739 -0.407885 -0.391154 0.069183 -0.199525 -0.535020 -0.306467 0.099018 0.058503 -0.339105 0.201907 0.114070 0.167853 0.450158 -0.379016 0.145893 -0.157582 0.361056 0.358428 -0.818375 0.299661 -0.030616 0.143363 -0.243293 -0.015164 0.250701 -0.473787 0.003167 0.087199 -0.417280 -0.052437 0.132852 -0.283121 0.127003 0.152327 0.140006 -0.061740 0.135372 0.239404 -0.294971 -0.088182 0.408899 -0.091324 0.326760 0.148903 0.218600 0.152929 -0.236057 0.506223 -0.152833 0.319336 -0.359797 -0.140535 -0.398028 0.011624 0.232884 -0.661964 0.002561 0.223864 -0.056697 0.060726 -0.216066 0.005726 -0.185392 -0.042326 -0.094026 0.052695 -0.037147 -0.221093 
imcy 0.564642 -0.425469 0.256485 -0.557253 -0.167467 -0.247229 -0.682072 -0.269847 -0.003732 -0.042726 0.433640 -0.135220 -0.113963 -0.263724 0.254719 0.074215 -0.026848 -0.158882 -0.041349 -0.515206 -0.037501 -0.072380 0.210729 -0.001812 -0.227051 -0.317174 0.216458 -0.142999 -0.021216 -0.052736 0.332598 -0.189218 -0.594689 0.258190 -0.439318 0.196856 0.267837 -0.643006 -0.264027 0.051845 -0.364227 -0.366964 0.284604 0.627736 -0.026517 0.533290 0.008929 0.192510 -0.014552 -0.030770 -0.273614 -0.451681 -0.389400 0.487692 0.195007 0.050073 -0.263091 0.143026 -0.239451 -0.253833 0.069453 -0.261041 0.218732 -0.052592 0.044428 0.045452 0.632965 0.356084 -0.064715 -0.223378 -0.247746 0.004285 -0.348426 0.194312 0.279305 -0.105942 0.336828 0.358030 0.506360 -0.327056 -0.202951 -0.258999 0.218727 -0.220110 -0.043992 0.105195 0.083149 0.374101 -0.113251 -0.361927 0.268004 0.146392 0.076502 -0.125611 0.586041 -0.358300 -0.535396 0.106947 -0.499434 -0.100598 
z 0.688515 0.250620 -0.724163 -0.104699 0.756569 0.535221 -0.255316 -0.646939 -0.359738 -0.016167 -0.080283 -0.329181 -0.219757 -0.602681 0.256432 0.259995 0.462335 -0.620365 -0.267644 0.779195 -0.260402 0.212288 -0.278762 -0.825748 -0.535735 -0.843754 -0.570254 -0.290847 0.261808 -0.663754 0.038388 0.530915 -0.047620 -0.260824 -0.035843 -0.498115 -0.411812 -0.024333 -0.582651 -0.667467 0.406150 -0.371513 0.297432 0.529054 0.127813 -0.052126 0.135658 -0.621546 1.371801 0.117430 -0.826343 0.107132 0.003407 -0.220147 0.062274 -0.855816 0.309301 -1.050375 0.112302 0.777404 -1.054302 1.096214 -0.213826 -0.006705 -0.418539 0.180202 0.679803 0.034526 0.189786 -0.085773 0.461011 0.453826 0.194162 -0.121568 0.198165 -0.415244 0.777635 0.579616 0.017099 0.582839 -0.351494 0.133750 -0.199053 0.000069 0.280142 0.226684 0.270060 -0.119742 0.473767 0.370804 -0.343840 0.101366 -0.084700 -0.339342 -0.061414 -0.248418 0.211864 -0.455708 -0.231457 -0.102257 
etnh 0.256517 -0.415254 0.110286 -0.197931 0.051459 -0.203734 -0.126082 -0.303904 -0.141982 0.235256 -0.070187 -0.059319 -0.069420 -0.648147 0.424638 0.463509 0.240958 -0.381002 -0.018560 0.109396 0.003702 -0.274302 0.333499 0.122926 -0.259684 0.042447 -0.031061 0.129587 -0.245481 0.217253 -0.269293 0.032689 -0.320322 0.023926 0.232859 -0.008054 -0.089262 -0.193518 0.173686 0.135928 -0.472266 -0.202965 0.132501 0.241409 0.648983 -0.104485 -0.080151 0.216557 -0.149767 0.255029 -0.344067 -0.254795 -0.411365 0.003295 -0.107877 0.276098 -0.010795 0.223834 -0.154984 -0.433340 -0.202515 -0.079935 0.214194 -0.224947 0.071801 0.085911 -0.046249 0.280611 -0.142874 0.066978 0.060602 0.191630 -0.036191 0.018507 -0.048024 0.007189 0.201765 0.333101 0.133529 0.030088 0.035618 0.060393 -0.043771 0.073375 0.145846 0.181093 0.505053 0.152596 -0.039492 -0.309582 0.062927 0.127255 -0.107116 0.056295 0.368599 0.277792 -0.162047 0.077828 -0.621840 -0.185754 
nnwy 0.332459 -0.220359 -0.183662 -0.420373 -0.435697 -0.096227 0.350213 -0.433093 -0.004720 0.451952 -0.173459 -0.138926 -0.090578 -0.030362 0.298594 0.191207 -0.015610 0.048273 -0.275648 0.072516 -0.140671 -0.018160 0.079744 -0.241999 0.167715 -0.091802 -0.091195 0.034517 0.233923 -0.088448 -0.697107 0.064547 -0.362954 0.220235 0.583073 -0.371105 -0.199901 0.044743 0.203449 -0.020328 -0.050564 -0.146274 0.002102 -0.186159 -0.244113 -0.216979 -0.073186 0.108482 -0.167083 -0.479877 -0.377559 0.203388 0.136170 -0.229862 -0.145110 0.434664 0.325998 -0.149055 -0.172145 -0.245211 -0.317005 -0.128943 -0.189812 0.141306 -0.238548 0.161902 -0.124760 -0.179385 0.055721 0.068302 0.025307 0.324607 -0.075559 0.361953 -0.564171 -0.221125 0.047543 0.004775 -0.191694 -0.105756 0.300485 0.180675 -0.201804 -0.045940 -0.079969 0.376468 -0.088253 -0.268134 -0.153567 0.025276 -0.059371 0.166348 0.008387 0.177281 0.125140 -0.159266 -0.029709 0.131854 0.042235 0.025580 
bmk 0.165992 -0.080375 0.045714 -0.412121 -0.036039 -0.299041 0.281895 -0.613884 -0.182331 0.424757 -0.046588 -0.136209 -0.028018 -0.119582 0.180735 0.220131 0.116866 -0.070906 -0.074234 0.211936 0.160541 -0.380546 0.218362 0.121162 -0.054087 0.002869 -0.115100 0.292315 -0.058947 0.263612 -0.103577 -0.458724 -0.339568 -0.292479 -0.164993 -0.176065 -0.022136 -0.173855 0.107520 0.127104 -0.408552 0.132679 0.200215 0.335647 -0.185984 -0.091251 0.202117 0.130875 0.180053 -0.098168 0.046922 -0.095016 0.117433 0.274517 -0.159400 0.191754 -0.303860 0.049833 -0.387885 -0.393037 -0.300525 -0.134486 0.084101 -0.138955 0.066018 0.336002 -0.122648 -0.264320 0.100092 -0.012743 -0.256885 0.281386 -0.057028 0.501274 -0.055777 -0.124937 -0.172906 0.045191 -0.154465 0.031217 0.033432 0.231037 -0.239028 -0.039949 -0.232000 -0.081806 0.043194 0.234571 -0.097198 -0.300611 0.203742 0.158552 0.170053 0.075371 0.382904 -0.236104 -0.068644 0.083055 -0.310402 0.013962 
dgkn -0.147718 -0.717771 -0.284483 0.119731 0.070393 0.315181 0.796001 -0.535758 -0.287335 -0.027332 0.109817 -0.273454 0.259586 0.598115 0.504638 0.165396 -0.321393 0.102225 -0.038682 -0.547723 0.488530 0.322006 0.165283 0.241752 -0.130748 0.302052 0.420844 -0.369837 0.274902 0.175118 0.509641 -0.111653 -0.329815 0.020726 -0.401840 -0.055556 0.034904 0.383595 -0.184590 -0.030846 -0.467245 0.183466 -0.055547 0.547951 -0.325534 0.041119 0.396738 -0.125922 0.009457 0.092019 0.472161 -0.383264 -0.360921 0.397399 0.008355 -0.079637 -0.524600 0.123221 0.265804 -0.165587 0.139052 -0.332918 -0.117655 -0.589421 0.076916 -0.168566 -1.151305 -0.614981 0.233816 -0.329995 -0.579105 0.060376 -0.312397 0.761640 0.394260 0.395978 -0.348375 -0.015971 -0.334632 -0.013508 0.211493 -0.277815 0.019225 -0.214170 0.199526 0.137269 -0.177664 -0.070409 0.029565 -0.381435 0.138780 -0.336397 -0.016318 0.348024 0.237737 -0.114207 -0.496767 -0.091018 -0.030545 0.187267 
vvvv -0.006250 -0.465701 -0.018546 0.031369 0.053526 0.098429 0.064792 -0.363624 0.029216 -0.169198 0.042119 -0.103991 0.143525 0.247424 0.065399 0.261385 0.371112 -0.060185 -0.451275 -0.061523 -0.108986 -0.136280 0.280118 0.086606 -0.097483 0.398374 0.079470 -0.113606 0.128013 0.085119 -0.453609 0.544253 -0.085316 0.184387 0.204675 0.467405 -0.092023 0.560349 0.066788 0.082236 0.118879 -0.025401 -0.234748 0.031907 -0.353203 -0.035883 -0.224059 0.021849 -0.201661 -0.238884 -0.122339 0.102967 -0.161343 -0.066468 0.108270 0.329158 0.421471 -0.131322 0.217485 -0.215348 0.097734 0.410377 0.191016 -0.026301 0.026355 -0.446850 -0.178789 -0.132702 -0.021918 0.122900 0.221606 -0.265321 0.001235 -0.245689 -0.411997 0.108425 -0.318361 0.165409 -0.004421 -0.046860 0.271091 0.270992 -0.003621 -0.100488 0.150272 0.055081 0.205604 -0.201725 0.029730 0.137289 -0.600541 -0.033504 -0.420421 -0.054841 -0.060437 -0.436630 -0.039572 0.400185 -0.089330 -0.046359 
ltn -0.068219 -0.052276 -0.155479 0.241546 -0.149637 0.498548 0.496535 -0.125354 -0.538529 -0.170668 -0.027196 0.337191 0.450779 0.004008 0.525582 0.104946 -0.089672 0.257570 0.150905 0.349951 0.004792 -0.144980 0.593057 -0.152848 -0.249239 -0.046028 -0.281196 -0.268765 -0.000837 0.284950 -0.272783 0.366160 -0.010628 -0.431147 -0.199438 -0.019083 0.237946 0.198052 -0.339203 -0.489435 0.182649 -0.022930 -0.311491 0.361200 0.407985 -0.356144 0.332037 -0.553434 -0.568819 0.296776 0.085890 0.015656 -0.942666 0.117137 0.177416 -0.248900 -0.212955 0.316604 0.065470 -0.044325 0.685851 0.121051 0.013854 -0.381868 0.118484 -0.241111 -0.461115 -0.061200 -0.151666 -0.257355 -0.114512 -0.064823 -0.019052 0.150126 0.035035 0.265016 -0.354330 0.151247 -0.274746 -0.231713 0.229754 -0.168247 -0.295529 -0.164888 0.206115 0.066920 -0.089384 0.096141 0.405644 -0.370788 -0.048940 -0.797740 0.252951 0.424977 0.284434 -0.018788 0.174438 0.388729 -0.134722 0.267594 
vfbh 0.566582 -0.619573 -0.164459 -0.401475 0.248064 -0.033603 0.246087 -0.282172 0.105274 -0.086104 -0.018930 0.086820 0.143304 -0.564836 0.314830 -0.038112 -0.137578 -0.177130 0.552380 -0.198470 -0.050213 -0.191560 0.706251 0.366626 -0.263180 0.217270 -0.022519 0.077816 -0.275556 0.056509 0.152920 -0.521192 -0.316547 0.073134 -0.280291 0.060244 0.058882 -0.480757 0.025879 -0.194152 -0.219370 0.121373 0.210205 0.241504 0.473945 0.079629 0.495991 0.125064 -0.498580 0.336509 0.578558 -0.323691 -0.387373 0.560562 -0.143762 -0.215298 -0.141567 0.556840 -0.311737 -0.074363 0.120520 -0.064430 -0.386576 -0.337444 0.608512 0.152367 0.092428 0.062935 0.258367 -0.078413 -0.005906 0.092608 -0.264959 0.523500 0.268375 0.524645 -0.332539 0.057387 0.147301 -0.275829 -0.332929 0.074736 0.288263 -0.185573 -0.052191 -0.109167 -0.048697 0.584516 0.007626 -0.284381 0.521075 -0.267544 0.391088 0.569549 -0.065308 0.145213 -0.230513 0.034381 -0.377550 -0.038353 
~ -0.414002 0.511716 -0.090192 -0.306560 0.561713 0.763719 -0.190516 0.197968 0.209737 -0.110497 0.056418 -0.460948 0.332902 -0.034508 -0.098630 -0.370832 -0.063334 -0.456131 -0.202938 -0.020382 0.130575 -0.904146 -0.169847 0.161424 -0.487261 -0.175046 -0.032802 0.476719 -0.620042 -0.730938 -0.413465 0.413317 -0.685380 0.150437 0.556735 -0.074137 -0.637607 -0.296527 -0.120098 0.399243 0.133273 -0.223074 -0.610469 -0.246265 0.014365 -0.084128 -0.068259 -0.038794 0.049468 0.085153 -0.817804 0.620517 -0.343668 -0.018754 0.096291 -0.043589 0.206749 -0.350286 -0.544992 0.452091 -0.717786 0.612119 0.610960 -0.362525 0.238731 0.484510 -1.084929 0.251528 -0.122344 0.100913 -0.400553 0.298274 -0.281264 0.207676 -0.422578 0.149821 0.538332 0.043883 0.227146 0.162068 -0.445102 -0.032203 0.097324 0.424522 -0.461394 -0.016150 -0.223478 -0.571189 0.004108 0.468876 -0.442506 0.295950 -0.348946 -0.106099 -0.495489 -0.329021 -0.300291 -0.195855 0.518346 0.343565 
rtgh -0.167750 -0.046989 0.108969 0.227122 -0.010876 0.127824 0.473798 -0.021576 0.162770 0.129854 0.374177 -0.150217 0.516343 -0.389051 -0.309789 0.136490 0.127348 -0.163169 -0.167368 0.440173 -0.144880 0.157269 -0.186202 0.274432 -0.069094 0.292409 -0.041081 0.769279 -0.243213 -0.553026 -0.273284 0.352563 -0.362816 -0.374413 0.633441 -0.291103 -0.495868 0.144631 0.124665 0.226277 -0.199496 0.145104 -0.027334 -0.330900 0.031589 -0.086420 -0.250952 -0.168015 0.175663 0.210537 -0.132929 -0.182887 0.119120 -0.357853 -0.506269 0.084741 0.340640 0.166012 -0.145187 0.466762 -0.870602 0.224500 0.003265 0.262768 -0.491390 0.220454 -0.332380 -0.129558 -0.063099 0.148053 0.236726 -0.137313 -0.552772 0.365456 -0.409404 0.181781 0.321715 0.270260 -0.598621 0.409448 0.503809 0.130248 0.186161 -0.123687 0.056018 -0.068000 0.379654 -0.276915 -0.164676 0.012734 0.077599 0.356412 -0.270797 0.225435 -0.295050 -0.057078 0.194821 0.083816 0.133366 0.309973 
rffy -0.357388 0.236571 0.450238 0.342135 0.106152 0.309438 0.428017 -0.143803 -0.547747 0.145457 -0.178261 0.313826 -0.164574 -0.374309 0.427522 -0.055924 0.068439 -0.038775 -0.300094 0.677989 -0.026213 -0.283530 -0.164937 0.567000 -0.269072 0.127600 -0.413437 0.893551 -0.992765 0.477250 -0.085388 -0.640214 -0.036787 0.123691 -0.084324 0.182009 0.121869 0.039824 0.133388 -0.082046 -0.053137 -0.348688 -0.069555 -0.167940 0.469418 -0.305943 -0.394778 0.347817 -0.279400 -0.117416 -0.408002 -0.110624 -0.522267 -0.981893 -0.172893 0.352673 -0.103887 0.544705 0.011772 -0.436036 -0.527397 0.024499 0.642234 -0.643164 -0.766703 -0.196588 -0.267984 0.288353 -0.432145 0.091864 -0.081483 0.367212 0.033742 0.099024 -0.177005 -0.219781 0.608536 -0.044871 -0.826666 -0.000735 0.029848 0.095532 -0.321215 0.395948 0.026375 0.381594 -0.218294 -0.333582 -0.144032 -0.542205 0.159486 0.286252 0.012694 0.466379 0.223282 0.845435 0.432570 0.099086 0.275674 -0.376412 
